double FEMQuadElement3D::gqPoints[NUMRULE][NUMGLE] = 
{
 {0.250000000000000, 0.250000000000000, 0.250000000000000, 0.250000000000000 },
 {0.617587190300083, 0.127470936566639, 0.127470936566639, 0.127470936566639 },
 {0.127470936566639, 0.127470936566639, 0.127470936566639, 0.617587190300083 },
 {0.127470936566639, 0.127470936566639, 0.617587190300083, 0.127470936566639 },
 {0.127470936566639, 0.617587190300083, 0.127470936566639, 0.127470936566639 },
 {0.903763508822103, 0.032078830392632, 0.032078830392632, 0.032078830392632 },
 {0.032078830392632, 0.032078830392632, 0.032078830392632, 0.903763508822103 },
 {0.032078830392632, 0.032078830392632, 0.903763508822103, 0.032078830392632 },
 {0.032078830392632, 0.903763508822103, 0.032078830392632, 0.032078830392632 },
 {0.450222904356719, 0.049777095643281, 0.049777095643281, 0.450222904356719 },
 {0.049777095643281, 0.450222904356719, 0.049777095643281, 0.450222904356719 },
 {0.049777095643281, 0.049777095643281, 0.450222904356719, 0.450222904356719 },
 {0.049777095643281, 0.450222904356719, 0.450222904356719, 0.049777095643281 },
 {0.450222904356719, 0.049777095643281, 0.450222904356719, 0.049777095643281 },
 {0.450222904356719, 0.450222904356719, 0.049777095643281, 0.049777095643281 },
 {0.316269552601450, 0.183730447398550, 0.183730447398550, 0.316269552601450 },
 {0.183730447398550, 0.316269552601450, 0.183730447398550, 0.316269552601450 },
 {0.183730447398550, 0.183730447398550, 0.316269552601450, 0.316269552601450 },
 {0.183730447398550, 0.316269552601450, 0.316269552601450, 0.183730447398550 },
 {0.316269552601450, 0.183730447398550, 0.316269552601450, 0.183730447398550 },
 {0.316269552601450, 0.316269552601450, 0.183730447398550, 0.183730447398550 },
 {0.022917787844817, 0.231901089397151, 0.231901089397151, 0.513280033360881 },
 {0.231901089397151, 0.022917787844817, 0.231901089397151, 0.513280033360881 },
 {0.231901089397151, 0.231901089397151, 0.022917787844817, 0.513280033360881 },
 {0.513280033360881, 0.231901089397151, 0.231901089397151, 0.022917787844817 },
 {0.231901089397151, 0.513280033360881, 0.231901089397151, 0.022917787844817 },
 {0.231901089397151, 0.231901089397151, 0.513280033360881, 0.022917787844817 },
 {0.231901089397151, 0.022917787844817, 0.513280033360881, 0.231901089397151 },
 {0.022917787844817, 0.513280033360881, 0.231901089397151, 0.231901089397151 },
 {0.513280033360881, 0.231901089397151, 0.022917787844817, 0.231901089397151 },
 {0.231901089397151, 0.513280033360881, 0.022917787844817, 0.231901089397151 },
 {0.022917787844817, 0.231901089397151, 0.513280033360881, 0.231901089397151 },
 {0.513280033360881, 0.022917787844817, 0.231901089397151, 0.231901089397151 },
 {0.730313427807538, 0.037970048471829, 0.037970048471829, 0.193746475248804 },
 {0.037970048471829, 0.730313427807538, 0.037970048471829, 0.193746475248804 },
 {0.037970048471829, 0.037970048471829, 0.730313427807538, 0.193746475248804 },
 {0.193746475248804, 0.037970048471829, 0.037970048471829, 0.730313427807538 },
 {0.037970048471829, 0.193746475248804, 0.037970048471829, 0.730313427807538 },
 {0.037970048471829, 0.037970048471829, 0.193746475248804, 0.730313427807538 },
 {0.037970048471829, 0.730313427807538, 0.193746475248804, 0.037970048471829 },
 {0.730313427807538, 0.193746475248804, 0.037970048471829, 0.037970048471829 },
 {0.193746475248804, 0.037970048471829, 0.730313427807538, 0.037970048471829 },
 {0.037970048471829, 0.193746475248804, 0.730313427807538, 0.037970048471829 },
 {0.730313427807538, 0.037970048471829, 0.193746475248804, 0.037970048471829 },
 {0.193746475248804, 0.730313427807538, 0.037970048471829, 0.037970048471829 },
};

double FEMQuadElement3D::gqWeights[NUMRULE] = 
{
 -0.235962039847756,
 0.024487896356056,
 0.024487896356056,
 0.024487896356056,
 0.024487896356056,
 0.003948520639826,
 0.003948520639826,
 0.003948520639826,
 0.003948520639826,
 0.026305552950737,
 0.026305552950737,
 0.026305552950737,
 0.026305552950737,
 0.026305552950737,
 0.026305552950737,
 0.082980383055059,
 0.082980383055059,
 0.082980383055059,
 0.082980383055059,
 0.082980383055059,
 0.082980383055059,
 0.025442624548102,
 0.025442624548102,
 0.025442624548102,
 0.025442624548102,
 0.025442624548102,
 0.025442624548102,
 0.025442624548102,
 0.025442624548102,
 0.025442624548102,
 0.025442624548102,
 0.025442624548102,
 0.025442624548102,
 0.013432438437685,
 0.013432438437685,
 0.013432438437685,
 0.013432438437685,
 0.013432438437685,
 0.013432438437685,
 0.013432438437685,
 0.013432438437685,
 0.013432438437685,
 0.013432438437685,
 0.013432438437685,
 0.013432438437685,
};

double FEMQuadElement3D::phiJ[NUMRULE][NUMGLEU] = 
{
 {-0.125000000000000, -0.125000000000000, -0.125000000000000, -0.125000000000000, 0.250000000000000, 0.250000000000000, 0.250000000000000, 0.250000000000000, 0.250000000000000, 0.250000000000000 },
 {0.145240684945419, -0.094973257228287, -0.094973257228287, -0.094973257228287, 0.314897670236443, 0.064995358676704, 0.314897670236443, 0.314897670236443, 0.064995358676704, 0.064995358676704 },
 {-0.094973257228287, -0.094973257228287, -0.094973257228287, 0.145240684945419, 0.064995358676704, 0.064995358676704, 0.064995358676704, 0.314897670236443, 0.314897670236443, 0.314897670236443 },
 {-0.094973257228287, -0.094973257228287, 0.145240684945419, -0.094973257228287, 0.064995358676704, 0.314897670236443, 0.314897670236443, 0.064995358676704, 0.064995358676704, 0.314897670236443 },
 {-0.094973257228287, 0.145240684945419, -0.094973257228287, -0.094973257228287, 0.314897670236443, 0.314897670236443, 0.064995358676704, 0.064995358676704, 0.314897670236443, 0.064995358676704 },
 {0.729813450934776, -0.030020727673914, -0.030020727673914, -0.030020727673914, 0.115966705258218, 0.004116205437437, 0.115966705258218, 0.115966705258218, 0.004116205437437, 0.004116205437437 },
 {-0.030020727673914, -0.030020727673914, -0.030020727673914, 0.729813450934776, 0.004116205437437, 0.004116205437437, 0.004116205437437, 0.115966705258218, 0.115966705258218, 0.115966705258218 },
 {-0.030020727673914, -0.030020727673914, 0.729813450934776, -0.030020727673914, 0.004116205437437, 0.115966705258218, 0.115966705258218, 0.004116205437437, 0.004116205437437, 0.115966705258218 },
 {-0.030020727673914, 0.729813450934776, -0.030020727673914, -0.030020727673914, 0.115966705258218, 0.115966705258218, 0.004116205437437, 0.004116205437437, 0.115966705258218, 0.004116205437437 },
 {-0.044821577141920, -0.044821577141920, -0.044821577141920, -0.044821577141920, 0.089643154283841, 0.009911037002721, 0.089643154283841, 0.810802654429597, 0.089643154283841, 0.089643154283841 },
 {-0.044821577141920, -0.044821577141920, -0.044821577141920, -0.044821577141920, 0.089643154283841, 0.089643154283841, 0.009911037002721, 0.089643154283841, 0.810802654429597, 0.089643154283841 },
 {-0.044821577141920, -0.044821577141920, -0.044821577141920, -0.044821577141920, 0.009911037002721, 0.089643154283841, 0.089643154283841, 0.089643154283841, 0.089643154283841, 0.810802654429597 },
 {-0.044821577141920, -0.044821577141920, -0.044821577141920, -0.044821577141920, 0.089643154283841, 0.810802654429597, 0.089643154283841, 0.009911037002721, 0.089643154283841, 0.089643154283841 },
 {-0.044821577141920, -0.044821577141920, -0.044821577141920, -0.044821577141920, 0.089643154283841, 0.089643154283841, 0.810802654429597, 0.089643154283841, 0.009911037002721, 0.089643154283841 },
 {-0.044821577141920, -0.044821577141920, -0.044821577141920, -0.044821577141920, 0.810802654429597, 0.089643154283841, 0.089643154283841, 0.089643154283840, 0.089643154283840, 0.009911037002721 },
 {-0.116216692796007, -0.116216692796007, -0.116216692796007, -0.116216692796007, 0.232433385592015, 0.135027509205085, 0.232433385592015, 0.400105719610886, 0.232433385592015, 0.232433385592015 },
 {-0.116216692796007, -0.116216692796007, -0.116216692796007, -0.116216692796007, 0.232433385592015, 0.232433385592015, 0.135027509205085, 0.232433385592015, 0.400105719610886, 0.232433385592015 },
 {-0.116216692796007, -0.116216692796007, -0.116216692796007, -0.116216692796007, 0.135027509205085, 0.232433385592015, 0.232433385592015, 0.232433385592015, 0.232433385592015, 0.400105719610886 },
 {-0.116216692796007, -0.116216692796007, -0.116216692796007, -0.116216692796007, 0.232433385592015, 0.400105719610886, 0.232433385592015, 0.135027509205085, 0.232433385592015, 0.232433385592015 },
 {-0.116216692796007, -0.116216692796007, -0.116216692796007, -0.116216692796007, 0.232433385592015, 0.232433385592015, 0.400105719610886, 0.232433385592015, 0.135027509205085, 0.232433385592015 },
 {-0.116216692796007, -0.116216692796007, -0.116216692796007, -0.116216692796007, 0.400105719610886, 0.232433385592015, 0.232433385592015, 0.232433385592014, 0.232433385592014, 0.135027509205085 },
 {-0.021867337845417, -0.124344858869980, -0.124344858869980, 0.013632751933013, 0.021258639871143, 0.215112461054342, 0.021258639871143, 0.047052971638181, 0.476120795608777, 0.476120795608777 },
 {-0.124344858869980, -0.021867337845417, -0.124344858869980, 0.013632751933013, 0.021258639871143, 0.021258639871143, 0.215112461054342, 0.476120795608777, 0.047052971638181, 0.476120795608777 },
 {-0.124344858869980, -0.124344858869980, -0.021867337845417, 0.013632751933013, 0.215112461054342, 0.021258639871143, 0.021258639871143, 0.476120795608777, 0.476120795608777, 0.047052971638181 },
 {0.013632751933013, -0.124344858869980, -0.124344858869980, -0.021867337845417, 0.476120795608777, 0.215112461054342, 0.476120795608777, 0.047052971638181, 0.021258639871143, 0.021258639871143 },
 {-0.124344858869980, 0.013632751933013, -0.124344858869980, -0.021867337845417, 0.476120795608777, 0.476120795608777, 0.215112461054342, 0.021258639871143, 0.047052971638181, 0.021258639871143 },
 {-0.124344858869980, -0.124344858869980, 0.013632751933013, -0.021867337845417, 0.215112461054342, 0.476120795608777, 0.476120795608777, 0.021258639871143, 0.021258639871143, 0.047052971638181 },
 {-0.124344858869980, -0.021867337845417, 0.013632751933013, -0.124344858869980, 0.021258639871143, 0.047052971638181, 0.476120795608777, 0.215112461054342, 0.021258639871143, 0.476120795608777 },
 {-0.021867337845417, 0.013632751933013, -0.124344858869980, -0.124344858869980, 0.047052971638181, 0.476120795608777, 0.021258639871143, 0.021258639871143, 0.476120795608777, 0.215112461054341 },
 {0.013632751933013, -0.124344858869980, -0.021867337845417, -0.124344858869980, 0.476120795608777, 0.021258639871143, 0.047052971638181, 0.476120795608777, 0.215112461054341, 0.021258639871143 },
 {-0.124344858869980, 0.013632751933013, -0.021867337845417, -0.124344858869980, 0.476120795608777, 0.047052971638181, 0.021258639871143, 0.215112461054341, 0.476120795608777, 0.021258639871143 },
 {-0.021867337845417, -0.124344858869980, 0.013632751933013, -0.124344858869980, 0.021258639871143, 0.476120795608777, 0.047052971638181, 0.021258639871143, 0.215112461054342, 0.476120795608777 },
 {0.013632751933013, -0.021867337845417, -0.124344858869980, -0.124344858869980, 0.047052971638181, 0.021258639871143, 0.476120795608777, 0.476120795608777, 0.021258639871143, 0.215112461054341 },
 {0.336401977864455, -0.035086599309923, -0.035086599309923, -0.118671081906133, 0.110920145013918, 0.005766898323812, 0.110920145013918, 0.565982609858331, 0.029426252225772, 0.029426252225772 },
 {-0.035086599309923, 0.336401977864455, -0.035086599309923, -0.118671081906133, 0.110920145013918, 0.110920145013918, 0.005766898323812, 0.029426252225772, 0.565982609858331, 0.029426252225772 },
 {-0.035086599309923, -0.035086599309923, 0.336401977864455, -0.118671081906133, 0.005766898323812, 0.110920145013918, 0.110920145013918, 0.029426252225772, 0.029426252225772, 0.565982609858331 },
 {-0.118671081906133, -0.035086599309923, -0.035086599309923, 0.336401977864455, 0.029426252225772, 0.005766898323812, 0.029426252225772, 0.565982609858331, 0.110920145013918, 0.110920145013918 },
 {-0.035086599309923, -0.118671081906133, -0.035086599309923, 0.336401977864455, 0.029426252225772, 0.029426252225772, 0.005766898323812, 0.110920145013918, 0.565982609858331, 0.110920145013918 },
 {-0.035086599309923, -0.035086599309923, -0.118671081906133, 0.336401977864455, 0.005766898323812, 0.029426252225772, 0.029426252225772, 0.110920145013918, 0.110920145013918, 0.565982609858331 },
 {-0.035086599309923, 0.336401977864455, -0.118671081906133, -0.035086599309923, 0.110920145013918, 0.565982609858331, 0.029426252225772, 0.005766898323812, 0.110920145013918, 0.029426252225772 },
 {0.336401977864455, -0.118671081906133, -0.035086599309923, -0.035086599309923, 0.565982609858331, 0.029426252225772, 0.110920145013918, 0.110920145013918, 0.029426252225772, 0.005766898323812 },
 {-0.118671081906133, -0.035086599309923, 0.336401977864455, -0.035086599309923, 0.029426252225772, 0.110920145013918, 0.565982609858331, 0.029426252225772, 0.005766898323812, 0.110920145013918 },
 {-0.035086599309923, -0.118671081906133, 0.336401977864455, -0.035086599309923, 0.029426252225772, 0.565982609858331, 0.110920145013918, 0.005766898323812, 0.029426252225772, 0.110920145013918 },
 {0.336401977864455, -0.035086599309923, -0.118671081906133, -0.035086599309923, 0.110920145013918, 0.029426252225772, 0.565982609858331, 0.110920145013918, 0.005766898323812, 0.029426252225772 },
 {-0.118671081906133, 0.336401977864455, -0.035086599309923, -0.035086599309923, 0.565982609858331, 0.110920145013918, 0.029426252225772, 0.029426252225772, 0.110920145013918, 0.005766898323812 },
};

double FEMQuadElement3D::dphiJdl1[NUMRULE][NUMGLEU] = 
{
 {0.000000000000000, 0.000000000000000, 0.000000000000000, 0.000000000000000, 1.000000000000000, 0.000000000000000, 1.000000000000000, 0.000000000000000, -1.000000000000000, -1.000000000000000 },
 {1.470348761200332, 0.000000000000000, 0.000000000000000, 0.490116253733444, 0.509883746266556, 0.000000000000000, 0.509883746266556, -1.960465014933776, -0.509883746266556, -0.509883746266556 },
 {-0.490116253733444, 0.000000000000000, 0.000000000000000, -1.470348761200332, 0.509883746266556, 0.000000000000000, 0.509883746266556, 1.960465014933776, -0.509883746266556, -0.509883746266556 },
 {-0.490116253733444, 0.000000000000000, 0.000000000000000, 0.490116253733444, 0.509883746266556, 0.000000000000000, 2.470348761200332, 0.000000000000000, -0.509883746266556, -2.470348761200332 },
 {-0.490116253733444, 0.000000000000000, 0.000000000000000, 0.490116253733444, 2.470348761200332, 0.000000000000000, 0.509883746266556, 0.000000000000000, -2.470348761200332, -0.509883746266556 },
 {2.615054035288412, 0.000000000000000, 0.000000000000000, 0.871684678429471, 0.128315321570529, 0.000000000000000, 0.128315321570529, -3.486738713717883, -0.128315321570529, -0.128315321570529 },
 {-0.871684678429471, 0.000000000000000, 0.000000000000000, -2.615054035288412, 0.128315321570529, 0.000000000000000, 0.128315321570529, 3.486738713717883, -0.128315321570529, -0.128315321570529 },
 {-0.871684678429471, 0.000000000000000, 0.000000000000000, 0.871684678429471, 0.128315321570529, 0.000000000000000, 3.615054035288412, -0.000000000000000, -0.128315321570529, -3.615054035288412 },
 {-0.871684678429471, 0.000000000000000, 0.000000000000000, 0.871684678429471, 3.615054035288412, 0.000000000000000, 0.128315321570529, 0.000000000000000, -3.615054035288412, -0.128315321570529 },
 {0.800891617426876, 0.000000000000000, 0.000000000000000, -0.800891617426876, 0.199108382573124, 0.000000000000000, 0.199108382573124, -0.000000000000000, -0.199108382573124, -0.199108382573124 },
 {-0.800891617426876, 0.000000000000000, 0.000000000000000, -0.800891617426876, 1.800891617426876, 0.000000000000000, 0.199108382573124, 1.601783234853752, -1.800891617426876, -0.199108382573124 },
 {-0.800891617426876, 0.000000000000000, 0.000000000000000, -0.800891617426876, 0.199108382573124, 0.000000000000000, 1.800891617426876, 1.601783234853752, -0.199108382573124, -1.800891617426876 },
 {-0.800891617426876, 0.000000000000000, 0.000000000000000, 0.800891617426876, 1.800891617426876, 0.000000000000000, 1.800891617426876, 0.000000000000000, -1.800891617426876, -1.800891617426876 },
 {0.800891617426876, 0.000000000000000, 0.000000000000000, 0.800891617426876, 0.199108382573124, 0.000000000000000, 1.800891617426876, -1.601783234853752, -0.199108382573124, -1.800891617426876 },
 {0.800891617426876, 0.000000000000000, 0.000000000000000, 0.800891617426876, 1.800891617426876, 0.000000000000000, 0.199108382573124, -1.601783234853752, -1.800891617426876, -0.199108382573124 },
 {0.265078210405800, 0.000000000000000, 0.000000000000000, -0.265078210405800, 0.734921789594200, 0.000000000000000, 0.734921789594200, -0.000000000000000, -0.734921789594200, -0.734921789594200 },
 {-0.265078210405800, 0.000000000000000, 0.000000000000000, -0.265078210405800, 1.265078210405800, 0.000000000000000, 0.734921789594200, 0.530156420811601, -1.265078210405800, -0.734921789594200 },
 {-0.265078210405800, 0.000000000000000, 0.000000000000000, -0.265078210405800, 0.734921789594200, 0.000000000000000, 1.265078210405800, 0.530156420811601, -0.734921789594200, -1.265078210405800 },
 {-0.265078210405800, 0.000000000000000, 0.000000000000000, 0.265078210405800, 1.265078210405800, 0.000000000000000, 1.265078210405800, 0.000000000000000, -1.265078210405800, -1.265078210405800 },
 {0.265078210405800, 0.000000000000000, 0.000000000000000, 0.265078210405800, 0.734921789594200, 0.000000000000000, 1.265078210405800, -0.530156420811601, -0.734921789594200, -1.265078210405800 },
 {0.265078210405800, 0.000000000000000, 0.000000000000000, 0.265078210405801, 1.265078210405800, 0.000000000000000, 0.734921789594200, -0.530156420811601, -1.265078210405800, -0.734921789594200 },
 {-0.908328848620732, 0.000000000000000, 0.000000000000000, -1.053120133443525, 0.927604357588604, 0.000000000000000, 0.927604357588604, 1.961448982064256, -0.927604357588604, -0.927604357588604 },
 {-0.072395642411396, 0.000000000000000, 0.000000000000000, -1.053120133443525, 0.091671151379268, 0.000000000000000, 0.927604357588604, 1.125515775854921, -0.091671151379268, -0.927604357588604 },
 {-0.072395642411396, 0.000000000000000, 0.000000000000000, -1.053120133443525, 0.927604357588604, 0.000000000000000, 0.091671151379268, 1.125515775854921, -0.927604357588604, -0.091671151379268 },
 {1.053120133443525, 0.000000000000000, 0.000000000000000, 0.908328848620732, 0.927604357588604, 0.000000000000000, 0.927604357588604, -1.961448982064256, -0.927604357588604, -0.927604357588604 },
 {-0.072395642411396, 0.000000000000000, 0.000000000000000, 0.908328848620732, 2.053120133443525, 0.000000000000000, 0.927604357588604, -0.835933206209336, -2.053120133443525, -0.927604357588604 },
 {-0.072395642411396, 0.000000000000000, 0.000000000000000, 0.908328848620732, 0.927604357588604, 0.000000000000000, 2.053120133443525, -0.835933206209336, -0.927604357588604, -2.053120133443525 },
 {-0.072395642411396, 0.000000000000000, 0.000000000000000, 0.072395642411396, 0.091671151379268, 0.000000000000000, 2.053120133443525, -0.000000000000000, -0.091671151379268, -2.053120133443525 },
 {-0.908328848620732, 0.000000000000000, 0.000000000000000, 0.072395642411397, 2.053120133443525, 0.000000000000000, 0.927604357588604, 0.835933206209335, -2.053120133443525, -0.927604357588604 },
 {1.053120133443525, 0.000000000000000, 0.000000000000000, 0.072395642411397, 0.927604357588604, 0.000000000000000, 0.091671151379268, -1.125515775854921, -0.927604357588604, -0.091671151379268 },
 {-0.072395642411396, 0.000000000000000, 0.000000000000000, 0.072395642411397, 2.053120133443525, 0.000000000000000, 0.091671151379268, -0.000000000000000, -2.053120133443525, -0.091671151379268 },
 {-0.908328848620732, 0.000000000000000, 0.000000000000000, 0.072395642411396, 0.927604357588604, 0.000000000000000, 2.053120133443525, 0.835933206209335, -0.927604357588604, -2.053120133443525 },
 {1.053120133443525, 0.000000000000000, 0.000000000000000, 0.072395642411397, 0.091671151379268, 0.000000000000000, 0.927604357588604, -1.125515775854921, -0.091671151379268, -0.927604357588604 },
 {1.921253711230154, 0.000000000000000, 0.000000000000000, 0.225014099004782, 0.151880193887314, 0.000000000000000, 0.151880193887314, -2.146267810234936, -0.151880193887314, -0.151880193887314 },
 {-0.848119806112686, 0.000000000000000, 0.000000000000000, 0.225014099004782, 2.921253711230154, 0.000000000000000, 0.151880193887314, 0.623105707107903, -2.921253711230154, -0.151880193887314 },
 {-0.848119806112686, 0.000000000000000, 0.000000000000000, 0.225014099004782, 0.151880193887314, 0.000000000000000, 2.921253711230154, 0.623105707107903, -0.151880193887314, -2.921253711230154 },
 {-0.225014099004782, 0.000000000000000, 0.000000000000000, -1.921253711230154, 0.151880193887314, 0.000000000000000, 0.151880193887314, 2.146267810234936, -0.151880193887314, -0.151880193887314 },
 {-0.848119806112686, 0.000000000000000, 0.000000000000000, -1.921253711230154, 0.774985900995218, 0.000000000000000, 0.151880193887314, 2.769373517342839, -0.774985900995218, -0.151880193887314 },
 {-0.848119806112686, 0.000000000000000, 0.000000000000000, -1.921253711230154, 0.151880193887314, 0.000000000000000, 0.774985900995218, 2.769373517342839, -0.151880193887314, -0.774985900995218 },
 {-0.848119806112686, 0.000000000000000, 0.000000000000000, 0.848119806112686, 2.921253711230154, 0.000000000000000, 0.774985900995218, 0.000000000000000, -2.921253711230154, -0.774985900995218 },
 {1.921253711230154, 0.000000000000000, 0.000000000000000, 0.848119806112686, 0.774985900995218, 0.000000000000000, 0.151880193887314, -2.769373517342839, -0.774985900995218, -0.151880193887314 },
 {-0.225014099004782, 0.000000000000000, 0.000000000000000, 0.848119806112686, 0.151880193887314, 0.000000000000000, 2.921253711230154, -0.623105707107903, -0.151880193887314, -2.921253711230154 },
 {-0.848119806112686, 0.000000000000000, 0.000000000000000, 0.848119806112686, 0.774985900995218, 0.000000000000000, 2.921253711230154, -0.000000000000000, -0.774985900995218, -2.921253711230154 },
 {1.921253711230154, 0.000000000000000, 0.000000000000000, 0.848119806112686, 0.151880193887314, 0.000000000000000, 0.774985900995218, -2.769373517342839, -0.151880193887314, -0.774985900995218 },
 {-0.225014099004782, 0.000000000000000, 0.000000000000000, 0.848119806112686, 2.921253711230154, 0.000000000000000, 0.151880193887314, -0.623105707107903, -2.921253711230154, -0.151880193887314 },
};

double FEMQuadElement3D::dphiJdl2[NUMRULE][NUMGLEU] = 
{
 {0.000000000000000, 0.000000000000000, 0.000000000000000, 0.000000000000000, 1.000000000000000, 1.000000000000000, 0.000000000000000, -1.000000000000000, 0.000000000000000, -1.000000000000000 },
 {0.000000000000000, -0.490116253733444, 0.000000000000000, 0.490116253733444, 2.470348761200332, 0.509883746266556, 0.000000000000000, -2.470348761200332, 0.000000000000000, -0.509883746266556 },
 {0.000000000000000, -0.490116253733444, 0.000000000000000, -1.470348761200332, 0.509883746266556, 0.509883746266556, 0.000000000000000, -0.509883746266556, 1.960465014933776, -0.509883746266556 },
 {0.000000000000000, -0.490116253733444, 0.000000000000000, 0.490116253733444, 0.509883746266556, 2.470348761200332, 0.000000000000000, -0.509883746266556, 0.000000000000000, -2.470348761200332 },
 {0.000000000000000, 1.470348761200332, 0.000000000000000, 0.490116253733444, 0.509883746266556, 0.509883746266556, 0.000000000000000, -0.509883746266556, -1.960465014933776, -0.509883746266556 },
 {0.000000000000000, -0.871684678429471, 0.000000000000000, 0.871684678429471, 3.615054035288412, 0.128315321570529, 0.000000000000000, -3.615054035288412, -0.000000000000000, -0.128315321570529 },
 {0.000000000000000, -0.871684678429471, 0.000000000000000, -2.615054035288412, 0.128315321570529, 0.128315321570529, 0.000000000000000, -0.128315321570529, 3.486738713717883, -0.128315321570529 },
 {0.000000000000000, -0.871684678429471, 0.000000000000000, 0.871684678429471, 0.128315321570529, 3.615054035288412, 0.000000000000000, -0.128315321570529, -0.000000000000000, -3.615054035288412 },
 {0.000000000000000, 2.615054035288412, 0.000000000000000, 0.871684678429471, 0.128315321570529, 0.128315321570529, 0.000000000000000, -0.128315321570529, -3.486738713717883, -0.128315321570529 },
 {0.000000000000000, -0.800891617426876, 0.000000000000000, -0.800891617426876, 1.800891617426876, 0.199108382573124, 0.000000000000000, -1.800891617426876, 1.601783234853752, -0.199108382573124 },
 {0.000000000000000, 0.800891617426876, 0.000000000000000, -0.800891617426876, 0.199108382573124, 0.199108382573124, 0.000000000000000, -0.199108382573124, -0.000000000000000, -0.199108382573124 },
 {0.000000000000000, -0.800891617426876, 0.000000000000000, -0.800891617426876, 0.199108382573124, 1.800891617426876, 0.000000000000000, -0.199108382573124, 1.601783234853752, -1.800891617426876 },
 {0.000000000000000, 0.800891617426876, 0.000000000000000, 0.800891617426876, 0.199108382573124, 1.800891617426876, 0.000000000000000, -0.199108382573124, -1.601783234853752, -1.800891617426876 },
 {0.000000000000000, -0.800891617426876, 0.000000000000000, 0.800891617426876, 1.800891617426876, 1.800891617426876, 0.000000000000000, -1.800891617426876, -0.000000000000000, -1.800891617426876 },
 {0.000000000000000, 0.800891617426876, 0.000000000000000, 0.800891617426876, 1.800891617426876, 0.199108382573124, 0.000000000000000, -1.800891617426876, -1.601783234853752, -0.199108382573124 },
 {0.000000000000000, -0.265078210405800, 0.000000000000000, -0.265078210405800, 1.265078210405800, 0.734921789594200, 0.000000000000000, -1.265078210405800, 0.530156420811601, -0.734921789594200 },
 {0.000000000000000, 0.265078210405800, 0.000000000000000, -0.265078210405800, 0.734921789594200, 0.734921789594200, 0.000000000000000, -0.734921789594200, -0.000000000000000, -0.734921789594200 },
 {0.000000000000000, -0.265078210405800, 0.000000000000000, -0.265078210405800, 0.734921789594200, 1.265078210405800, 0.000000000000000, -0.734921789594200, 0.530156420811601, -1.265078210405800 },
 {0.000000000000000, 0.265078210405800, 0.000000000000000, 0.265078210405800, 0.734921789594200, 1.265078210405800, 0.000000000000000, -0.734921789594200, -0.530156420811601, -1.265078210405800 },
 {0.000000000000000, -0.265078210405800, 0.000000000000000, 0.265078210405800, 1.265078210405800, 1.265078210405800, 0.000000000000000, -1.265078210405800, -0.000000000000000, -1.265078210405800 },
 {0.000000000000000, 0.265078210405800, 0.000000000000000, 0.265078210405801, 1.265078210405800, 0.734921789594200, 0.000000000000000, -1.265078210405800, -0.530156420811601, -0.734921789594200 },
 {0.000000000000000, -0.072395642411396, 0.000000000000000, -1.053120133443525, 0.091671151379268, 0.927604357588604, 0.000000000000000, -0.091671151379268, 1.125515775854921, -0.927604357588604 },
 {0.000000000000000, -0.908328848620732, 0.000000000000000, -1.053120133443525, 0.927604357588604, 0.927604357588604, 0.000000000000000, -0.927604357588604, 1.961448982064256, -0.927604357588604 },
 {0.000000000000000, -0.072395642411396, 0.000000000000000, -1.053120133443525, 0.927604357588604, 0.091671151379268, 0.000000000000000, -0.927604357588604, 1.125515775854921, -0.091671151379268 },
 {0.000000000000000, -0.072395642411396, 0.000000000000000, 0.908328848620732, 2.053120133443525, 0.927604357588604, 0.000000000000000, -2.053120133443525, -0.835933206209336, -0.927604357588604 },
 {0.000000000000000, 1.053120133443525, 0.000000000000000, 0.908328848620732, 0.927604357588604, 0.927604357588604, 0.000000000000000, -0.927604357588604, -1.961448982064256, -0.927604357588604 },
 {0.000000000000000, -0.072395642411396, 0.000000000000000, 0.908328848620732, 0.927604357588604, 2.053120133443525, 0.000000000000000, -0.927604357588604, -0.835933206209336, -2.053120133443525 },
 {0.000000000000000, -0.908328848620732, 0.000000000000000, 0.072395642411396, 0.927604357588604, 2.053120133443525, 0.000000000000000, -0.927604357588604, 0.835933206209335, -2.053120133443525 },
 {0.000000000000000, 1.053120133443525, 0.000000000000000, 0.072395642411397, 0.091671151379268, 0.927604357588604, 0.000000000000000, -0.091671151379268, -1.125515775854921, -0.927604357588604 },
 {0.000000000000000, -0.072395642411396, 0.000000000000000, 0.072395642411397, 2.053120133443525, 0.091671151379268, 0.000000000000000, -2.053120133443525, -0.000000000000000, -0.091671151379268 },
 {0.000000000000000, 1.053120133443525, 0.000000000000000, 0.072395642411397, 0.927604357588604, 0.091671151379268, 0.000000000000000, -0.927604357588604, -1.125515775854921, -0.091671151379268 },
 {0.000000000000000, -0.072395642411396, 0.000000000000000, 0.072395642411396, 0.091671151379268, 2.053120133443525, 0.000000000000000, -0.091671151379268, -0.000000000000000, -2.053120133443525 },
 {0.000000000000000, -0.908328848620732, 0.000000000000000, 0.072395642411397, 2.053120133443525, 0.927604357588604, 0.000000000000000, -2.053120133443525, 0.835933206209335, -0.927604357588604 },
 {0.000000000000000, -0.848119806112686, 0.000000000000000, 0.225014099004782, 2.921253711230154, 0.151880193887314, 0.000000000000000, -2.921253711230154, 0.623105707107903, -0.151880193887314 },
 {0.000000000000000, 1.921253711230154, 0.000000000000000, 0.225014099004782, 0.151880193887314, 0.151880193887314, 0.000000000000000, -0.151880193887314, -2.146267810234936, -0.151880193887314 },
 {0.000000000000000, -0.848119806112686, 0.000000000000000, 0.225014099004782, 0.151880193887314, 2.921253711230154, 0.000000000000000, -0.151880193887314, 0.623105707107903, -2.921253711230154 },
 {0.000000000000000, -0.848119806112686, 0.000000000000000, -1.921253711230154, 0.774985900995218, 0.151880193887314, 0.000000000000000, -0.774985900995218, 2.769373517342839, -0.151880193887314 },
 {0.000000000000000, -0.225014099004782, 0.000000000000000, -1.921253711230154, 0.151880193887314, 0.151880193887314, 0.000000000000000, -0.151880193887314, 2.146267810234936, -0.151880193887314 },
 {0.000000000000000, -0.848119806112686, 0.000000000000000, -1.921253711230154, 0.151880193887314, 0.774985900995218, 0.000000000000000, -0.151880193887314, 2.769373517342839, -0.774985900995218 },
 {0.000000000000000, 1.921253711230154, 0.000000000000000, 0.848119806112686, 0.151880193887314, 0.774985900995218, 0.000000000000000, -0.151880193887314, -2.769373517342839, -0.774985900995218 },
 {0.000000000000000, -0.225014099004782, 0.000000000000000, 0.848119806112686, 2.921253711230154, 0.151880193887314, 0.000000000000000, -2.921253711230154, -0.623105707107903, -0.151880193887314 },
 {0.000000000000000, -0.848119806112686, 0.000000000000000, 0.848119806112686, 0.774985900995218, 2.921253711230154, 0.000000000000000, -0.774985900995218, -0.000000000000000, -2.921253711230154 },
 {0.000000000000000, -0.225014099004782, 0.000000000000000, 0.848119806112686, 0.151880193887314, 2.921253711230154, 0.000000000000000, -0.151880193887314, -0.623105707107903, -2.921253711230154 },
 {0.000000000000000, -0.848119806112686, 0.000000000000000, 0.848119806112686, 2.921253711230154, 0.774985900995218, 0.000000000000000, -2.921253711230154, -0.000000000000000, -0.774985900995218 },
 {0.000000000000000, 1.921253711230154, 0.000000000000000, 0.848119806112686, 0.774985900995218, 0.151880193887314, 0.000000000000000, -0.774985900995218, -2.769373517342839, -0.151880193887314 },
};

double FEMQuadElement3D::dphiJdl3[NUMRULE][NUMGLEU] = 
{
 {0.000000000000000, 0.000000000000000, 0.000000000000000, 0.000000000000000, 0.000000000000000, 1.000000000000000, 1.000000000000000, -1.000000000000000, -1.000000000000000, 0.000000000000000 },
 {0.000000000000000, 0.000000000000000, -0.490116253733444, 0.490116253733444, 0.000000000000000, 0.509883746266556, 2.470348761200332, -2.470348761200332, -0.509883746266556, 0.000000000000000 },
 {0.000000000000000, 0.000000000000000, -0.490116253733444, -1.470348761200332, 0.000000000000000, 0.509883746266556, 0.509883746266556, -0.509883746266556, -0.509883746266556, 1.960465014933776 },
 {0.000000000000000, 0.000000000000000, 1.470348761200332, 0.490116253733444, 0.000000000000000, 0.509883746266556, 0.509883746266556, -0.509883746266556, -0.509883746266556, -1.960465014933776 },
 {0.000000000000000, 0.000000000000000, -0.490116253733444, 0.490116253733444, 0.000000000000000, 2.470348761200332, 0.509883746266556, -0.509883746266556, -2.470348761200332, 0.000000000000000 },
 {0.000000000000000, 0.000000000000000, -0.871684678429471, 0.871684678429471, 0.000000000000000, 0.128315321570529, 3.615054035288412, -3.615054035288412, -0.128315321570529, 0.000000000000000 },
 {0.000000000000000, 0.000000000000000, -0.871684678429471, -2.615054035288412, 0.000000000000000, 0.128315321570529, 0.128315321570529, -0.128315321570529, -0.128315321570529, 3.486738713717883 },
 {0.000000000000000, 0.000000000000000, 2.615054035288412, 0.871684678429471, 0.000000000000000, 0.128315321570529, 0.128315321570529, -0.128315321570529, -0.128315321570529, -3.486738713717883 },
 {0.000000000000000, 0.000000000000000, -0.871684678429471, 0.871684678429471, 0.000000000000000, 3.615054035288412, 0.128315321570529, -0.128315321570529, -3.615054035288412, -0.000000000000000 },
 {0.000000000000000, 0.000000000000000, -0.800891617426876, -0.800891617426876, 0.000000000000000, 0.199108382573124, 1.800891617426876, -1.800891617426876, -0.199108382573124, 1.601783234853752 },
 {0.000000000000000, 0.000000000000000, -0.800891617426876, -0.800891617426876, 0.000000000000000, 1.800891617426876, 0.199108382573124, -0.199108382573124, -1.800891617426876, 1.601783234853752 },
 {0.000000000000000, 0.000000000000000, 0.800891617426876, -0.800891617426876, 0.000000000000000, 0.199108382573124, 0.199108382573124, -0.199108382573124, -0.199108382573124, -0.000000000000000 },
 {0.000000000000000, 0.000000000000000, 0.800891617426876, 0.800891617426876, 0.000000000000000, 1.800891617426876, 0.199108382573124, -0.199108382573124, -1.800891617426876, -1.601783234853752 },
 {0.000000000000000, 0.000000000000000, 0.800891617426876, 0.800891617426876, 0.000000000000000, 0.199108382573124, 1.800891617426876, -1.800891617426876, -0.199108382573124, -1.601783234853752 },
 {0.000000000000000, 0.000000000000000, -0.800891617426876, 0.800891617426876, 0.000000000000000, 1.800891617426876, 1.800891617426876, -1.800891617426876, -1.800891617426876, -0.000000000000000 },
 {0.000000000000000, 0.000000000000000, -0.265078210405800, -0.265078210405800, 0.000000000000000, 0.734921789594200, 1.265078210405800, -1.265078210405800, -0.734921789594200, 0.530156420811601 },
 {0.000000000000000, 0.000000000000000, -0.265078210405800, -0.265078210405800, 0.000000000000000, 1.265078210405800, 0.734921789594200, -0.734921789594200, -1.265078210405800, 0.530156420811601 },
 {0.000000000000000, 0.000000000000000, 0.265078210405800, -0.265078210405800, 0.000000000000000, 0.734921789594200, 0.734921789594200, -0.734921789594200, -0.734921789594200, -0.000000000000000 },
 {0.000000000000000, 0.000000000000000, 0.265078210405800, 0.265078210405800, 0.000000000000000, 1.265078210405800, 0.734921789594200, -0.734921789594200, -1.265078210405800, -0.530156420811601 },
 {0.000000000000000, 0.000000000000000, 0.265078210405800, 0.265078210405800, 0.000000000000000, 0.734921789594200, 1.265078210405800, -1.265078210405800, -0.734921789594200, -0.530156420811601 },
 {0.000000000000000, 0.000000000000000, -0.265078210405800, 0.265078210405801, 0.000000000000000, 1.265078210405800, 1.265078210405800, -1.265078210405800, -1.265078210405800, -0.000000000000000 },
 {0.000000000000000, 0.000000000000000, -0.072395642411396, -1.053120133443525, 0.000000000000000, 0.927604357588604, 0.091671151379268, -0.091671151379268, -0.927604357588604, 1.125515775854921 },
 {0.000000000000000, 0.000000000000000, -0.072395642411396, -1.053120133443525, 0.000000000000000, 0.091671151379268, 0.927604357588604, -0.927604357588604, -0.091671151379268, 1.125515775854921 },
 {0.000000000000000, 0.000000000000000, -0.908328848620732, -1.053120133443525, 0.000000000000000, 0.927604357588604, 0.927604357588604, -0.927604357588604, -0.927604357588604, 1.961448982064256 },
 {0.000000000000000, 0.000000000000000, -0.072395642411396, 0.908328848620732, 0.000000000000000, 0.927604357588604, 2.053120133443525, -2.053120133443525, -0.927604357588604, -0.835933206209336 },
 {0.000000000000000, 0.000000000000000, -0.072395642411396, 0.908328848620732, 0.000000000000000, 2.053120133443525, 0.927604357588604, -0.927604357588604, -2.053120133443525, -0.835933206209336 },
 {0.000000000000000, 0.000000000000000, 1.053120133443525, 0.908328848620732, 0.000000000000000, 0.927604357588604, 0.927604357588604, -0.927604357588604, -0.927604357588604, -1.961448982064256 },
 {0.000000000000000, 0.000000000000000, 1.053120133443525, 0.072395642411396, 0.000000000000000, 0.091671151379268, 0.927604357588604, -0.927604357588604, -0.091671151379268, -1.125515775854921 },
 {0.000000000000000, 0.000000000000000, -0.072395642411396, 0.072395642411397, 0.000000000000000, 2.053120133443525, 0.091671151379268, -0.091671151379268, -2.053120133443525, -0.000000000000000 },
 {0.000000000000000, 0.000000000000000, -0.908328848620732, 0.072395642411397, 0.000000000000000, 0.927604357588604, 2.053120133443525, -2.053120133443525, -0.927604357588604, 0.835933206209335 },
 {0.000000000000000, 0.000000000000000, -0.908328848620732, 0.072395642411397, 0.000000000000000, 2.053120133443525, 0.927604357588604, -0.927604357588604, -2.053120133443525, 0.835933206209335 },
 {0.000000000000000, 0.000000000000000, 1.053120133443525, 0.072395642411396, 0.000000000000000, 0.927604357588604, 0.091671151379268, -0.091671151379268, -0.927604357588604, -1.125515775854921 },
 {0.000000000000000, 0.000000000000000, -0.072395642411396, 0.072395642411397, 0.000000000000000, 0.091671151379268, 2.053120133443525, -2.053120133443525, -0.091671151379268, -0.000000000000000 },
 {0.000000000000000, 0.000000000000000, -0.848119806112686, 0.225014099004782, 0.000000000000000, 0.151880193887314, 2.921253711230154, -2.921253711230154, -0.151880193887314, 0.623105707107903 },
 {0.000000000000000, 0.000000000000000, -0.848119806112686, 0.225014099004782, 0.000000000000000, 2.921253711230154, 0.151880193887314, -0.151880193887314, -2.921253711230154, 0.623105707107903 },
 {0.000000000000000, 0.000000000000000, 1.921253711230154, 0.225014099004782, 0.000000000000000, 0.151880193887314, 0.151880193887314, -0.151880193887314, -0.151880193887314, -2.146267810234936 },
 {0.000000000000000, 0.000000000000000, -0.848119806112686, -1.921253711230154, 0.000000000000000, 0.151880193887314, 0.774985900995218, -0.774985900995218, -0.151880193887314, 2.769373517342839 },
 {0.000000000000000, 0.000000000000000, -0.848119806112686, -1.921253711230154, 0.000000000000000, 0.774985900995218, 0.151880193887314, -0.151880193887314, -0.774985900995218, 2.769373517342839 },
 {0.000000000000000, 0.000000000000000, -0.225014099004782, -1.921253711230154, 0.000000000000000, 0.151880193887314, 0.151880193887314, -0.151880193887314, -0.151880193887314, 2.146267810234936 },
 {0.000000000000000, 0.000000000000000, -0.225014099004782, 0.848119806112686, 0.000000000000000, 2.921253711230154, 0.151880193887314, -0.151880193887314, -2.921253711230154, -0.623105707107903 },
 {0.000000000000000, 0.000000000000000, -0.848119806112686, 0.848119806112686, 0.000000000000000, 0.774985900995218, 2.921253711230154, -2.921253711230154, -0.774985900995218, -0.000000000000000 },
 {0.000000000000000, 0.000000000000000, 1.921253711230154, 0.848119806112686, 0.000000000000000, 0.151880193887314, 0.774985900995218, -0.774985900995218, -0.151880193887314, -2.769373517342839 },
 {0.000000000000000, 0.000000000000000, 1.921253711230154, 0.848119806112686, 0.000000000000000, 0.774985900995218, 0.151880193887314, -0.151880193887314, -0.774985900995218, -2.769373517342839 },
 {0.000000000000000, 0.000000000000000, -0.225014099004782, 0.848119806112686, 0.000000000000000, 0.151880193887314, 2.921253711230154, -2.921253711230154, -0.151880193887314, -0.623105707107903 },
 {0.000000000000000, 0.000000000000000, -0.848119806112686, 0.848119806112686, 0.000000000000000, 2.921253711230154, 0.774985900995218, -0.774985900995218, -2.921253711230154, -0.000000000000000 },
};

double FEMQuadElement3D::dgqPointsdl1[NUMRULE][NUMGLEP] = 
{
 {1.000000000000000, 0.000000000000000, 0.000000000000000, -1.000000000000000 },
 {1.000000000000000, 0.000000000000000, 0.000000000000000, -1.000000000000000 },
 {1.000000000000000, 0.000000000000000, 0.000000000000000, -1.000000000000000 },
 {1.000000000000000, 0.000000000000000, 0.000000000000000, -1.000000000000000 },
 {1.000000000000000, 0.000000000000000, 0.000000000000000, -1.000000000000000 },
 {1.000000000000000, 0.000000000000000, 0.000000000000000, -1.000000000000000 },
 {1.000000000000000, 0.000000000000000, 0.000000000000000, -1.000000000000000 },
 {1.000000000000000, 0.000000000000000, 0.000000000000000, -1.000000000000000 },
 {1.000000000000000, 0.000000000000000, 0.000000000000000, -1.000000000000000 },
 {1.000000000000000, 0.000000000000000, 0.000000000000000, -1.000000000000000 },
 {1.000000000000000, 0.000000000000000, 0.000000000000000, -1.000000000000000 },
 {1.000000000000000, 0.000000000000000, 0.000000000000000, -1.000000000000000 },
 {1.000000000000000, 0.000000000000000, 0.000000000000000, -1.000000000000000 },
 {1.000000000000000, 0.000000000000000, 0.000000000000000, -1.000000000000000 },
 {1.000000000000000, 0.000000000000000, 0.000000000000000, -1.000000000000000 },
 {1.000000000000000, 0.000000000000000, 0.000000000000000, -1.000000000000000 },
 {1.000000000000000, 0.000000000000000, 0.000000000000000, -1.000000000000000 },
 {1.000000000000000, 0.000000000000000, 0.000000000000000, -1.000000000000000 },
 {1.000000000000000, 0.000000000000000, 0.000000000000000, -1.000000000000000 },
 {1.000000000000000, 0.000000000000000, 0.000000000000000, -1.000000000000000 },
 {1.000000000000000, 0.000000000000000, 0.000000000000000, -1.000000000000000 },
 {1.000000000000000, 0.000000000000000, 0.000000000000000, -1.000000000000000 },
 {1.000000000000000, 0.000000000000000, 0.000000000000000, -1.000000000000000 },
 {1.000000000000000, 0.000000000000000, 0.000000000000000, -1.000000000000000 },
 {1.000000000000000, 0.000000000000000, 0.000000000000000, -1.000000000000000 },
 {1.000000000000000, 0.000000000000000, 0.000000000000000, -1.000000000000000 },
 {1.000000000000000, 0.000000000000000, 0.000000000000000, -1.000000000000000 },
 {1.000000000000000, 0.000000000000000, 0.000000000000000, -1.000000000000000 },
 {1.000000000000000, 0.000000000000000, 0.000000000000000, -1.000000000000000 },
 {1.000000000000000, 0.000000000000000, 0.000000000000000, -1.000000000000000 },
 {1.000000000000000, 0.000000000000000, 0.000000000000000, -1.000000000000000 },
 {1.000000000000000, 0.000000000000000, 0.000000000000000, -1.000000000000000 },
 {1.000000000000000, 0.000000000000000, 0.000000000000000, -1.000000000000000 },
 {1.000000000000000, 0.000000000000000, 0.000000000000000, -1.000000000000000 },
 {1.000000000000000, 0.000000000000000, 0.000000000000000, -1.000000000000000 },
 {1.000000000000000, 0.000000000000000, 0.000000000000000, -1.000000000000000 },
 {1.000000000000000, 0.000000000000000, 0.000000000000000, -1.000000000000000 },
 {1.000000000000000, 0.000000000000000, 0.000000000000000, -1.000000000000000 },
 {1.000000000000000, 0.000000000000000, 0.000000000000000, -1.000000000000000 },
 {1.000000000000000, 0.000000000000000, 0.000000000000000, -1.000000000000000 },
 {1.000000000000000, 0.000000000000000, 0.000000000000000, -1.000000000000000 },
 {1.000000000000000, 0.000000000000000, 0.000000000000000, -1.000000000000000 },
 {1.000000000000000, 0.000000000000000, 0.000000000000000, -1.000000000000000 },
 {1.000000000000000, 0.000000000000000, 0.000000000000000, -1.000000000000000 },
 {1.000000000000000, 0.000000000000000, 0.000000000000000, -1.000000000000000 },
};

double FEMQuadElement3D::dgqPointsdl2[NUMRULE][NUMGLEP] = 
{
 {0.000000000000000, 1.000000000000000, 0.000000000000000, -1.000000000000000 },
 {0.000000000000000, 1.000000000000000, 0.000000000000000, -1.000000000000000 },
 {0.000000000000000, 1.000000000000000, 0.000000000000000, -1.000000000000000 },
 {0.000000000000000, 1.000000000000000, 0.000000000000000, -1.000000000000000 },
 {0.000000000000000, 1.000000000000000, 0.000000000000000, -1.000000000000000 },
 {0.000000000000000, 1.000000000000000, 0.000000000000000, -1.000000000000000 },
 {0.000000000000000, 1.000000000000000, 0.000000000000000, -1.000000000000000 },
 {0.000000000000000, 1.000000000000000, 0.000000000000000, -1.000000000000000 },
 {0.000000000000000, 1.000000000000000, 0.000000000000000, -1.000000000000000 },
 {0.000000000000000, 1.000000000000000, 0.000000000000000, -1.000000000000000 },
 {0.000000000000000, 1.000000000000000, 0.000000000000000, -1.000000000000000 },
 {0.000000000000000, 1.000000000000000, 0.000000000000000, -1.000000000000000 },
 {0.000000000000000, 1.000000000000000, 0.000000000000000, -1.000000000000000 },
 {0.000000000000000, 1.000000000000000, 0.000000000000000, -1.000000000000000 },
 {0.000000000000000, 1.000000000000000, 0.000000000000000, -1.000000000000000 },
 {0.000000000000000, 1.000000000000000, 0.000000000000000, -1.000000000000000 },
 {0.000000000000000, 1.000000000000000, 0.000000000000000, -1.000000000000000 },
 {0.000000000000000, 1.000000000000000, 0.000000000000000, -1.000000000000000 },
 {0.000000000000000, 1.000000000000000, 0.000000000000000, -1.000000000000000 },
 {0.000000000000000, 1.000000000000000, 0.000000000000000, -1.000000000000000 },
 {0.000000000000000, 1.000000000000000, 0.000000000000000, -1.000000000000000 },
 {0.000000000000000, 1.000000000000000, 0.000000000000000, -1.000000000000000 },
 {0.000000000000000, 1.000000000000000, 0.000000000000000, -1.000000000000000 },
 {0.000000000000000, 1.000000000000000, 0.000000000000000, -1.000000000000000 },
 {0.000000000000000, 1.000000000000000, 0.000000000000000, -1.000000000000000 },
 {0.000000000000000, 1.000000000000000, 0.000000000000000, -1.000000000000000 },
 {0.000000000000000, 1.000000000000000, 0.000000000000000, -1.000000000000000 },
 {0.000000000000000, 1.000000000000000, 0.000000000000000, -1.000000000000000 },
 {0.000000000000000, 1.000000000000000, 0.000000000000000, -1.000000000000000 },
 {0.000000000000000, 1.000000000000000, 0.000000000000000, -1.000000000000000 },
 {0.000000000000000, 1.000000000000000, 0.000000000000000, -1.000000000000000 },
 {0.000000000000000, 1.000000000000000, 0.000000000000000, -1.000000000000000 },
 {0.000000000000000, 1.000000000000000, 0.000000000000000, -1.000000000000000 },
 {0.000000000000000, 1.000000000000000, 0.000000000000000, -1.000000000000000 },
 {0.000000000000000, 1.000000000000000, 0.000000000000000, -1.000000000000000 },
 {0.000000000000000, 1.000000000000000, 0.000000000000000, -1.000000000000000 },
 {0.000000000000000, 1.000000000000000, 0.000000000000000, -1.000000000000000 },
 {0.000000000000000, 1.000000000000000, 0.000000000000000, -1.000000000000000 },
 {0.000000000000000, 1.000000000000000, 0.000000000000000, -1.000000000000000 },
 {0.000000000000000, 1.000000000000000, 0.000000000000000, -1.000000000000000 },
 {0.000000000000000, 1.000000000000000, 0.000000000000000, -1.000000000000000 },
 {0.000000000000000, 1.000000000000000, 0.000000000000000, -1.000000000000000 },
 {0.000000000000000, 1.000000000000000, 0.000000000000000, -1.000000000000000 },
 {0.000000000000000, 1.000000000000000, 0.000000000000000, -1.000000000000000 },
 {0.000000000000000, 1.000000000000000, 0.000000000000000, -1.000000000000000 },
};

double FEMQuadElement3D::dgqPointsdl3[NUMRULE][NUMGLEP] = 
{
 {0.000000000000000, 0.000000000000000, 1.000000000000000, -1.000000000000000 },
 {0.000000000000000, 0.000000000000000, 1.000000000000000, -1.000000000000000 },
 {0.000000000000000, 0.000000000000000, 1.000000000000000, -1.000000000000000 },
 {0.000000000000000, 0.000000000000000, 1.000000000000000, -1.000000000000000 },
 {0.000000000000000, 0.000000000000000, 1.000000000000000, -1.000000000000000 },
 {0.000000000000000, 0.000000000000000, 1.000000000000000, -1.000000000000000 },
 {0.000000000000000, 0.000000000000000, 1.000000000000000, -1.000000000000000 },
 {0.000000000000000, 0.000000000000000, 1.000000000000000, -1.000000000000000 },
 {0.000000000000000, 0.000000000000000, 1.000000000000000, -1.000000000000000 },
 {0.000000000000000, 0.000000000000000, 1.000000000000000, -1.000000000000000 },
 {0.000000000000000, 0.000000000000000, 1.000000000000000, -1.000000000000000 },
 {0.000000000000000, 0.000000000000000, 1.000000000000000, -1.000000000000000 },
 {0.000000000000000, 0.000000000000000, 1.000000000000000, -1.000000000000000 },
 {0.000000000000000, 0.000000000000000, 1.000000000000000, -1.000000000000000 },
 {0.000000000000000, 0.000000000000000, 1.000000000000000, -1.000000000000000 },
 {0.000000000000000, 0.000000000000000, 1.000000000000000, -1.000000000000000 },
 {0.000000000000000, 0.000000000000000, 1.000000000000000, -1.000000000000000 },
 {0.000000000000000, 0.000000000000000, 1.000000000000000, -1.000000000000000 },
 {0.000000000000000, 0.000000000000000, 1.000000000000000, -1.000000000000000 },
 {0.000000000000000, 0.000000000000000, 1.000000000000000, -1.000000000000000 },
 {0.000000000000000, 0.000000000000000, 1.000000000000000, -1.000000000000000 },
 {0.000000000000000, 0.000000000000000, 1.000000000000000, -1.000000000000000 },
 {0.000000000000000, 0.000000000000000, 1.000000000000000, -1.000000000000000 },
 {0.000000000000000, 0.000000000000000, 1.000000000000000, -1.000000000000000 },
 {0.000000000000000, 0.000000000000000, 1.000000000000000, -1.000000000000000 },
 {0.000000000000000, 0.000000000000000, 1.000000000000000, -1.000000000000000 },
 {0.000000000000000, 0.000000000000000, 1.000000000000000, -1.000000000000000 },
 {0.000000000000000, 0.000000000000000, 1.000000000000000, -1.000000000000000 },
 {0.000000000000000, 0.000000000000000, 1.000000000000000, -1.000000000000000 },
 {0.000000000000000, 0.000000000000000, 1.000000000000000, -1.000000000000000 },
 {0.000000000000000, 0.000000000000000, 1.000000000000000, -1.000000000000000 },
 {0.000000000000000, 0.000000000000000, 1.000000000000000, -1.000000000000000 },
 {0.000000000000000, 0.000000000000000, 1.000000000000000, -1.000000000000000 },
 {0.000000000000000, 0.000000000000000, 1.000000000000000, -1.000000000000000 },
 {0.000000000000000, 0.000000000000000, 1.000000000000000, -1.000000000000000 },
 {0.000000000000000, 0.000000000000000, 1.000000000000000, -1.000000000000000 },
 {0.000000000000000, 0.000000000000000, 1.000000000000000, -1.000000000000000 },
 {0.000000000000000, 0.000000000000000, 1.000000000000000, -1.000000000000000 },
 {0.000000000000000, 0.000000000000000, 1.000000000000000, -1.000000000000000 },
 {0.000000000000000, 0.000000000000000, 1.000000000000000, -1.000000000000000 },
 {0.000000000000000, 0.000000000000000, 1.000000000000000, -1.000000000000000 },
 {0.000000000000000, 0.000000000000000, 1.000000000000000, -1.000000000000000 },
 {0.000000000000000, 0.000000000000000, 1.000000000000000, -1.000000000000000 },
 {0.000000000000000, 0.000000000000000, 1.000000000000000, -1.000000000000000 },
 {0.000000000000000, 0.000000000000000, 1.000000000000000, -1.000000000000000 },
};

