double FEMCubicElement3D::gqPoints[NUMRULE][NUMGLE] = 
{
 {0.250000000000000, 0.250000000000000, 0.250000000000000, 0.250000000000000 },
 {0.617587190300083, 0.127470936566639, 0.127470936566639, 0.127470936566639 },
 {0.127470936566639, 0.127470936566639, 0.127470936566639, 0.617587190300083 },
 {0.127470936566639, 0.127470936566639, 0.617587190300083, 0.127470936566639 },
 {0.127470936566639, 0.617587190300083, 0.127470936566639, 0.127470936566639 },
 {0.903763508822103, 0.032078830392632, 0.032078830392632, 0.032078830392632 },
 {0.032078830392632, 0.032078830392632, 0.032078830392632, 0.903763508822103 },
 {0.032078830392632, 0.032078830392632, 0.903763508822103, 0.032078830392632 },
 {0.032078830392632, 0.903763508822103, 0.032078830392632, 0.032078830392632 },
 {0.450222904356719, 0.049777095643281, 0.049777095643281, 0.450222904356719 },
 {0.049777095643281, 0.450222904356719, 0.049777095643281, 0.450222904356719 },
 {0.049777095643281, 0.049777095643281, 0.450222904356719, 0.450222904356719 },
 {0.049777095643281, 0.450222904356719, 0.450222904356719, 0.049777095643281 },
 {0.450222904356719, 0.049777095643281, 0.450222904356719, 0.049777095643281 },
 {0.450222904356719, 0.450222904356719, 0.049777095643281, 0.049777095643281 },
 {0.316269552601450, 0.183730447398550, 0.183730447398550, 0.316269552601450 },
 {0.183730447398550, 0.316269552601450, 0.183730447398550, 0.316269552601450 },
 {0.183730447398550, 0.183730447398550, 0.316269552601450, 0.316269552601450 },
 {0.183730447398550, 0.316269552601450, 0.316269552601450, 0.183730447398550 },
 {0.316269552601450, 0.183730447398550, 0.316269552601450, 0.183730447398550 },
 {0.316269552601450, 0.316269552601450, 0.183730447398550, 0.183730447398550 },
 {0.022917787844817, 0.231901089397151, 0.231901089397151, 0.513280033360881 },
 {0.231901089397151, 0.022917787844817, 0.231901089397151, 0.513280033360881 },
 {0.231901089397151, 0.231901089397151, 0.022917787844817, 0.513280033360881 },
 {0.513280033360881, 0.231901089397151, 0.231901089397151, 0.022917787844817 },
 {0.231901089397151, 0.513280033360881, 0.231901089397151, 0.022917787844817 },
 {0.231901089397151, 0.231901089397151, 0.513280033360881, 0.022917787844817 },
 {0.231901089397151, 0.022917787844817, 0.513280033360881, 0.231901089397151 },
 {0.022917787844817, 0.513280033360881, 0.231901089397151, 0.231901089397151 },
 {0.513280033360881, 0.231901089397151, 0.022917787844817, 0.231901089397151 },
 {0.231901089397151, 0.513280033360881, 0.022917787844817, 0.231901089397151 },
 {0.022917787844817, 0.231901089397151, 0.513280033360881, 0.231901089397151 },
 {0.513280033360881, 0.022917787844817, 0.231901089397151, 0.231901089397151 },
 {0.730313427807538, 0.037970048471829, 0.037970048471829, 0.193746475248804 },
 {0.037970048471829, 0.730313427807538, 0.037970048471829, 0.193746475248804 },
 {0.037970048471829, 0.037970048471829, 0.730313427807538, 0.193746475248804 },
 {0.193746475248804, 0.037970048471829, 0.037970048471829, 0.730313427807538 },
 {0.037970048471829, 0.193746475248804, 0.037970048471829, 0.730313427807538 },
 {0.037970048471829, 0.037970048471829, 0.193746475248804, 0.730313427807538 },
 {0.037970048471829, 0.730313427807538, 0.193746475248804, 0.037970048471829 },
 {0.730313427807538, 0.193746475248804, 0.037970048471829, 0.037970048471829 },
 {0.193746475248804, 0.037970048471829, 0.730313427807538, 0.037970048471829 },
 {0.037970048471829, 0.193746475248804, 0.730313427807538, 0.037970048471829 },
 {0.730313427807538, 0.037970048471829, 0.193746475248804, 0.037970048471829 },
 {0.193746475248804, 0.730313427807538, 0.037970048471829, 0.037970048471829 },
};

double FEMCubicElement3D::gqWeights[NUMRULE] = 
{
 -0.235962039847756,
 0.024487896356056,
 0.024487896356056,
 0.024487896356056,
 0.024487896356056,
 0.003948520639826,
 0.003948520639826,
 0.003948520639826,
 0.003948520639826,
 0.026305552950737,
 0.026305552950737,
 0.026305552950737,
 0.026305552950737,
 0.026305552950737,
 0.026305552950737,
 0.082980383055059,
 0.082980383055059,
 0.082980383055059,
 0.082980383055059,
 0.082980383055059,
 0.082980383055059,
 0.025442624548102,
 0.025442624548102,
 0.025442624548102,
 0.025442624548102,
 0.025442624548102,
 0.025442624548102,
 0.025442624548102,
 0.025442624548102,
 0.025442624548102,
 0.025442624548102,
 0.025442624548102,
 0.025442624548102,
 0.013432438437685,
 0.013432438437685,
 0.013432438437685,
 0.013432438437685,
 0.013432438437685,
 0.013432438437685,
 0.013432438437685,
 0.013432438437685,
 0.013432438437685,
 0.013432438437685,
 0.013432438437685,
 0.013432438437685,
};

double FEMCubicElement3D::phiJ[NUMRULE][NUMGLEU] = 
{
 {0.039062500000000, 0.039062500000000, 0.039062500000000, 0.039062500000000, -0.070312500000000, -0.070312500000000, -0.070312500000000, -0.070312500000000, -0.070312500000000, -0.070312500000000, -0.070312500000000, -0.070312500000000, -0.070312500000000, -0.070312500000000, -0.070312500000000, -0.070312500000000, 0.421875000000000, 0.421875000000000, 0.421875000000000, 0.421875000000000 },
 {-0.038771899652530, 0.063671804703726, 0.063671804703726, 0.063671804703726, 0.302099210936615, -0.218786363317538, 0.302099210936615, -0.218786363317538, 0.302099210936615, -0.218786363317538, -0.045157838566153, -0.045157838566153, -0.045157838566153, -0.045157838566153, -0.045157838566153, -0.045157838566153, 0.270947031396921, 0.270947031396921, 0.270947031396921, 0.055923879890278 },
 {0.063671804703726, 0.063671804703726, 0.063671804703726, -0.038771899652530, -0.045157838566153, -0.045157838566153, -0.045157838566153, -0.045157838566153, -0.218786363317538, 0.302099210936615, -0.045157838566153, -0.045157838566153, -0.218786363317538, 0.302099210936615, -0.218786363317538, 0.302099210936615, 0.055923879890278, 0.270947031396921, 0.270947031396921, 0.270947031396921 },
 {0.063671804703726, 0.063671804703726, -0.038771899652530, 0.063671804703726, -0.045157838566153, -0.045157838566153, -0.218786363317538, 0.302099210936615, -0.045157838566153, -0.045157838566153, -0.218786363317538, 0.302099210936615, 0.302099210936615, -0.218786363317538, -0.045157838566153, -0.045157838566153, 0.270947031396921, 0.055923879890278, 0.270947031396921, 0.270947031396921 },
 {0.063671804703726, -0.038771899652530, 0.063671804703726, 0.063671804703726, -0.218786363317538, 0.302099210936615, -0.045157838566153, -0.045157838566153, -0.045157838566153, -0.045157838566153, 0.302099210936615, -0.218786363317538, -0.045157838566153, -0.045157838566153, 0.302099210936615, -0.218786363317538, 0.270947031396921, 0.270947031396921, 0.055923879890278, 0.270947031396921 },
 {0.550041650800971, 0.027596647713615, 0.027596647713615, 0.027596647713616, 0.223259314605636, -0.117907286007044, 0.223259314605636, -0.117907286007044, 0.223259314605637, -0.117907286007044, -0.004185085802817, -0.004185085802817, -0.004185085802817, -0.004185085802817, -0.004185085802817, -0.004185085802817, 0.025110514816903, 0.025110514816903, 0.025110514816903, 0.000891290628599 },
 {0.027596647713615, 0.027596647713615, 0.027596647713615, 0.550041650800971, -0.004185085802817, -0.004185085802817, -0.004185085802817, -0.004185085802817, -0.117907286007044, 0.223259314605636, -0.004185085802817, -0.004185085802817, -0.117907286007044, 0.223259314605636, -0.117907286007044, 0.223259314605636, 0.000891290628599, 0.025110514816903, 0.025110514816903, 0.025110514816903 },
 {0.027596647713615, 0.027596647713615, 0.550041650800971, 0.027596647713615, -0.004185085802817, -0.004185085802817, -0.117907286007044, 0.223259314605636, -0.004185085802817, -0.004185085802817, -0.117907286007044, 0.223259314605636, 0.223259314605636, -0.117907286007044, -0.004185085802817, -0.004185085802817, 0.025110514816903, 0.000891290628599, 0.025110514816903, 0.025110514816903 },
 {0.027596647713615, 0.550041650800971, 0.027596647713615, 0.027596647713616, -0.117907286007044, 0.223259314605636, -0.004185085802817, -0.004185085802817, -0.004185085802817, -0.004185085802817, 0.223259314605636, -0.117907286007044, -0.004185085802817, -0.004185085802817, 0.223259314605637, -0.117907286007044, 0.025110514816903, 0.025110514816903, 0.000891290628599, 0.025110514816903 },
 {-0.051257915196969, 0.039182189481629, 0.039182189481629, -0.051257915196969, 0.035364430741797, -0.085788705026457, 0.035364430741797, -0.085788705026457, 0.319863513805531, 0.319863513805531, -0.009484885228833, -0.009484885228833, -0.085788705026457, 0.035364430741797, -0.085788705026457, 0.035364430741797, 0.030119687085727, 0.272425958622235, 0.272425958622235, 0.030119687085727 },
 {0.039182189481629, -0.051257915196969, 0.039182189481629, -0.051257915196969, -0.085788705026457, 0.035364430741797, -0.009484885228833, -0.009484885228833, -0.085788705026457, 0.035364430741797, 0.035364430741797, -0.085788705026457, -0.085788705026457, 0.035364430741797, 0.319863513805531, 0.319863513805531, 0.030119687085727, 0.272425958622235, 0.030119687085727, 0.272425958622235 },
 {0.039182189481629, 0.039182189481629, -0.051257915196969, -0.051257915196969, -0.009484885228833, -0.009484885228833, -0.085788705026457, 0.035364430741797, -0.085788705026457, 0.035364430741797, -0.085788705026457, 0.035364430741797, 0.319863513805531, 0.319863513805531, -0.085788705026457, 0.035364430741797, 0.030119687085727, 0.030119687085727, 0.272425958622235, 0.272425958622235 },
 {0.039182189481629, -0.051257915196969, -0.051257915196969, 0.039182189481629, -0.085788705026457, 0.035364430741797, -0.085788705026457, 0.035364430741797, -0.009484885228833, -0.009484885228833, 0.319863513805531, 0.319863513805531, 0.035364430741797, -0.085788705026457, 0.035364430741797, -0.085788705026457, 0.272425958622235, 0.030119687085727, 0.030119687085727, 0.272425958622235 },
 {-0.051257915196969, 0.039182189481629, -0.051257915196969, 0.039182189481629, 0.035364430741797, -0.085788705026457, 0.319863513805531, 0.319863513805531, 0.035364430741797, -0.085788705026457, -0.085788705026457, 0.035364430741797, 0.035364430741797, -0.085788705026457, -0.009484885228833, -0.009484885228833, 0.272425958622235, 0.030119687085727, 0.272425958622235, 0.030119687085727 },
 {-0.051257915196969, -0.051257915196969, 0.039182189481629, 0.039182189481629, 0.319863513805531, 0.319863513805531, 0.035364430741797, -0.085788705026457, 0.035364430741797, -0.085788705026457, 0.035364430741797, -0.085788705026457, -0.009484885228833, -0.009484885228833, 0.035364430741797, -0.085788705026457, 0.272425958622235, 0.272425958622235, 0.030119687085727, 0.030119687085727 },
 {0.008509532090647, 0.059734247304861, 0.059734247304861, 0.008509532090647, -0.013385899101976, -0.117357880293532, -0.013385899101976, -0.117357880293532, -0.023042192407917, -0.023042192407917, -0.068176704569624, -0.068176704569624, -0.117357880293532, -0.013385899101976, -0.117357880293532, -0.013385899101976, 0.288259356994968, 0.496203319378081, 0.496203319378081, 0.288259356994968 },
 {0.059734247304861, 0.008509532090647, 0.059734247304861, 0.008509532090647, -0.117357880293532, -0.013385899101976, -0.068176704569624, -0.068176704569624, -0.117357880293532, -0.013385899101976, -0.013385899101976, -0.117357880293532, -0.117357880293532, -0.013385899101976, -0.023042192407917, -0.023042192407917, 0.288259356994968, 0.496203319378081, 0.288259356994968, 0.496203319378081 },
 {0.059734247304861, 0.059734247304861, 0.008509532090647, 0.008509532090647, -0.068176704569624, -0.068176704569624, -0.117357880293532, -0.013385899101976, -0.117357880293532, -0.013385899101976, -0.117357880293532, -0.013385899101976, -0.023042192407917, -0.023042192407917, -0.117357880293532, -0.013385899101976, 0.288259356994968, 0.288259356994968, 0.496203319378081, 0.496203319378081 },
 {0.059734247304861, 0.008509532090647, 0.008509532090647, 0.059734247304861, -0.117357880293532, -0.013385899101976, -0.117357880293532, -0.013385899101976, -0.068176704569624, -0.068176704569624, -0.023042192407917, -0.023042192407917, -0.013385899101976, -0.117357880293532, -0.013385899101976, -0.117357880293532, 0.496203319378081, 0.288259356994968, 0.288259356994968, 0.496203319378081 },
 {0.008509532090647, 0.059734247304861, 0.008509532090647, 0.059734247304861, -0.013385899101976, -0.117357880293532, -0.023042192407917, -0.023042192407917, -0.013385899101976, -0.117357880293532, -0.117357880293532, -0.013385899101976, -0.013385899101976, -0.117357880293532, -0.068176704569624, -0.068176704569624, 0.496203319378081, 0.288259356994968, 0.496203319378081, 0.288259356994968 },
 {0.008509532090647, 0.008509532090647, 0.059734247304861, 0.059734247304861, -0.023042192407917, -0.023042192407917, -0.013385899101976, -0.117357880293532, -0.013385899101976, -0.117357880293532, -0.013385899101976, -0.117357880293532, -0.068176704569624, -0.068176704569624, -0.013385899101976, -0.117357880293532, 0.496203319378081, 0.496203319378081, 0.288259356994968, 0.288259356994968 },
 {0.020608441824180, 0.046019986530096, 0.046019986530096, -0.063752656519050, -0.022271666485314, -0.007277551464919, -0.022271666485314, -0.007277551464919, -0.049295161770486, 0.028576216033134, -0.073640271228896, -0.073640271228896, -0.162992252306066, 0.289157735196979, -0.162992252306066, 0.289157735196979, 0.033276836780234, 0.073653538830305, 0.073653538830305, 0.745287285507617 },
 {0.046019986530096, 0.020608441824180, 0.046019986530096, -0.063752656519050, -0.007277551464919, -0.022271666485314, -0.073640271228896, -0.073640271228896, -0.162992252306066, 0.289157735196979, -0.022271666485314, -0.007277551464919, -0.162992252306066, 0.289157735196979, -0.049295161770486, 0.028576216033134, 0.033276836780234, 0.073653538830305, 0.745287285507617, 0.073653538830305 },
 {0.046019986530096, 0.046019986530096, 0.020608441824180, -0.063752656519050, -0.073640271228896, -0.073640271228896, -0.007277551464919, -0.022271666485314, -0.162992252306066, 0.289157735196979, -0.007277551464919, -0.022271666485314, -0.049295161770486, 0.028576216033134, -0.162992252306066, 0.289157735196979, 0.033276836780234, 0.745287285507617, 0.073653538830305, 0.073653538830305 },
 {-0.063752656519050, 0.046019986530096, 0.046019986530096, 0.020608441824179, 0.289157735196979, -0.162992252306066, 0.289157735196979, -0.162992252306066, 0.028576216033134, -0.049295161770486, -0.073640271228896, -0.073640271228896, -0.007277551464919, -0.022271666485314, -0.007277551464919, -0.022271666485314, 0.745287285507617, 0.073653538830305, 0.073653538830305, 0.033276836780234 },
 {0.046019986530096, -0.063752656519050, 0.046019986530096, 0.020608441824179, -0.162992252306066, 0.289157735196979, -0.073640271228896, -0.073640271228896, -0.007277551464919, -0.022271666485314, 0.289157735196979, -0.162992252306066, -0.007277551464919, -0.022271666485314, 0.028576216033134, -0.049295161770486, 0.745287285507617, 0.073653538830305, 0.033276836780234, 0.073653538830305 },
 {0.046019986530096, 0.046019986530096, -0.063752656519050, 0.020608441824179, -0.073640271228896, -0.073640271228896, -0.162992252306066, 0.289157735196979, -0.007277551464919, -0.022271666485314, -0.162992252306066, 0.289157735196979, 0.028576216033134, -0.049295161770486, -0.007277551464919, -0.022271666485314, 0.745287285507617, 0.033276836780234, 0.073653538830305, 0.073653538830305 },
 {0.046019986530096, 0.020608441824180, -0.063752656519050, 0.046019986530096, -0.007277551464919, -0.022271666485314, -0.162992252306066, 0.289157735196979, -0.073640271228896, -0.073640271228896, -0.049295161770486, 0.028576216033134, 0.289157735196979, -0.162992252306066, -0.022271666485314, -0.007277551464919, 0.073653538830305, 0.033276836780234, 0.745287285507617, 0.073653538830305 },
 {0.020608441824180, -0.063752656519050, 0.046019986530096, 0.046019986530096, -0.049295161770486, 0.028576216033134, -0.022271666485314, -0.007277551464919, -0.022271666485314, -0.007277551464919, 0.289157735196979, -0.162992252306066, -0.073640271228896, -0.073640271228896, 0.289157735196979, -0.162992252306066, 0.073653538830305, 0.073653538830305, 0.033276836780234, 0.745287285507617 },
 {-0.063752656519050, 0.046019986530096, 0.020608441824180, 0.046019986530096, 0.289157735196979, -0.162992252306066, 0.028576216033134, -0.049295161770486, 0.289157735196979, -0.162992252306066, -0.007277551464919, -0.022271666485314, -0.022271666485314, -0.007277551464919, -0.073640271228896, -0.073640271228896, 0.073653538830305, 0.745287285507617, 0.073653538830305, 0.033276836780234 },
 {0.046019986530096, -0.063752656519050, 0.020608441824180, 0.046019986530096, -0.162992252306066, 0.289157735196979, -0.007277551464919, -0.022271666485314, -0.073640271228896, -0.073640271228896, 0.028576216033134, -0.049295161770486, -0.022271666485314, -0.007277551464919, 0.289157735196979, -0.162992252306066, 0.073653538830305, 0.745287285507617, 0.033276836780234, 0.073653538830305 },
 {0.020608441824180, 0.046019986530096, -0.063752656519050, 0.046019986530096, -0.022271666485314, -0.007277551464919, -0.049295161770486, 0.028576216033134, -0.022271666485314, -0.007277551464919, -0.162992252306066, 0.289157735196979, 0.289157735196979, -0.162992252306066, -0.073640271228896, -0.073640271228896, 0.073653538830305, 0.033276836780234, 0.073653538830305, 0.745287285507617 },
 {-0.063752656519050, 0.020608441824180, 0.046019986530096, 0.046019986530096, 0.028576216033134, -0.049295161770486, 0.289157735196979, -0.162992252306066, 0.289157735196979, -0.162992252306066, -0.022271666485314, -0.007277551464919, -0.073640271228896, -0.073640271228896, -0.022271666485314, -0.007277551464919, 0.073653538830305, 0.073653538830305, 0.745287285507617, 0.033276836780234 },
 {0.083036079971254, 0.031728628442538, 0.031728628442538, 0.057554424113430, 0.148611677557672, -0.110570867061610, 0.148611677557672, -0.110570867061610, 0.758307926021571, -0.266637603062046, -0.005748738859294, -0.005748738859294, -0.029333591500164, -0.013862873565220, -0.029333591500164, -0.013862873565220, 0.028428592158095, 0.145060113131097, 0.145060113131097, 0.007541884507659 },
 {0.031728628442538, 0.083036079971254, 0.031728628442538, 0.057554424113430, -0.110570867061610, 0.148611677557672, -0.005748738859294, -0.005748738859294, -0.029333591500164, -0.013862873565220, 0.148611677557672, -0.110570867061610, -0.029333591500164, -0.013862873565220, 0.758307926021571, -0.266637603062046, 0.028428592158095, 0.145060113131097, 0.007541884507659, 0.145060113131097 },
 {0.031728628442538, 0.031728628442538, 0.083036079971254, 0.057554424113430, -0.005748738859294, -0.005748738859294, -0.110570867061610, 0.148611677557672, -0.029333591500164, -0.013862873565220, -0.110570867061610, 0.148611677557672, 0.758307926021571, -0.266637603062046, -0.029333591500164, -0.013862873565220, 0.028428592158095, 0.007541884507659, 0.145060113131097, 0.145060113131097 },
 {0.057554424113430, 0.031728628442538, 0.031728628442538, 0.083036079971254, -0.013862873565220, -0.029333591500164, -0.013862873565220, -0.029333591500164, -0.266637603062046, 0.758307926021571, -0.005748738859294, -0.005748738859294, -0.110570867061610, 0.148611677557672, -0.110570867061610, 0.148611677557672, 0.007541884507659, 0.145060113131097, 0.145060113131097, 0.028428592158095 },
 {0.031728628442538, 0.057554424113430, 0.031728628442538, 0.083036079971254, -0.029333591500164, -0.013862873565220, -0.005748738859294, -0.005748738859294, -0.110570867061610, 0.148611677557672, -0.013862873565220, -0.029333591500164, -0.110570867061610, 0.148611677557672, -0.266637603062046, 0.758307926021571, 0.007541884507659, 0.145060113131097, 0.028428592158095, 0.145060113131097 },
 {0.031728628442538, 0.031728628442538, 0.057554424113430, 0.083036079971254, -0.005748738859294, -0.005748738859294, -0.029333591500164, -0.013862873565220, -0.110570867061610, 0.148611677557672, -0.029333591500164, -0.013862873565220, -0.266637603062046, 0.758307926021571, -0.110570867061610, 0.148611677557672, 0.007541884507659, 0.028428592158095, 0.145060113131097, 0.145060113131097 },
 {0.031728628442538, 0.083036079971254, 0.057554424113430, 0.031728628442538, -0.110570867061610, 0.148611677557672, -0.029333591500164, -0.013862873565220, -0.005748738859294, -0.005748738859294, 0.758307926021571, -0.266637603062046, -0.013862873565220, -0.029333591500164, 0.148611677557672, -0.110570867061610, 0.145060113131097, 0.028428592158095, 0.007541884507659, 0.145060113131097 },
 {0.083036079971254, 0.057554424113430, 0.031728628442538, 0.031728628442538, 0.758307926021571, -0.266637603062046, 0.148611677557672, -0.110570867061610, 0.148611677557672, -0.110570867061610, -0.013862873565220, -0.029333591500164, -0.005748738859294, -0.005748738859294, -0.013862873565220, -0.029333591500164, 0.145060113131097, 0.145060113131097, 0.028428592158095, 0.007541884507659 },
 {0.057554424113430, 0.031728628442538, 0.083036079971254, 0.031728628442538, -0.013862873565220, -0.029333591500164, -0.266637603062046, 0.758307926021571, -0.013862873565220, -0.029333591500164, -0.110570867061610, 0.148611677557672, 0.148611677557672, -0.110570867061610, -0.005748738859294, -0.005748738859294, 0.145060113131097, 0.007541884507659, 0.145060113131097, 0.028428592158095 },
 {0.031728628442538, 0.057554424113430, 0.083036079971254, 0.031728628442538, -0.029333591500164, -0.013862873565220, -0.110570867061610, 0.148611677557672, -0.005748738859294, -0.005748738859294, -0.266637603062046, 0.758307926021571, 0.148611677557672, -0.110570867061610, -0.013862873565220, -0.029333591500164, 0.145060113131097, 0.007541884507659, 0.028428592158095, 0.145060113131097 },
 {0.083036079971254, 0.031728628442538, 0.057554424113430, 0.031728628442538, 0.148611677557672, -0.110570867061610, 0.758307926021571, -0.266637603062046, 0.148611677557672, -0.110570867061610, -0.029333591500164, -0.013862873565220, -0.013862873565220, -0.029333591500164, -0.005748738859294, -0.005748738859294, 0.145060113131097, 0.028428592158095, 0.145060113131097, 0.007541884507659 },
 {0.057554424113430, 0.083036079971254, 0.031728628442538, 0.031728628442538, -0.266637603062046, 0.758307926021571, -0.013862873565220, -0.029333591500164, -0.013862873565220, -0.029333591500164, 0.148611677557672, -0.110570867061610, -0.005748738859294, -0.005748738859294, 0.148611677557672, -0.110570867061610, 0.145060113131097, 0.145060113131097, 0.007541884507659, 0.028428592158095 },
};

double FEMCubicElement3D::dphiJdl1[NUMRULE][NUMGLEU] = 
{
 {-0.406250000000000, 0.000000000000000, 0.000000000000000, 0.406250000000000, 0.562500000000000, -0.281250000000000, 0.562500000000000, -0.281250000000000, 0.843750000000000, -0.843750000000000, 0.000000000000000, 0.000000000000000, 0.281250000000000, -0.562500000000000, 0.281250000000000, -0.562500000000000, 1.687500000000000, 0.000000000000000, 0.000000000000000, -1.687500000000000 },
 {0.590803445206391, 0.000000000000000, 0.000000000000000, -0.072120906434126, 1.551940059546113, -0.354259879015998, 1.551940059546113, -0.354259879015998, -0.818005742010651, 0.299323203238387, 0.000000000000000, 0.000000000000000, 0.354259879015998, 0.134900543482121, 0.354259879015998, 0.134900543482121, 0.438718671067755, -1.686840603028234, -1.686840603028234, -0.438718671067755 },
 {0.072120906434126, 0.000000000000000, 0.000000000000000, -0.590803445206391, -0.134900543482121, -0.354259879015998, -0.134900543482121, -0.354259879015998, -0.299323203238387, 0.818005742010651, 0.000000000000000, 0.000000000000000, 0.354259879015998, -1.551940059546113, 0.354259879015998, -1.551940059546113, 0.438718671067755, 1.686840603028234, 1.686840603028234, -0.438718671067755 },
 {0.072120906434126, 0.000000000000000, 0.000000000000000, -0.072120906434126, -0.134900543482121, -0.354259879015998, -0.653583082254385, 2.369945801556764, 0.219359335533877, -0.219359335533877, 0.000000000000000, 0.000000000000000, -2.369945801556764, 0.653583082254385, 0.354259879015998, 0.134900543482121, 2.125559274095989, 0.000000000000000, 0.000000000000000, -2.125559274095989 },
 {0.072120906434126, 0.000000000000000, 0.000000000000000, -0.072120906434126, -0.653583082254385, 2.369945801556764, -0.134900543482121, -0.354259879015998, 0.219359335533877, -0.219359335533877, 0.000000000000000, 0.000000000000000, 0.354259879015998, 0.134900543482121, -2.369945801556764, 0.653583082254385, 2.125559274095989, 0.000000000000000, 0.000000000000000, -2.125559274095989 },
 {3.892772898960007, 0.000000000000000, 0.000000000000000, -0.725182719817659, 0.638420523726126, -0.130462543415495, 0.638420523726126, -0.130462543415495, -6.321288164933343, 3.153697985790995, 0.000000000000000, 0.000000000000000, 0.130462543415495, 0.116570350064145, 0.130462543415495, 0.116570350064145, 0.027784386702700, -0.754990873790271, -0.754990873790271, -0.027784386702700 },
 {0.725182719817659, 0.000000000000000, 0.000000000000000, -3.892772898960007, -0.116570350064145, -0.130462543415495, -0.116570350064145, -0.130462543415495, -3.153697985790997, 6.321288164933345, 0.000000000000000, 0.000000000000000, 0.130462543415495, -0.638420523726126, 0.130462543415495, -0.638420523726126, 0.027784386702700, 0.754990873790271, 0.754990873790271, -0.027784386702700 },
 {0.725182719817659, 0.000000000000000, 0.000000000000000, -0.725182719817660, -0.116570350064145, -0.130462543415495, -3.284160529206493, 6.959708688659471, 0.013892193351350, -0.013892193351350, 0.000000000000000, 0.000000000000000, -6.959708688659471, 3.284160529206494, 0.130462543415495, 0.116570350064145, 0.782775260492971, -0.000000000000000, -0.000000000000001, -0.782775260492971 },
 {0.725182719817659, 0.000000000000000, 0.000000000000000, -0.725182719817659, -3.284160529206493, 6.959708688659471, -0.116570350064145, -0.130462543415495, 0.013892193351350, -0.013892193351350, 0.000000000000000, 0.000000000000000, 0.130462543415495, 0.116570350064145, -6.959708688659471, 3.284160529206491, 0.782775260492971, 0.000000000000002, 0.000000000000000, -0.782775260492971 },
 {-0.315547180510580, 0.000000000000000, 0.000000000000000, 0.315547180510580, 0.381094361021160, -0.190547180510580, 0.381094361021160, -0.190547180510580, 2.736458958699891, -2.736458958699891, 0.000000000000000, 0.000000000000000, 0.190547180510580, -0.381094361021160, 0.190547180510580, -0.381094361021160, 0.066899499768369, -0.000000000000000, -0.000000000000000, -0.066899499768369 },
 {0.585455889094656, 0.000000000000000, 0.000000000000000, 0.315547180510580, -1.420911778189311, 0.710455889094656, -0.157097430626395, -0.190547180510580, -1.230364597678731, 0.329361528073496, 0.000000000000000, 0.000000000000000, 0.190547180510580, -0.381094361021160, -0.710455889094656, -3.446914847794547, 0.605091291415924, 4.867826625983858, 0.538191791647555, -0.605091291415924 },
 {0.585455889094656, 0.000000000000000, 0.000000000000000, 0.315547180510580, -0.157097430626395, -0.190547180510580, -1.420911778189311, 0.710455889094656, -1.230364597678731, 0.329361528073496, 0.000000000000000, 0.000000000000000, -0.710455889094656, -3.446914847794547, 0.190547180510580, -0.381094361021160, 0.605091291415924, 0.538191791647555, 4.867826625983858, -0.605091291415924 },
 {0.585455889094656, 0.000000000000000, 0.000000000000000, -0.585455889094655, -1.420911778189311, 0.710455889094656, -1.420911778189311, 0.710455889094656, 0.033449749884185, -0.033449749884185, 0.000000000000000, 0.000000000000000, -0.710455889094656, 1.420911778189311, -0.710455889094656, 1.420911778189311, 5.472917917399783, 0.000000000000000, 0.000000000000000, -5.472917917399783 },
 {-0.315547180510580, 0.000000000000000, 0.000000000000000, -0.585455889094655, 0.381094361021160, -0.190547180510580, 3.446914847794547, 0.710455889094656, -0.329361528073496, 1.230364597678731, 0.000000000000000, 0.000000000000000, -0.710455889094656, 1.420911778189311, 0.190547180510580, 0.157097430626395, 0.605091291415924, -0.538191791647555, -4.867826625983859, -0.605091291415924 },
 {-0.315547180510580, 0.000000000000000, 0.000000000000000, -0.585455889094656, 3.446914847794547, 0.710455889094656, 0.381094361021160, -0.190547180510580, -0.329361528073497, 1.230364597678733, 0.000000000000000, 0.000000000000000, 0.190547180510580, 0.157097430626395, -0.710455889094656, 1.420911778189312, 0.605091291415924, -4.867826625983859, -0.538191791647555, -0.605091291415924 },
 {-0.496069169726312, 0.000000000000000, 0.000000000000000, 0.496069169726312, 0.742138339452624, -0.371069169726312, 0.742138339452624, -0.371069169726312, 1.350356803686739, -1.350356803686739, 0.000000000000000, 0.000000000000000, 0.371069169726312, -0.742138339452624, 0.371069169726312, -0.742138339452624, 0.911435687134325, -0.000000000000000, -0.000000000000000, -0.911435687134325 },
 {-0.197856183019786, 0.000000000000000, 0.000000000000000, 0.496069169726312, 0.145712366039573, -0.072856183019786, 0.084648673840851, -0.371069169726312, 0.516781535765885, -0.814994522472410, 0.000000000000000, 0.000000000000000, 0.371069169726312, -0.742138339452624, 0.072856183019786, -1.277500620666952, 1.568925352746098, 1.131788254627380, 0.657489665611773, -1.568925352746098 },
 {-0.197856183019786, 0.000000000000000, 0.000000000000000, 0.496069169726312, 0.084648673840851, -0.371069169726312, 0.145712366039573, -0.072856183019786, 0.516781535765885, -0.814994522472410, 0.000000000000000, 0.000000000000000, 0.072856183019786, -1.277500620666952, 0.371069169726312, -0.742138339452624, 1.568925352746098, 0.657489665611773, 1.131788254627380, -1.568925352746098 },
 {-0.197856183019786, 0.000000000000000, 0.000000000000000, 0.197856183019787, 0.145712366039573, -0.072856183019786, 0.145712366039573, -0.072856183019786, 0.455717843567163, -0.455717843567163, 0.000000000000000, 0.000000000000000, 0.072856183019786, -0.145712366039573, 0.072856183019786, -0.145712366039573, 2.700713607373479, 0.000000000000000, 0.000000000000000, -2.700713607373479 },
 {-0.496069169726312, 0.000000000000000, 0.000000000000000, 0.197856183019787, 0.742138339452624, -0.371069169726312, 1.277500620666953, -0.072856183019786, 0.814994522472410, -0.516781535765885, 0.000000000000000, 0.000000000000000, 0.072856183019786, -0.145712366039573, 0.371069169726312, -0.084648673840851, 1.568925352746098, -0.657489665611773, -1.131788254627380, -1.568925352746098 },
 {-0.496069169726312, 0.000000000000000, 0.000000000000000, 0.197856183019786, 1.277500620666953, -0.072856183019786, 0.742138339452624, -0.371069169726312, 0.814994522472410, -0.516781535765884, 0.000000000000000, 0.000000000000000, 0.371069169726312, -0.084648673840850, 0.072856183019786, -0.145712366039572, 1.568925352746098, -1.131788254627381, -0.657489665611773, -1.568925352746098 },
 {0.800830446892597, 0.000000000000000, 0.000000000000000, 0.062858999514142, -0.900059083156961, -0.317550346228776, -0.900059083156961, -0.317550346228776, -1.896113083760515, 1.032423637353776, 0.000000000000000, 0.000000000000000, 0.317550346228776, -2.170260468072067, 0.317550346228776, -2.170260468072067, 1.452009112116805, 3.070319551229027, 3.070319551229027, -1.452009112116805 },
 {-0.361105248515956, 0.000000000000000, 0.000000000000000, 0.062858999514142, 0.040365773828541, -0.096039507805726, 0.408454209829626, -0.317550346228776, 1.221605566464057, -0.923359317462244, 0.000000000000000, 0.000000000000000, 0.317550346228776, -2.170260468072067, 0.096039507805726, -0.214477513256047, 0.143495819130218, 0.174111739427505, 1.761806258242441, -0.143495819130218 },
 {-0.361105248515956, 0.000000000000000, 0.000000000000000, 0.062858999514142, 0.408454209829626, -0.317550346228776, 0.040365773828541, -0.096039507805726, 1.221605566464057, -0.923359317462244, 0.000000000000000, 0.000000000000000, 0.096039507805726, -0.214477513256047, 0.317550346228776, -2.170260468072067, 0.143495819130218, 1.761806258242441, 0.174111739427505, -0.143495819130218 },
 {-0.062858999514142, 0.000000000000000, 0.000000000000000, -0.800830446892597, 2.170260468072067, -0.317550346228776, 2.170260468072067, -0.317550346228776, -1.032423637353777, 1.896113083760517, 0.000000000000000, 0.000000000000000, 0.317550346228776, 0.900059083156961, 0.317550346228776, 0.900059083156961, 1.452009112116805, -3.070319551229028, -3.070319551229028, -1.452009112116805 },
 {-0.361105248515956, 0.000000000000000, 0.000000000000000, -0.800830446892597, 0.904055220235281, 1.246901150609823, 0.408454209829626, -0.317550346228776, 0.357916120057318, 0.804019575351235, 0.000000000000000, 0.000000000000000, 0.317550346228776, 0.900059083156961, -1.246901150609823, 1.992152591566243, 3.213815370359246, -2.896207811801523, -1.308513292986587, -3.213815370359246 },
 {-0.361105248515956, 0.000000000000000, 0.000000000000000, -0.800830446892597, 0.408454209829626, -0.317550346228776, 0.904055220235281, 1.246901150609823, 0.357916120057318, 0.804019575351235, 0.000000000000000, 0.000000000000000, -1.246901150609823, 1.992152591566243, 0.317550346228776, 0.900059083156961, 3.213815370359246, -1.308513292986587, -2.896207811801523, -3.213815370359246 },
 {-0.361105248515956, 0.000000000000000, 0.000000000000000, 0.361105248515956, 0.040365773828541, -0.096039507805726, 0.904055220235281, 1.246901150609823, 0.726004556058403, -0.726004556058403, 0.000000000000000, 0.000000000000000, -1.246901150609823, -0.904055220235281, 0.096039507805726, -0.040365773828542, 0.317607558557724, -0.000000000000000, -0.000000000000001, -0.317607558557724 },
 {0.800830446892597, 0.000000000000000, 0.000000000000000, 0.361105248515955, -1.992152591566241, 1.246901150609823, -0.900059083156961, -0.317550346228776, -0.804019575351234, -0.357916120057318, 0.000000000000000, 0.000000000000000, 0.317550346228776, -0.408454209829625, -1.246901150609823, -0.904055220235280, 3.213815370359246, 2.896207811801521, 1.308513292986586, -3.213815370359246 },
 {-0.062858999514142, 0.000000000000000, 0.000000000000000, 0.361105248515955, 2.170260468072067, -0.317550346228776, 0.214477513256047, -0.096039507805726, 0.923359317462243, -1.221605566464056, 0.000000000000000, 0.000000000000000, 0.096039507805726, -0.040365773828541, 0.317550346228776, -0.408454209829625, 0.143495819130218, -1.761806258242441, -0.174111739427505, -0.143495819130218 },
 {-0.361105248515956, 0.000000000000000, 0.000000000000000, 0.361105248515955, 0.904055220235281, 1.246901150609823, 0.040365773828541, -0.096039507805726, 0.726004556058402, -0.726004556058402, 0.000000000000000, 0.000000000000000, 0.096039507805726, -0.040365773828541, -1.246901150609823, -0.904055220235280, 0.317607558557724, -0.000000000000001, -0.000000000000000, -0.317607558557724 },
 {0.800830446892597, 0.000000000000000, 0.000000000000000, 0.361105248515956, -0.900059083156961, -0.317550346228776, -1.992152591566241, 1.246901150609823, -0.804019575351234, -0.357916120057318, 0.000000000000000, 0.000000000000000, -1.246901150609823, -0.904055220235281, 0.317550346228776, -0.408454209829626, 3.213815370359246, 1.308513292986587, 2.896207811801523, -3.213815370359246 },
 {-0.062858999514142, 0.000000000000000, 0.000000000000000, 0.361105248515955, 0.214477513256047, -0.096039507805726, 2.170260468072067, -0.317550346228776, 0.923359317462243, -1.221605566464056, 0.000000000000000, 0.000000000000000, 0.317550346228776, -0.408454209829625, 0.096039507805726, -0.040365773828541, 0.143495819130218, -0.174111739427505, -1.761806258242441, -0.143495819130218 },
 {1.627508138018108, 0.000000000000000, 0.000000000000000, 0.236959372176209, 0.577845760720719, -0.151401936280363, 0.577845760720719, -0.151401936280363, -0.965395085227917, -0.899072424966400, 0.000000000000000, 0.000000000000000, 0.151401936280363, -0.027761984400733, 0.151401936280363, -0.027761984400733, 0.038926563685731, -0.550083776319985, -0.550083776319985, -0.038926563685731 },
 {0.677732845596408, 0.000000000000000, 0.000000000000000, 0.236959372176209, -2.537699446289976, 3.913918563152031, -0.131938654437497, -0.151401936280363, -0.521829999815295, -0.392862217957323, 0.000000000000000, 0.000000000000000, 0.151401936280363, -0.027761984400733, -3.913918563152031, -0.533972191409811, 0.748710978843947, 3.071671637699787, 0.159700638838231, -0.748710978843947 },
 {0.677732845596408, 0.000000000000000, 0.000000000000000, 0.236959372176209, -0.131938654437497, -0.151401936280363, -2.537699446289976, 3.913918563152031, -0.521829999815295, -0.392862217957323, 0.000000000000000, 0.000000000000000, -3.913918563152031, -0.533972191409811, 0.151401936280363, -0.027761984400733, 0.748710978843947, 0.159700638838231, 3.071671637699787, -0.748710978843947 },
 {-0.236959372176209, 0.000000000000000, 0.000000000000000, -1.627508138018108, 0.027761984400733, -0.151401936280363, 0.027761984400733, -0.151401936280363, 0.899072424966400, 0.965395085227917, 0.000000000000000, 0.000000000000000, 0.151401936280363, -0.577845760720719, 0.151401936280363, -0.577845760720719, 0.038926563685731, 0.550083776319985, 0.550083776319985, -0.038926563685731 },
 {0.677732845596408, 0.000000000000000, 0.000000000000000, -1.627508138018108, -0.673231936095658, -0.365100233556590, -0.131938654437497, -0.151401936280363, -2.386297510009612, 3.336072802431313, 0.000000000000000, 0.000000000000000, 0.151401936280363, -0.577845760720719, 0.365100233556590, -2.948523477924114, 0.198627202523962, 3.621755414019772, 0.709784415158216, -0.198627202523962 },
 {0.677732845596408, 0.000000000000000, 0.000000000000000, -1.627508138018108, -0.131938654437497, -0.151401936280363, -0.673231936095658, -0.365100233556590, -2.386297510009612, 3.336072802431313, 0.000000000000000, 0.000000000000000, 0.365100233556590, -2.948523477924114, 0.151401936280363, -0.577845760720719, 0.198627202523962, 0.709784415158216, 3.621755414019772, -0.198627202523962 },
 {0.677732845596408, 0.000000000000000, 0.000000000000000, -0.677732845596408, -2.537699446289976, 3.913918563152031, -0.673231936095658, -0.365100233556590, 0.019463281842866, -0.019463281842866, 0.000000000000000, 0.000000000000000, 0.365100233556590, 0.673231936095658, -3.913918563152031, 2.537699446289975, 3.820382616543734, 0.000000000000000, 0.000000000000000, -3.820382616543734 },
 {1.627508138018108, 0.000000000000000, 0.000000000000000, -0.677732845596408, 2.948523477924114, -0.365100233556590, 0.577845760720719, -0.151401936280363, -3.336072802431312, 2.386297510009612, 0.000000000000000, 0.000000000000000, 0.151401936280363, 0.131938654437497, 0.365100233556590, 0.673231936095658, 0.198627202523962, -3.621755414019772, -0.709784415158216, -0.198627202523962 },
 {-0.236959372176209, 0.000000000000000, 0.000000000000000, -0.677732845596408, 0.027761984400733, -0.151401936280363, 0.533972191409811, 3.913918563152031, 0.392862217957323, 0.521829999815295, 0.000000000000000, 0.000000000000000, -3.913918563152031, 2.537699446289975, 0.151401936280363, 0.131938654437497, 0.748710978843947, -0.159700638838231, -3.071671637699786, -0.748710978843947 },
 {0.677732845596408, 0.000000000000000, 0.000000000000000, -0.677732845596408, -0.673231936095658, -0.365100233556590, -2.537699446289976, 3.913918563152031, 0.019463281842866, -0.019463281842866, 0.000000000000000, 0.000000000000000, -3.913918563152031, 2.537699446289975, 0.365100233556590, 0.673231936095658, 3.820382616543734, -0.000000000000000, -0.000000000000000, -3.820382616543734 },
 {1.627508138018108, 0.000000000000000, 0.000000000000000, -0.677732845596408, 0.577845760720719, -0.151401936280363, 2.948523477924114, -0.365100233556590, -3.336072802431312, 2.386297510009612, 0.000000000000000, 0.000000000000000, 0.365100233556590, 0.673231936095658, 0.151401936280363, 0.131938654437497, 0.198627202523962, -0.709784415158216, -3.621755414019772, -0.198627202523962 },
 {-0.236959372176209, 0.000000000000000, 0.000000000000000, -0.677732845596408, 0.533972191409811, 3.913918563152031, 0.027761984400733, -0.151401936280363, 0.392862217957323, 0.521829999815295, 0.000000000000000, 0.000000000000000, 0.151401936280363, 0.131938654437497, -3.913918563152031, 2.537699446289975, 0.748710978843947, -3.071671637699786, -0.159700638838231, -0.748710978843947 },
};

double FEMCubicElement3D::dphiJdl2[NUMRULE][NUMGLEU] = 
{
 {0.000000000000000, -0.406250000000000, 0.000000000000000, 0.406250000000000, -0.281250000000000, 0.562500000000000, 0.000000000000000, 0.000000000000000, 0.281250000000000, -0.562500000000000, 0.562500000000000, -0.281250000000000, 0.281250000000000, -0.562500000000000, 0.843750000000000, -0.843750000000000, 1.687500000000000, 0.000000000000000, -1.687500000000000, 0.000000000000000 },
 {0.000000000000000, 0.072120906434126, 0.000000000000000, -0.072120906434126, 2.369945801556764, -0.653583082254385, 0.000000000000000, 0.000000000000000, -2.369945801556764, 0.653583082254385, -0.134900543482121, -0.354259879015998, 0.354259879015998, 0.134900543482121, 0.219359335533877, -0.219359335533877, 2.125559274095989, 0.000000000000000, -2.125559274095989, 0.000000000000000 },
 {0.000000000000000, 0.072120906434126, 0.000000000000000, -0.590803445206391, -0.354259879015998, -0.134900543482121, 0.000000000000000, 0.000000000000000, 0.354259879015998, -1.551940059546113, -0.134900543482121, -0.354259879015998, 0.354259879015998, -1.551940059546113, -0.299323203238387, 0.818005742010651, 0.438718671067755, 1.686840603028234, -0.438718671067755, 1.686840603028234 },
 {0.000000000000000, 0.072120906434126, 0.000000000000000, -0.072120906434126, -0.354259879015998, -0.134900543482121, 0.000000000000000, 0.000000000000000, 0.354259879015998, 0.134900543482121, -0.653583082254385, 2.369945801556764, -2.369945801556764, 0.653583082254385, 0.219359335533877, -0.219359335533877, 2.125559274095989, 0.000000000000000, -2.125559274095989, 0.000000000000000 },
 {0.000000000000000, 0.590803445206391, 0.000000000000000, -0.072120906434126, -0.354259879015998, 1.551940059546113, 0.000000000000000, 0.000000000000000, 0.354259879015998, 0.134900543482121, 1.551940059546113, -0.354259879015998, 0.354259879015998, 0.134900543482121, -0.818005742010651, 0.299323203238387, 0.438718671067755, -1.686840603028234, -0.438718671067755, -1.686840603028234 },
 {0.000000000000000, 0.725182719817659, 0.000000000000000, -0.725182719817659, 6.959708688659471, -3.284160529206493, 0.000000000000000, 0.000000000000000, -6.959708688659471, 3.284160529206491, -0.116570350064145, -0.130462543415495, 0.130462543415495, 0.116570350064145, 0.013892193351350, -0.013892193351350, 0.782775260492971, -0.000000000000009, -0.782775260492971, -0.000000000000000 },
 {0.000000000000000, 0.725182719817659, 0.000000000000000, -3.892772898960007, -0.130462543415495, -0.116570350064145, 0.000000000000000, 0.000000000000000, 0.130462543415495, -0.638420523726126, -0.116570350064145, -0.130462543415495, 0.130462543415495, -0.638420523726126, -3.153697985790997, 6.321288164933345, 0.027784386702700, 0.754990873790271, -0.027784386702700, 0.754990873790271 },
 {0.000000000000000, 0.725182719817659, 0.000000000000000, -0.725182719817660, -0.130462543415495, -0.116570350064145, 0.000000000000000, 0.000000000000000, 0.130462543415495, 0.116570350064145, -3.284160529206493, 6.959708688659471, -6.959708688659471, 3.284160529206494, 0.013892193351350, -0.013892193351350, 0.782775260492971, -0.000000000000000, -0.782775260492971, -0.000000000000001 },
 {0.000000000000000, 3.892772898960007, 0.000000000000000, -0.725182719817659, -0.130462543415495, 0.638420523726126, 0.000000000000000, 0.000000000000000, 0.130462543415495, 0.116570350064145, 0.638420523726126, -0.130462543415495, 0.130462543415495, 0.116570350064145, -6.321288164933343, 3.153697985790995, 0.027784386702700, -0.754990873790271, -0.027784386702700, -0.754990873790271 },
 {0.000000000000000, 0.585455889094656, 0.000000000000000, 0.315547180510580, 0.710455889094656, -1.420911778189311, 0.000000000000000, 0.000000000000000, -0.710455889094656, -3.446914847794547, -0.157097430626395, -0.190547180510580, 0.190547180510580, -0.381094361021160, -1.230364597678731, 0.329361528073496, 0.605091291415924, 4.867826625983858, -0.605091291415924, 0.538191791647555 },
 {0.000000000000000, -0.315547180510580, 0.000000000000000, 0.315547180510580, -0.190547180510580, 0.381094361021160, 0.000000000000000, 0.000000000000000, 0.190547180510580, -0.381094361021160, 0.381094361021160, -0.190547180510580, 0.190547180510580, -0.381094361021160, 2.736458958699891, -2.736458958699891, 0.066899499768369, -0.000000000000000, -0.066899499768369, -0.000000000000000 },
 {0.000000000000000, 0.585455889094656, 0.000000000000000, 0.315547180510580, -0.190547180510580, -0.157097430626395, 0.000000000000000, 0.000000000000000, 0.190547180510580, -0.381094361021160, -1.420911778189311, 0.710455889094656, -0.710455889094656, -3.446914847794547, -1.230364597678731, 0.329361528073496, 0.605091291415924, 0.538191791647555, -0.605091291415924, 4.867826625983858 },
 {0.000000000000000, -0.315547180510580, 0.000000000000000, -0.585455889094655, -0.190547180510580, 0.381094361021160, 0.000000000000000, 0.000000000000000, 0.190547180510580, 0.157097430626395, 3.446914847794547, 0.710455889094656, -0.710455889094656, 1.420911778189311, -0.329361528073496, 1.230364597678731, 0.605091291415924, -0.538191791647555, -0.605091291415924, -4.867826625983859 },
 {0.000000000000000, 0.585455889094656, 0.000000000000000, -0.585455889094655, 0.710455889094656, -1.420911778189311, 0.000000000000000, 0.000000000000000, -0.710455889094656, 1.420911778189311, -1.420911778189311, 0.710455889094656, -0.710455889094656, 1.420911778189311, 0.033449749884185, -0.033449749884185, 5.472917917399783, -0.000000000000000, -5.472917917399783, -0.000000000000000 },
 {0.000000000000000, -0.315547180510580, 0.000000000000000, -0.585455889094656, 0.710455889094656, 3.446914847794547, 0.000000000000000, 0.000000000000000, -0.710455889094656, 1.420911778189312, 0.381094361021160, -0.190547180510580, 0.190547180510580, 0.157097430626395, -0.329361528073497, 1.230364597678733, 0.605091291415924, -4.867826625983859, -0.605091291415924, -0.538191791647555 },
 {0.000000000000000, -0.197856183019786, 0.000000000000000, 0.496069169726312, -0.072856183019786, 0.145712366039573, 0.000000000000000, 0.000000000000000, 0.072856183019786, -1.277500620666952, 0.084648673840851, -0.371069169726312, 0.371069169726312, -0.742138339452624, 0.516781535765885, -0.814994522472410, 1.568925352746098, 1.131788254627380, -1.568925352746098, 0.657489665611773 },
 {0.000000000000000, -0.496069169726312, 0.000000000000000, 0.496069169726312, -0.371069169726312, 0.742138339452624, 0.000000000000000, 0.000000000000000, 0.371069169726312, -0.742138339452624, 0.742138339452624, -0.371069169726312, 0.371069169726312, -0.742138339452624, 1.350356803686739, -1.350356803686739, 0.911435687134325, -0.000000000000000, -0.911435687134325, -0.000000000000000 },
 {0.000000000000000, -0.197856183019786, 0.000000000000000, 0.496069169726312, -0.371069169726312, 0.084648673840851, 0.000000000000000, 0.000000000000000, 0.371069169726312, -0.742138339452624, 0.145712366039573, -0.072856183019786, 0.072856183019786, -1.277500620666952, 0.516781535765885, -0.814994522472410, 1.568925352746098, 0.657489665611773, -1.568925352746098, 1.131788254627380 },
 {0.000000000000000, -0.496069169726312, 0.000000000000000, 0.197856183019787, -0.371069169726312, 0.742138339452624, 0.000000000000000, 0.000000000000000, 0.371069169726312, -0.084648673840851, 1.277500620666953, -0.072856183019786, 0.072856183019786, -0.145712366039573, 0.814994522472410, -0.516781535765885, 1.568925352746098, -0.657489665611773, -1.568925352746098, -1.131788254627380 },
 {0.000000000000000, -0.197856183019786, 0.000000000000000, 0.197856183019787, -0.072856183019786, 0.145712366039573, 0.000000000000000, 0.000000000000000, 0.072856183019786, -0.145712366039573, 0.145712366039573, -0.072856183019786, 0.072856183019786, -0.145712366039573, 0.455717843567163, -0.455717843567163, 2.700713607373479, -0.000000000000000, -2.700713607373479, -0.000000000000000 },
 {0.000000000000000, -0.496069169726312, 0.000000000000000, 0.197856183019786, -0.072856183019786, 1.277500620666953, 0.000000000000000, 0.000000000000000, 0.072856183019786, -0.145712366039572, 0.742138339452624, -0.371069169726312, 0.371069169726312, -0.084648673840850, 0.814994522472410, -0.516781535765884, 1.568925352746098, -1.131788254627381, -1.568925352746098, -0.657489665611773 },
 {0.000000000000000, -0.361105248515956, 0.000000000000000, 0.062858999514142, -0.096039507805726, 0.040365773828541, 0.000000000000000, 0.000000000000000, 0.096039507805726, -0.214477513256047, 0.408454209829626, -0.317550346228776, 0.317550346228776, -2.170260468072067, 1.221605566464057, -0.923359317462244, 0.143495819130218, 0.174111739427505, -0.143495819130218, 1.761806258242441 },
 {0.000000000000000, 0.800830446892597, 0.000000000000000, 0.062858999514142, -0.317550346228776, -0.900059083156961, 0.000000000000000, 0.000000000000000, 0.317550346228776, -2.170260468072067, -0.900059083156961, -0.317550346228776, 0.317550346228776, -2.170260468072067, -1.896113083760515, 1.032423637353776, 1.452009112116805, 3.070319551229027, -1.452009112116805, 3.070319551229027 },
 {0.000000000000000, -0.361105248515956, 0.000000000000000, 0.062858999514142, -0.317550346228776, 0.408454209829626, 0.000000000000000, 0.000000000000000, 0.317550346228776, -2.170260468072067, 0.040365773828541, -0.096039507805726, 0.096039507805726, -0.214477513256047, 1.221605566464057, -0.923359317462244, 0.143495819130218, 1.761806258242441, -0.143495819130218, 0.174111739427505 },
 {0.000000000000000, -0.361105248515956, 0.000000000000000, -0.800830446892597, 1.246901150609823, 0.904055220235281, 0.000000000000000, 0.000000000000000, -1.246901150609823, 1.992152591566243, 0.408454209829626, -0.317550346228776, 0.317550346228776, 0.900059083156961, 0.357916120057318, 0.804019575351235, 3.213815370359246, -2.896207811801523, -3.213815370359246, -1.308513292986587 },
 {0.000000000000000, -0.062858999514142, 0.000000000000000, -0.800830446892597, -0.317550346228776, 2.170260468072067, 0.000000000000000, 0.000000000000000, 0.317550346228776, 0.900059083156961, 2.170260468072067, -0.317550346228776, 0.317550346228776, 0.900059083156961, -1.032423637353777, 1.896113083760517, 1.452009112116805, -3.070319551229028, -1.452009112116805, -3.070319551229028 },
 {0.000000000000000, -0.361105248515956, 0.000000000000000, -0.800830446892597, -0.317550346228776, 0.408454209829626, 0.000000000000000, 0.000000000000000, 0.317550346228776, 0.900059083156961, 0.904055220235281, 1.246901150609823, -1.246901150609823, 1.992152591566243, 0.357916120057318, 0.804019575351235, 3.213815370359246, -1.308513292986587, -3.213815370359246, -2.896207811801523 },
 {0.000000000000000, 0.800830446892597, 0.000000000000000, 0.361105248515956, -0.317550346228776, -0.900059083156961, 0.000000000000000, 0.000000000000000, 0.317550346228776, -0.408454209829626, -1.992152591566241, 1.246901150609823, -1.246901150609823, -0.904055220235281, -0.804019575351234, -0.357916120057318, 3.213815370359246, 1.308513292986587, -3.213815370359246, 2.896207811801523 },
 {0.000000000000000, -0.062858999514142, 0.000000000000000, 0.361105248515955, -0.096039507805726, 0.214477513256047, 0.000000000000000, 0.000000000000000, 0.096039507805726, -0.040365773828541, 2.170260468072067, -0.317550346228776, 0.317550346228776, -0.408454209829625, 0.923359317462243, -1.221605566464056, 0.143495819130218, -0.174111739427505, -0.143495819130218, -1.761806258242441 },
 {0.000000000000000, -0.361105248515956, 0.000000000000000, 0.361105248515955, 1.246901150609823, 0.904055220235281, 0.000000000000000, 0.000000000000000, -1.246901150609823, -0.904055220235280, 0.040365773828541, -0.096039507805726, 0.096039507805726, -0.040365773828541, 0.726004556058402, -0.726004556058402, 0.317607558557724, -0.000000000000001, -0.317607558557724, -0.000000000000000 },
 {0.000000000000000, -0.062858999514142, 0.000000000000000, 0.361105248515955, -0.317550346228776, 2.170260468072067, 0.000000000000000, 0.000000000000000, 0.317550346228776, -0.408454209829625, 0.214477513256047, -0.096039507805726, 0.096039507805726, -0.040365773828541, 0.923359317462243, -1.221605566464056, 0.143495819130218, -1.761806258242441, -0.143495819130218, -0.174111739427505 },
 {0.000000000000000, -0.361105248515956, 0.000000000000000, 0.361105248515956, -0.096039507805726, 0.040365773828541, 0.000000000000000, 0.000000000000000, 0.096039507805726, -0.040365773828542, 0.904055220235281, 1.246901150609823, -1.246901150609823, -0.904055220235281, 0.726004556058403, -0.726004556058403, 0.317607558557724, -0.000000000000000, -0.317607558557724, -0.000000000000001 },
 {0.000000000000000, 0.800830446892597, 0.000000000000000, 0.361105248515955, 1.246901150609823, -1.992152591566241, 0.000000000000000, 0.000000000000000, -1.246901150609823, -0.904055220235280, -0.900059083156961, -0.317550346228776, 0.317550346228776, -0.408454209829625, -0.804019575351234, -0.357916120057318, 3.213815370359246, 2.896207811801521, -3.213815370359246, 1.308513292986586 },
 {0.000000000000000, 0.677732845596408, 0.000000000000000, 0.236959372176209, 3.913918563152031, -2.537699446289976, 0.000000000000000, 0.000000000000000, -3.913918563152031, -0.533972191409811, -0.131938654437497, -0.151401936280363, 0.151401936280363, -0.027761984400733, -0.521829999815295, -0.392862217957323, 0.748710978843947, 3.071671637699787, -0.748710978843947, 0.159700638838231 },
 {0.000000000000000, 1.627508138018108, 0.000000000000000, 0.236959372176209, -0.151401936280363, 0.577845760720719, 0.000000000000000, 0.000000000000000, 0.151401936280363, -0.027761984400733, 0.577845760720719, -0.151401936280363, 0.151401936280363, -0.027761984400733, -0.965395085227917, -0.899072424966400, 0.038926563685731, -0.550083776319985, -0.038926563685731, -0.550083776319985 },
 {0.000000000000000, 0.677732845596408, 0.000000000000000, 0.236959372176209, -0.151401936280363, -0.131938654437497, 0.000000000000000, 0.000000000000000, 0.151401936280363, -0.027761984400733, -2.537699446289976, 3.913918563152031, -3.913918563152031, -0.533972191409811, -0.521829999815295, -0.392862217957323, 0.748710978843947, 0.159700638838231, -0.748710978843947, 3.071671637699787 },
 {0.000000000000000, 0.677732845596408, 0.000000000000000, -1.627508138018108, -0.365100233556590, -0.673231936095658, 0.000000000000000, 0.000000000000000, 0.365100233556590, -2.948523477924114, -0.131938654437497, -0.151401936280363, 0.151401936280363, -0.577845760720719, -2.386297510009612, 3.336072802431313, 0.198627202523962, 3.621755414019772, -0.198627202523962, 0.709784415158216 },
 {0.000000000000000, -0.236959372176209, 0.000000000000000, -1.627508138018108, -0.151401936280363, 0.027761984400733, 0.000000000000000, 0.000000000000000, 0.151401936280363, -0.577845760720719, 0.027761984400733, -0.151401936280363, 0.151401936280363, -0.577845760720719, 0.899072424966400, 0.965395085227917, 0.038926563685731, 0.550083776319985, -0.038926563685731, 0.550083776319985 },
 {0.000000000000000, 0.677732845596408, 0.000000000000000, -1.627508138018108, -0.151401936280363, -0.131938654437497, 0.000000000000000, 0.000000000000000, 0.151401936280363, -0.577845760720719, -0.673231936095658, -0.365100233556590, 0.365100233556590, -2.948523477924114, -2.386297510009612, 3.336072802431313, 0.198627202523962, 0.709784415158216, -0.198627202523962, 3.621755414019772 },
 {0.000000000000000, 1.627508138018108, 0.000000000000000, -0.677732845596408, -0.151401936280363, 0.577845760720719, 0.000000000000000, 0.000000000000000, 0.151401936280363, 0.131938654437497, 2.948523477924114, -0.365100233556590, 0.365100233556590, 0.673231936095658, -3.336072802431312, 2.386297510009612, 0.198627202523962, -0.709784415158216, -0.198627202523962, -3.621755414019772 },
 {0.000000000000000, -0.236959372176209, 0.000000000000000, -0.677732845596408, 3.913918563152031, 0.533972191409811, 0.000000000000000, 0.000000000000000, -3.913918563152031, 2.537699446289975, 0.027761984400733, -0.151401936280363, 0.151401936280363, 0.131938654437497, 0.392862217957323, 0.521829999815295, 0.748710978843947, -3.071671637699786, -0.748710978843947, -0.159700638838231 },
 {0.000000000000000, 0.677732845596408, 0.000000000000000, -0.677732845596408, -0.365100233556590, -0.673231936095658, 0.000000000000000, 0.000000000000000, 0.365100233556590, 0.673231936095658, -2.537699446289976, 3.913918563152031, -3.913918563152031, 2.537699446289975, 0.019463281842866, -0.019463281842866, 3.820382616543734, -0.000000000000000, -3.820382616543734, -0.000000000000000 },
 {0.000000000000000, -0.236959372176209, 0.000000000000000, -0.677732845596408, -0.151401936280363, 0.027761984400733, 0.000000000000000, 0.000000000000000, 0.151401936280363, 0.131938654437497, 0.533972191409811, 3.913918563152031, -3.913918563152031, 2.537699446289975, 0.392862217957323, 0.521829999815295, 0.748710978843947, -0.159700638838231, -0.748710978843947, -3.071671637699786 },
 {0.000000000000000, 0.677732845596408, 0.000000000000000, -0.677732845596408, 3.913918563152031, -2.537699446289976, 0.000000000000000, 0.000000000000000, -3.913918563152031, 2.537699446289975, -0.673231936095658, -0.365100233556590, 0.365100233556590, 0.673231936095658, 0.019463281842866, -0.019463281842866, 3.820382616543734, -0.000000000000000, -3.820382616543734, -0.000000000000000 },
 {0.000000000000000, 1.627508138018108, 0.000000000000000, -0.677732845596408, -0.365100233556590, 2.948523477924114, 0.000000000000000, 0.000000000000000, 0.365100233556590, 0.673231936095658, 0.577845760720719, -0.151401936280363, 0.151401936280363, 0.131938654437497, -3.336072802431312, 2.386297510009612, 0.198627202523962, -3.621755414019772, -0.198627202523962, -0.709784415158216 },
};

double FEMCubicElement3D::dphiJdl3[NUMRULE][NUMGLEU] = 
{
 {0.000000000000000, 0.000000000000000, -0.406250000000000, 0.406250000000000, 0.000000000000000, 0.000000000000000, -0.281250000000000, 0.562500000000000, 0.281250000000000, -0.562500000000000, -0.281250000000000, 0.562500000000000, 0.843750000000000, -0.843750000000000, 0.281250000000000, -0.562500000000000, 1.687500000000000, -1.687500000000000, 0.000000000000000, 0.000000000000000 },
 {0.000000000000000, 0.000000000000000, 0.072120906434126, -0.072120906434126, 0.000000000000000, 0.000000000000000, 2.369945801556764, -0.653583082254385, -2.369945801556764, 0.653583082254385, -0.354259879015998, -0.134900543482121, 0.219359335533877, -0.219359335533877, 0.354259879015998, 0.134900543482121, 2.125559274095989, -2.125559274095989, 0.000000000000000, 0.000000000000000 },
 {0.000000000000000, 0.000000000000000, 0.072120906434126, -0.590803445206391, 0.000000000000000, 0.000000000000000, -0.354259879015998, -0.134900543482121, 0.354259879015998, -1.551940059546113, -0.354259879015998, -0.134900543482121, -0.299323203238387, 0.818005742010651, 0.354259879015998, -1.551940059546113, 0.438718671067755, -0.438718671067755, 1.686840603028234, 1.686840603028234 },
 {0.000000000000000, 0.000000000000000, 0.590803445206391, -0.072120906434126, 0.000000000000000, 0.000000000000000, -0.354259879015998, 1.551940059546113, 0.354259879015998, 0.134900543482121, -0.354259879015998, 1.551940059546113, -0.818005742010651, 0.299323203238387, 0.354259879015998, 0.134900543482121, 0.438718671067755, -0.438718671067755, -1.686840603028234, -1.686840603028234 },
 {0.000000000000000, 0.000000000000000, 0.072120906434126, -0.072120906434126, 0.000000000000000, 0.000000000000000, -0.354259879015998, -0.134900543482121, 0.354259879015998, 0.134900543482121, 2.369945801556764, -0.653583082254385, 0.219359335533877, -0.219359335533877, -2.369945801556764, 0.653583082254385, 2.125559274095989, -2.125559274095989, 0.000000000000000, 0.000000000000000 },
 {0.000000000000000, 0.000000000000000, 0.725182719817659, -0.725182719817659, 0.000000000000000, 0.000000000000000, 6.959708688659471, -3.284160529206493, -6.959708688659471, 3.284160529206491, -0.130462543415495, -0.116570350064145, 0.013892193351350, -0.013892193351350, 0.130462543415495, 0.116570350064145, 0.782775260492971, -0.782775260492971, 0.000000000000002, 0.000000000000000 },
 {0.000000000000000, 0.000000000000000, 0.725182719817659, -3.892772898960007, 0.000000000000000, 0.000000000000000, -0.130462543415495, -0.116570350064145, 0.130462543415495, -0.638420523726126, -0.130462543415495, -0.116570350064145, -3.153697985790997, 6.321288164933345, 0.130462543415495, -0.638420523726126, 0.027784386702700, -0.027784386702700, 0.754990873790271, 0.754990873790271 },
 {0.000000000000000, 0.000000000000000, 3.892772898960007, -0.725182719817660, 0.000000000000000, 0.000000000000000, -0.130462543415495, 0.638420523726126, 0.130462543415495, 0.116570350064145, -0.130462543415495, 0.638420523726126, -6.321288164933346, 3.153697985790998, 0.130462543415495, 0.116570350064145, 0.027784386702700, -0.027784386702700, -0.754990873790271, -0.754990873790271 },
 {0.000000000000000, 0.000000000000000, 0.725182719817659, -0.725182719817659, 0.000000000000000, 0.000000000000000, -0.130462543415495, -0.116570350064145, 0.130462543415495, 0.116570350064145, 6.959708688659471, -3.284160529206493, 0.013892193351350, -0.013892193351350, -6.959708688659471, 3.284160529206491, 0.782775260492971, -0.782775260492971, -0.000000000000000, -0.000000000000009 },
 {0.000000000000000, 0.000000000000000, 0.585455889094656, 0.315547180510580, 0.000000000000000, 0.000000000000000, 0.710455889094656, -1.420911778189311, -0.710455889094656, -3.446914847794547, -0.190547180510580, -0.157097430626395, -1.230364597678731, 0.329361528073496, 0.190547180510580, -0.381094361021160, 0.605091291415924, -0.605091291415924, 4.867826625983858, 0.538191791647555 },
 {0.000000000000000, 0.000000000000000, 0.585455889094656, 0.315547180510580, 0.000000000000000, 0.000000000000000, -0.190547180510580, -0.157097430626395, 0.190547180510580, -0.381094361021160, 0.710455889094656, -1.420911778189311, -1.230364597678731, 0.329361528073496, -0.710455889094656, -3.446914847794547, 0.605091291415924, -0.605091291415924, 0.538191791647555, 4.867826625983858 },
 {0.000000000000000, 0.000000000000000, -0.315547180510580, 0.315547180510580, 0.000000000000000, 0.000000000000000, -0.190547180510580, 0.381094361021160, 0.190547180510580, -0.381094361021160, -0.190547180510580, 0.381094361021160, 2.736458958699891, -2.736458958699891, 0.190547180510580, -0.381094361021160, 0.066899499768369, -0.066899499768369, -0.000000000000000, -0.000000000000000 },
 {0.000000000000000, 0.000000000000000, -0.315547180510580, -0.585455889094655, 0.000000000000000, 0.000000000000000, -0.190547180510580, 0.381094361021160, 0.190547180510580, 0.157097430626395, 0.710455889094656, 3.446914847794547, -0.329361528073496, 1.230364597678731, -0.710455889094656, 1.420911778189311, 0.605091291415924, -0.605091291415924, -0.538191791647555, -4.867826625983859 },
 {0.000000000000000, 0.000000000000000, -0.315547180510580, -0.585455889094655, 0.000000000000000, 0.000000000000000, 0.710455889094656, 3.446914847794547, -0.710455889094656, 1.420911778189311, -0.190547180510580, 0.381094361021160, -0.329361528073496, 1.230364597678731, 0.190547180510580, 0.157097430626395, 0.605091291415924, -0.605091291415924, -4.867826625983859, -0.538191791647555 },
 {0.000000000000000, 0.000000000000000, 0.585455889094656, -0.585455889094656, 0.000000000000000, 0.000000000000000, 0.710455889094656, -1.420911778189311, -0.710455889094656, 1.420911778189312, 0.710455889094656, -1.420911778189311, 0.033449749884185, -0.033449749884184, -0.710455889094656, 1.420911778189312, 5.472917917399783, -5.472917917399783, -0.000000000000001, -0.000000000000001 },
 {0.000000000000000, 0.000000000000000, -0.197856183019786, 0.496069169726312, 0.000000000000000, 0.000000000000000, -0.072856183019786, 0.145712366039573, 0.072856183019786, -1.277500620666952, -0.371069169726312, 0.084648673840851, 0.516781535765885, -0.814994522472410, 0.371069169726312, -0.742138339452624, 1.568925352746098, -1.568925352746098, 1.131788254627380, 0.657489665611773 },
 {0.000000000000000, 0.000000000000000, -0.197856183019786, 0.496069169726312, 0.000000000000000, 0.000000000000000, -0.371069169726312, 0.084648673840851, 0.371069169726312, -0.742138339452624, -0.072856183019786, 0.145712366039573, 0.516781535765885, -0.814994522472410, 0.072856183019786, -1.277500620666952, 1.568925352746098, -1.568925352746098, 0.657489665611773, 1.131788254627380 },
 {0.000000000000000, 0.000000000000000, -0.496069169726312, 0.496069169726312, 0.000000000000000, 0.000000000000000, -0.371069169726312, 0.742138339452624, 0.371069169726312, -0.742138339452624, -0.371069169726312, 0.742138339452624, 1.350356803686739, -1.350356803686739, 0.371069169726312, -0.742138339452624, 0.911435687134325, -0.911435687134325, -0.000000000000000, -0.000000000000000 },
 {0.000000000000000, 0.000000000000000, -0.496069169726312, 0.197856183019787, 0.000000000000000, 0.000000000000000, -0.371069169726312, 0.742138339452624, 0.371069169726312, -0.084648673840851, -0.072856183019786, 1.277500620666953, 0.814994522472410, -0.516781535765885, 0.072856183019786, -0.145712366039573, 1.568925352746098, -1.568925352746098, -0.657489665611773, -1.131788254627380 },
 {0.000000000000000, 0.000000000000000, -0.496069169726312, 0.197856183019787, 0.000000000000000, 0.000000000000000, -0.072856183019786, 1.277500620666953, 0.072856183019786, -0.145712366039573, -0.371069169726312, 0.742138339452624, 0.814994522472410, -0.516781535765885, 0.371069169726312, -0.084648673840851, 1.568925352746098, -1.568925352746098, -1.131788254627380, -0.657489665611773 },
 {0.000000000000000, 0.000000000000000, -0.197856183019786, 0.197856183019786, 0.000000000000000, 0.000000000000000, -0.072856183019786, 0.145712366039573, 0.072856183019786, -0.145712366039572, -0.072856183019786, 0.145712366039573, 0.455717843567163, -0.455717843567162, 0.072856183019786, -0.145712366039572, 2.700713607373479, -2.700713607373479, -0.000000000000001, -0.000000000000001 },
 {0.000000000000000, 0.000000000000000, -0.361105248515956, 0.062858999514142, 0.000000000000000, 0.000000000000000, -0.096039507805726, 0.040365773828541, 0.096039507805726, -0.214477513256047, -0.317550346228776, 0.408454209829626, 1.221605566464057, -0.923359317462244, 0.317550346228776, -2.170260468072067, 0.143495819130218, -0.143495819130218, 0.174111739427505, 1.761806258242441 },
 {0.000000000000000, 0.000000000000000, -0.361105248515956, 0.062858999514142, 0.000000000000000, 0.000000000000000, -0.317550346228776, 0.408454209829626, 0.317550346228776, -2.170260468072067, -0.096039507805726, 0.040365773828541, 1.221605566464057, -0.923359317462244, 0.096039507805726, -0.214477513256047, 0.143495819130218, -0.143495819130218, 1.761806258242441, 0.174111739427505 },
 {0.000000000000000, 0.000000000000000, 0.800830446892597, 0.062858999514142, 0.000000000000000, 0.000000000000000, -0.317550346228776, -0.900059083156961, 0.317550346228776, -2.170260468072067, -0.317550346228776, -0.900059083156961, -1.896113083760515, 1.032423637353776, 0.317550346228776, -2.170260468072067, 1.452009112116805, -1.452009112116805, 3.070319551229027, 3.070319551229027 },
 {0.000000000000000, 0.000000000000000, -0.361105248515956, -0.800830446892597, 0.000000000000000, 0.000000000000000, 1.246901150609823, 0.904055220235281, -1.246901150609823, 1.992152591566243, -0.317550346228776, 0.408454209829626, 0.357916120057318, 0.804019575351235, 0.317550346228776, 0.900059083156961, 3.213815370359246, -3.213815370359246, -2.896207811801523, -1.308513292986587 },
 {0.000000000000000, 0.000000000000000, -0.361105248515956, -0.800830446892597, 0.000000000000000, 0.000000000000000, -0.317550346228776, 0.408454209829626, 0.317550346228776, 0.900059083156961, 1.246901150609823, 0.904055220235281, 0.357916120057318, 0.804019575351235, -1.246901150609823, 1.992152591566243, 3.213815370359246, -3.213815370359246, -1.308513292986587, -2.896207811801523 },
 {0.000000000000000, 0.000000000000000, -0.062858999514142, -0.800830446892597, 0.000000000000000, 0.000000000000000, -0.317550346228776, 2.170260468072067, 0.317550346228776, 0.900059083156961, -0.317550346228776, 2.170260468072067, -1.032423637353777, 1.896113083760517, 0.317550346228776, 0.900059083156961, 1.452009112116805, -1.452009112116805, -3.070319551229028, -3.070319551229028 },
 {0.000000000000000, 0.000000000000000, -0.062858999514142, 0.361105248515956, 0.000000000000000, 0.000000000000000, -0.317550346228776, 2.170260468072067, 0.317550346228776, -0.408454209829626, -0.096039507805726, 0.214477513256047, 0.923359317462244, -1.221605566464058, 0.096039507805726, -0.040365773828542, 0.143495819130218, -0.143495819130218, -1.761806258242441, -0.174111739427505 },
 {0.000000000000000, 0.000000000000000, -0.361105248515956, 0.361105248515955, 0.000000000000000, 0.000000000000000, -0.096039507805726, 0.040365773828541, 0.096039507805726, -0.040365773828541, 1.246901150609823, 0.904055220235281, 0.726004556058402, -0.726004556058402, -1.246901150609823, -0.904055220235280, 0.317607558557724, -0.317607558557724, -0.000000000000000, -0.000000000000001 },
 {0.000000000000000, 0.000000000000000, 0.800830446892597, 0.361105248515955, 0.000000000000000, 0.000000000000000, 1.246901150609823, -1.992152591566241, -1.246901150609823, -0.904055220235280, -0.317550346228776, -0.900059083156961, -0.804019575351234, -0.357916120057318, 0.317550346228776, -0.408454209829625, 3.213815370359246, -3.213815370359246, 2.896207811801521, 1.308513292986586 },
 {0.000000000000000, 0.000000000000000, 0.800830446892597, 0.361105248515955, 0.000000000000000, 0.000000000000000, -0.317550346228776, -0.900059083156961, 0.317550346228776, -0.408454209829625, 1.246901150609823, -1.992152591566241, -0.804019575351234, -0.357916120057318, -1.246901150609823, -0.904055220235280, 3.213815370359246, -3.213815370359246, 1.308513292986586, 2.896207811801521 },
 {0.000000000000000, 0.000000000000000, -0.062858999514142, 0.361105248515956, 0.000000000000000, 0.000000000000000, -0.096039507805726, 0.214477513256047, 0.096039507805726, -0.040365773828542, -0.317550346228776, 2.170260468072067, 0.923359317462244, -1.221605566464058, 0.317550346228776, -0.408454209829626, 0.143495819130218, -0.143495819130218, -0.174111739427505, -1.761806258242441 },
 {0.000000000000000, 0.000000000000000, -0.361105248515956, 0.361105248515955, 0.000000000000000, 0.000000000000000, 1.246901150609823, 0.904055220235281, -1.246901150609823, -0.904055220235280, -0.096039507805726, 0.040365773828541, 0.726004556058402, -0.726004556058402, 0.096039507805726, -0.040365773828541, 0.317607558557724, -0.317607558557724, -0.000000000000001, -0.000000000000000 },
 {0.000000000000000, 0.000000000000000, 0.677732845596408, 0.236959372176209, 0.000000000000000, 0.000000000000000, 3.913918563152031, -2.537699446289976, -3.913918563152031, -0.533972191409811, -0.151401936280363, -0.131938654437497, -0.521829999815295, -0.392862217957323, 0.151401936280363, -0.027761984400733, 0.748710978843947, -0.748710978843947, 3.071671637699787, 0.159700638838231 },
 {0.000000000000000, 0.000000000000000, 0.677732845596408, 0.236959372176209, 0.000000000000000, 0.000000000000000, -0.151401936280363, -0.131938654437497, 0.151401936280363, -0.027761984400733, 3.913918563152031, -2.537699446289976, -0.521829999815295, -0.392862217957323, -3.913918563152031, -0.533972191409811, 0.748710978843947, -0.748710978843947, 0.159700638838231, 3.071671637699787 },
 {0.000000000000000, 0.000000000000000, 1.627508138018108, 0.236959372176209, 0.000000000000000, 0.000000000000000, -0.151401936280363, 0.577845760720719, 0.151401936280363, -0.027761984400733, -0.151401936280363, 0.577845760720719, -0.965395085227917, -0.899072424966400, 0.151401936280363, -0.027761984400733, 0.038926563685731, -0.038926563685731, -0.550083776319985, -0.550083776319985 },
 {0.000000000000000, 0.000000000000000, 0.677732845596408, -1.627508138018108, 0.000000000000000, 0.000000000000000, -0.365100233556590, -0.673231936095658, 0.365100233556590, -2.948523477924114, -0.151401936280363, -0.131938654437497, -2.386297510009612, 3.336072802431313, 0.151401936280363, -0.577845760720719, 0.198627202523962, -0.198627202523962, 3.621755414019772, 0.709784415158216 },
 {0.000000000000000, 0.000000000000000, 0.677732845596408, -1.627508138018108, 0.000000000000000, 0.000000000000000, -0.151401936280363, -0.131938654437497, 0.151401936280363, -0.577845760720719, -0.365100233556590, -0.673231936095658, -2.386297510009612, 3.336072802431313, 0.365100233556590, -2.948523477924114, 0.198627202523962, -0.198627202523962, 0.709784415158216, 3.621755414019772 },
 {0.000000000000000, 0.000000000000000, -0.236959372176209, -1.627508138018108, 0.000000000000000, 0.000000000000000, -0.151401936280363, 0.027761984400733, 0.151401936280363, -0.577845760720719, -0.151401936280363, 0.027761984400733, 0.899072424966400, 0.965395085227917, 0.151401936280363, -0.577845760720719, 0.038926563685731, -0.038926563685731, 0.550083776319985, 0.550083776319985 },
 {0.000000000000000, 0.000000000000000, -0.236959372176209, -0.677732845596408, 0.000000000000000, 0.000000000000000, -0.151401936280363, 0.027761984400733, 0.151401936280363, 0.131938654437497, 3.913918563152031, 0.533972191409811, 0.392862217957323, 0.521829999815295, -3.913918563152031, 2.537699446289975, 0.748710978843947, -0.748710978843947, -0.159700638838231, -3.071671637699786 },
 {0.000000000000000, 0.000000000000000, 0.677732845596408, -0.677732845596408, 0.000000000000000, 0.000000000000000, 3.913918563152031, -2.537699446289976, -3.913918563152031, 2.537699446289975, -0.365100233556590, -0.673231936095658, 0.019463281842866, -0.019463281842866, 0.365100233556590, 0.673231936095658, 3.820382616543734, -3.820382616543734, -0.000000000000000, -0.000000000000000 },
 {0.000000000000000, 0.000000000000000, 1.627508138018108, -0.677732845596408, 0.000000000000000, 0.000000000000000, -0.365100233556590, 2.948523477924114, 0.365100233556590, 0.673231936095658, -0.151401936280363, 0.577845760720719, -3.336072802431312, 2.386297510009612, 0.151401936280363, 0.131938654437497, 0.198627202523962, -0.198627202523962, -3.621755414019772, -0.709784415158216 },
 {0.000000000000000, 0.000000000000000, 1.627508138018108, -0.677732845596408, 0.000000000000000, 0.000000000000000, -0.151401936280363, 0.577845760720719, 0.151401936280363, 0.131938654437497, -0.365100233556590, 2.948523477924114, -3.336072802431312, 2.386297510009612, 0.365100233556590, 0.673231936095658, 0.198627202523962, -0.198627202523962, -0.709784415158216, -3.621755414019772 },
 {0.000000000000000, 0.000000000000000, -0.236959372176209, -0.677732845596408, 0.000000000000000, 0.000000000000000, 3.913918563152031, 0.533972191409811, -3.913918563152031, 2.537699446289975, -0.151401936280363, 0.027761984400733, 0.392862217957323, 0.521829999815295, 0.151401936280363, 0.131938654437497, 0.748710978843947, -0.748710978843947, -3.071671637699786, -0.159700638838231 },
 {0.000000000000000, 0.000000000000000, 0.677732845596408, -0.677732845596408, 0.000000000000000, 0.000000000000000, -0.365100233556590, -0.673231936095658, 0.365100233556590, 0.673231936095658, 3.913918563152031, -2.537699446289976, 0.019463281842866, -0.019463281842866, -3.913918563152031, 2.537699446289975, 3.820382616543734, -3.820382616543734, -0.000000000000000, -0.000000000000000 },
};

double FEMCubicElement3D::dgqPointsdl1[NUMRULE][NUMGLEP] = 
{
 {1.000000000000000, 0.000000000000000, 0.000000000000000, -1.000000000000000 },
 {1.000000000000000, 0.000000000000000, 0.000000000000000, -1.000000000000000 },
 {1.000000000000000, 0.000000000000000, 0.000000000000000, -1.000000000000000 },
 {1.000000000000000, 0.000000000000000, 0.000000000000000, -1.000000000000000 },
 {1.000000000000000, 0.000000000000000, 0.000000000000000, -1.000000000000000 },
 {1.000000000000000, 0.000000000000000, 0.000000000000000, -1.000000000000000 },
 {1.000000000000000, 0.000000000000000, 0.000000000000000, -1.000000000000000 },
 {1.000000000000000, 0.000000000000000, 0.000000000000000, -1.000000000000000 },
 {1.000000000000000, 0.000000000000000, 0.000000000000000, -1.000000000000000 },
 {1.000000000000000, 0.000000000000000, 0.000000000000000, -1.000000000000000 },
 {1.000000000000000, 0.000000000000000, 0.000000000000000, -1.000000000000000 },
 {1.000000000000000, 0.000000000000000, 0.000000000000000, -1.000000000000000 },
 {1.000000000000000, 0.000000000000000, 0.000000000000000, -1.000000000000000 },
 {1.000000000000000, 0.000000000000000, 0.000000000000000, -1.000000000000000 },
 {1.000000000000000, 0.000000000000000, 0.000000000000000, -1.000000000000000 },
 {1.000000000000000, 0.000000000000000, 0.000000000000000, -1.000000000000000 },
 {1.000000000000000, 0.000000000000000, 0.000000000000000, -1.000000000000000 },
 {1.000000000000000, 0.000000000000000, 0.000000000000000, -1.000000000000000 },
 {1.000000000000000, 0.000000000000000, 0.000000000000000, -1.000000000000000 },
 {1.000000000000000, 0.000000000000000, 0.000000000000000, -1.000000000000000 },
 {1.000000000000000, 0.000000000000000, 0.000000000000000, -1.000000000000000 },
 {1.000000000000000, 0.000000000000000, 0.000000000000000, -1.000000000000000 },
 {1.000000000000000, 0.000000000000000, 0.000000000000000, -1.000000000000000 },
 {1.000000000000000, 0.000000000000000, 0.000000000000000, -1.000000000000000 },
 {1.000000000000000, 0.000000000000000, 0.000000000000000, -1.000000000000000 },
 {1.000000000000000, 0.000000000000000, 0.000000000000000, -1.000000000000000 },
 {1.000000000000000, 0.000000000000000, 0.000000000000000, -1.000000000000000 },
 {1.000000000000000, 0.000000000000000, 0.000000000000000, -1.000000000000000 },
 {1.000000000000000, 0.000000000000000, 0.000000000000000, -1.000000000000000 },
 {1.000000000000000, 0.000000000000000, 0.000000000000000, -1.000000000000000 },
 {1.000000000000000, 0.000000000000000, 0.000000000000000, -1.000000000000000 },
 {1.000000000000000, 0.000000000000000, 0.000000000000000, -1.000000000000000 },
 {1.000000000000000, 0.000000000000000, 0.000000000000000, -1.000000000000000 },
 {1.000000000000000, 0.000000000000000, 0.000000000000000, -1.000000000000000 },
 {1.000000000000000, 0.000000000000000, 0.000000000000000, -1.000000000000000 },
 {1.000000000000000, 0.000000000000000, 0.000000000000000, -1.000000000000000 },
 {1.000000000000000, 0.000000000000000, 0.000000000000000, -1.000000000000000 },
 {1.000000000000000, 0.000000000000000, 0.000000000000000, -1.000000000000000 },
 {1.000000000000000, 0.000000000000000, 0.000000000000000, -1.000000000000000 },
 {1.000000000000000, 0.000000000000000, 0.000000000000000, -1.000000000000000 },
 {1.000000000000000, 0.000000000000000, 0.000000000000000, -1.000000000000000 },
 {1.000000000000000, 0.000000000000000, 0.000000000000000, -1.000000000000000 },
 {1.000000000000000, 0.000000000000000, 0.000000000000000, -1.000000000000000 },
 {1.000000000000000, 0.000000000000000, 0.000000000000000, -1.000000000000000 },
 {1.000000000000000, 0.000000000000000, 0.000000000000000, -1.000000000000000 },
};

double FEMCubicElement3D::dgqPointsdl2[NUMRULE][NUMGLEP] = 
{
 {0.000000000000000, 1.000000000000000, 0.000000000000000, -1.000000000000000 },
 {0.000000000000000, 1.000000000000000, 0.000000000000000, -1.000000000000000 },
 {0.000000000000000, 1.000000000000000, 0.000000000000000, -1.000000000000000 },
 {0.000000000000000, 1.000000000000000, 0.000000000000000, -1.000000000000000 },
 {0.000000000000000, 1.000000000000000, 0.000000000000000, -1.000000000000000 },
 {0.000000000000000, 1.000000000000000, 0.000000000000000, -1.000000000000000 },
 {0.000000000000000, 1.000000000000000, 0.000000000000000, -1.000000000000000 },
 {0.000000000000000, 1.000000000000000, 0.000000000000000, -1.000000000000000 },
 {0.000000000000000, 1.000000000000000, 0.000000000000000, -1.000000000000000 },
 {0.000000000000000, 1.000000000000000, 0.000000000000000, -1.000000000000000 },
 {0.000000000000000, 1.000000000000000, 0.000000000000000, -1.000000000000000 },
 {0.000000000000000, 1.000000000000000, 0.000000000000000, -1.000000000000000 },
 {0.000000000000000, 1.000000000000000, 0.000000000000000, -1.000000000000000 },
 {0.000000000000000, 1.000000000000000, 0.000000000000000, -1.000000000000000 },
 {0.000000000000000, 1.000000000000000, 0.000000000000000, -1.000000000000000 },
 {0.000000000000000, 1.000000000000000, 0.000000000000000, -1.000000000000000 },
 {0.000000000000000, 1.000000000000000, 0.000000000000000, -1.000000000000000 },
 {0.000000000000000, 1.000000000000000, 0.000000000000000, -1.000000000000000 },
 {0.000000000000000, 1.000000000000000, 0.000000000000000, -1.000000000000000 },
 {0.000000000000000, 1.000000000000000, 0.000000000000000, -1.000000000000000 },
 {0.000000000000000, 1.000000000000000, 0.000000000000000, -1.000000000000000 },
 {0.000000000000000, 1.000000000000000, 0.000000000000000, -1.000000000000000 },
 {0.000000000000000, 1.000000000000000, 0.000000000000000, -1.000000000000000 },
 {0.000000000000000, 1.000000000000000, 0.000000000000000, -1.000000000000000 },
 {0.000000000000000, 1.000000000000000, 0.000000000000000, -1.000000000000000 },
 {0.000000000000000, 1.000000000000000, 0.000000000000000, -1.000000000000000 },
 {0.000000000000000, 1.000000000000000, 0.000000000000000, -1.000000000000000 },
 {0.000000000000000, 1.000000000000000, 0.000000000000000, -1.000000000000000 },
 {0.000000000000000, 1.000000000000000, 0.000000000000000, -1.000000000000000 },
 {0.000000000000000, 1.000000000000000, 0.000000000000000, -1.000000000000000 },
 {0.000000000000000, 1.000000000000000, 0.000000000000000, -1.000000000000000 },
 {0.000000000000000, 1.000000000000000, 0.000000000000000, -1.000000000000000 },
 {0.000000000000000, 1.000000000000000, 0.000000000000000, -1.000000000000000 },
 {0.000000000000000, 1.000000000000000, 0.000000000000000, -1.000000000000000 },
 {0.000000000000000, 1.000000000000000, 0.000000000000000, -1.000000000000000 },
 {0.000000000000000, 1.000000000000000, 0.000000000000000, -1.000000000000000 },
 {0.000000000000000, 1.000000000000000, 0.000000000000000, -1.000000000000000 },
 {0.000000000000000, 1.000000000000000, 0.000000000000000, -1.000000000000000 },
 {0.000000000000000, 1.000000000000000, 0.000000000000000, -1.000000000000000 },
 {0.000000000000000, 1.000000000000000, 0.000000000000000, -1.000000000000000 },
 {0.000000000000000, 1.000000000000000, 0.000000000000000, -1.000000000000000 },
 {0.000000000000000, 1.000000000000000, 0.000000000000000, -1.000000000000000 },
 {0.000000000000000, 1.000000000000000, 0.000000000000000, -1.000000000000000 },
 {0.000000000000000, 1.000000000000000, 0.000000000000000, -1.000000000000000 },
 {0.000000000000000, 1.000000000000000, 0.000000000000000, -1.000000000000000 },
};

double FEMCubicElement3D::dgqPointsdl3[NUMRULE][NUMGLEP] = 
{
 {0.000000000000000, 0.000000000000000, 1.000000000000000, -1.000000000000000 },
 {0.000000000000000, 0.000000000000000, 1.000000000000000, -1.000000000000000 },
 {0.000000000000000, 0.000000000000000, 1.000000000000000, -1.000000000000000 },
 {0.000000000000000, 0.000000000000000, 1.000000000000000, -1.000000000000000 },
 {0.000000000000000, 0.000000000000000, 1.000000000000000, -1.000000000000000 },
 {0.000000000000000, 0.000000000000000, 1.000000000000000, -1.000000000000000 },
 {0.000000000000000, 0.000000000000000, 1.000000000000000, -1.000000000000000 },
 {0.000000000000000, 0.000000000000000, 1.000000000000000, -1.000000000000000 },
 {0.000000000000000, 0.000000000000000, 1.000000000000000, -1.000000000000000 },
 {0.000000000000000, 0.000000000000000, 1.000000000000000, -1.000000000000000 },
 {0.000000000000000, 0.000000000000000, 1.000000000000000, -1.000000000000000 },
 {0.000000000000000, 0.000000000000000, 1.000000000000000, -1.000000000000000 },
 {0.000000000000000, 0.000000000000000, 1.000000000000000, -1.000000000000000 },
 {0.000000000000000, 0.000000000000000, 1.000000000000000, -1.000000000000000 },
 {0.000000000000000, 0.000000000000000, 1.000000000000000, -1.000000000000000 },
 {0.000000000000000, 0.000000000000000, 1.000000000000000, -1.000000000000000 },
 {0.000000000000000, 0.000000000000000, 1.000000000000000, -1.000000000000000 },
 {0.000000000000000, 0.000000000000000, 1.000000000000000, -1.000000000000000 },
 {0.000000000000000, 0.000000000000000, 1.000000000000000, -1.000000000000000 },
 {0.000000000000000, 0.000000000000000, 1.000000000000000, -1.000000000000000 },
 {0.000000000000000, 0.000000000000000, 1.000000000000000, -1.000000000000000 },
 {0.000000000000000, 0.000000000000000, 1.000000000000000, -1.000000000000000 },
 {0.000000000000000, 0.000000000000000, 1.000000000000000, -1.000000000000000 },
 {0.000000000000000, 0.000000000000000, 1.000000000000000, -1.000000000000000 },
 {0.000000000000000, 0.000000000000000, 1.000000000000000, -1.000000000000000 },
 {0.000000000000000, 0.000000000000000, 1.000000000000000, -1.000000000000000 },
 {0.000000000000000, 0.000000000000000, 1.000000000000000, -1.000000000000000 },
 {0.000000000000000, 0.000000000000000, 1.000000000000000, -1.000000000000000 },
 {0.000000000000000, 0.000000000000000, 1.000000000000000, -1.000000000000000 },
 {0.000000000000000, 0.000000000000000, 1.000000000000000, -1.000000000000000 },
 {0.000000000000000, 0.000000000000000, 1.000000000000000, -1.000000000000000 },
 {0.000000000000000, 0.000000000000000, 1.000000000000000, -1.000000000000000 },
 {0.000000000000000, 0.000000000000000, 1.000000000000000, -1.000000000000000 },
 {0.000000000000000, 0.000000000000000, 1.000000000000000, -1.000000000000000 },
 {0.000000000000000, 0.000000000000000, 1.000000000000000, -1.000000000000000 },
 {0.000000000000000, 0.000000000000000, 1.000000000000000, -1.000000000000000 },
 {0.000000000000000, 0.000000000000000, 1.000000000000000, -1.000000000000000 },
 {0.000000000000000, 0.000000000000000, 1.000000000000000, -1.000000000000000 },
 {0.000000000000000, 0.000000000000000, 1.000000000000000, -1.000000000000000 },
 {0.000000000000000, 0.000000000000000, 1.000000000000000, -1.000000000000000 },
 {0.000000000000000, 0.000000000000000, 1.000000000000000, -1.000000000000000 },
 {0.000000000000000, 0.000000000000000, 1.000000000000000, -1.000000000000000 },
 {0.000000000000000, 0.000000000000000, 1.000000000000000, -1.000000000000000 },
 {0.000000000000000, 0.000000000000000, 1.000000000000000, -1.000000000000000 },
 {0.000000000000000, 0.000000000000000, 1.000000000000000, -1.000000000000000 },
};

