double FEMQuadBubbleElement2D::gqPoints[NUMRULE][NUMGLE] = 
{
 {0.249286745171, 0.249286745171, 0.501426509658 },
 {0.249286745171, 0.501426509658, 0.249286745171 },
 {0.501426509658, 0.249286745171, 0.249286745171 },
 {0.063089014492, 0.063089014492, 0.873821971017 },
 {0.063089014492, 0.873821971017, 0.063089014491 },
 {0.873821971017, 0.063089014492, 0.063089014491 },
 {0.310352451034, 0.636502499121, 0.053145049845 },
 {0.636502499121, 0.053145049845, 0.310352451034 },
 {0.053145049845, 0.310352451034, 0.636502499121 },
 {0.636502499121, 0.310352451034, 0.053145049845 },
 {0.310352451034, 0.053145049845, 0.636502499121 },
 {0.053145049845, 0.636502499121, 0.310352451034 },
};

double FEMQuadBubbleElement2D::gqWeights[NUMRULE] = 
{
 0.116786275726,
 0.116786275726,
 0.116786275726,
 0.050844906370,
 0.050844906370,
 0.050844906370,
 0.082851075618,
 0.082851075618,
 0.082851075618,
 0.082851075618,
 0.082851075618,
 0.082851075618,
};

double FEMQuadBubbleElement2D::phiJ[NUMRULE][NUMGLEU] = 
{
 {-0.031517214018, -0.031517214018, 0.094912348035, -0.125351548799, 0.126068856070, 0.126068856070, 0.841335916658 },
 {-0.031517214018, 0.094912348035, -0.031517214018, 0.126068856070, 0.126068856070, -0.125351548799, 0.841335916658 },
 {0.094912348035, -0.031517214018, -0.031517214018, 0.126068856070, -0.125351548799, 0.126068856070, 0.841335916658 },
 {-0.044694546107, -0.044694546107, 0.663741723933, -0.025815188545, 0.178778184427, 0.178778184427, 0.093906187971 },
 {-0.044694546107, 0.663741723933, -0.044694546107, 0.178778184427, 0.178778184427, -0.025815188545, 0.093906187971 },
 {0.663741723933, -0.044694546107, -0.044694546107, 0.178778184427, -0.025815188545, 0.178778184427, 0.093906187971 },
 {-0.086220326221, 0.205263200741, -0.016001420112, 0.664181094417, 0.009328479820, -0.060004562430, 0.283453533785 },
 {0.205263200741, -0.016001420112, -0.086220326221, 0.009328479820, -0.060004562430, 0.664181094418, 0.283453533784 },
 {-0.016001420112, -0.086220326221, 0.205263200741, -0.060004562430, 0.664181094418, 0.009328479820, 0.283453533784 },
 {0.205263200741, -0.086220326221, -0.016001420112, 0.664181094417, -0.060004562430, 0.009328479820, 0.283453533785 },
 {-0.086220326221, -0.016001420112, 0.205263200741, -0.060004562430, 0.009328479820, 0.664181094418, 0.283453533784 },
 {-0.016001420112, 0.205263200741, -0.086220326221, 0.009328479820, 0.664181094418, -0.060004562430, 0.283453533784 },
};

double FEMQuadBubbleElement2D::dphiJdl1[NUMRULE][NUMGLEU] = 
{
 {0.185712284335, 0.188565303651, -0.817140734981, 0.242885766078, -1.751408195290, 0.254297843342, 1.697087732863 },
 {-0.002853019316, 0.000000000000, 0.002853019316, 2.005706038632, -2.005706038632, -0.000000000000, 0.000000000000 },
 {0.817140734981, -0.188565303651, -0.185712284335, 1.751408195290, -0.242885766078, -0.254297843342, -1.697087732863 },
 {-0.594198912305, 0.153445029729, -2.341842854339, -0.361424060950, -0.866136176882, 2.629151707186, 1.381005267560 },
 {-0.747643942034, -0.000000000000, 0.747643942034, 3.495287884068, -3.495287884068, 0.000000000000, -0.000000000000 },
 {2.341842854339, -0.153445029729, 0.594198912305, 0.866136176882, 0.361424060950, -2.629151707186, -1.381005267560 },
 {-0.249729656812, -0.491139460948, 0.296280339672, 4.510567840275, -0.581452152693, 0.935728239035, -4.420255148529 },
 {1.494010214797, -0.051999781687, -0.293409585824, 0.420579326129, -0.004581072630, -1.096601065598, -0.467998035186 },
 {-0.244280557985, 0.543139242636, -1.002870753849, -0.931147166406, -3.413966774678, 0.160872826563, 4.888253183721 },
 {1.002870753849, -0.543139242635, 0.244280557985, 3.413966774677, 0.931147166405, -0.160872826563, -4.888253183717 },
 {0.293409585823, 0.051999781687, -1.494010214797, 0.004581072629, -0.420579326129, 1.096601065599, 0.467998035187 },
 {-0.296280339672, 0.491139460948, 0.249729656812, 0.581452152690, -4.510567840278, -0.935728239036, 4.420255148536 },
};

double FEMQuadBubbleElement2D::dphiJdl2[NUMRULE][NUMGLEU] = 
{
 {0.188565303651, 0.185712284335, -0.817140734981, 0.242885766078, 0.254297843342, -1.751408195290, 1.697087732863 },
 {-0.188565303651, 0.817140734981, -0.185712284335, 1.751408195290, -0.254297843342, -0.242885766078, -1.697087732863 },
 {-0.000000000000, -0.002853019316, 0.002853019316, 2.005706038632, -0.000000000000, -2.005706038632, -0.000000000000 },
 {0.153445029729, -0.594198912305, -2.341842854339, -0.361424060950, 2.629151707186, -0.866136176882, 1.381005267560 },
 {-0.153445029729, 2.341842854339, 0.594198912305, 0.866136176882, -2.629151707186, 0.361424060950, -1.381005267560 },
 {-0.000000000000, -0.747643942034, 0.747643942034, 3.495287884068, -0.000000000000, -3.495287884068, -0.000000000000 },
 {-0.543139242635, 1.002870753849, 0.244280557985, 3.413966774677, -0.160872826563, 0.931147166405, -4.888253183717 },
 {0.491139460948, -0.296280339672, 0.249729656812, 0.581452152690, -0.935728239036, -4.510567840278, 4.420255148536 },
 {0.051999781687, 0.293409585823, -1.494010214797, 0.004581072629, 1.096601065599, -0.420579326129, 0.467998035187 },
 {-0.491139460948, -0.249729656812, 0.296280339672, 4.510567840275, 0.935728239035, -0.581452152693, -4.420255148529 },
 {0.543139242636, -0.244280557985, -1.002870753849, -0.931147166406, 0.160872826563, -3.413966774678, 4.888253183721 },
 {-0.051999781687, 1.494010214797, -0.293409585824, 0.420579326129, -1.096601065598, -0.004581072630, -0.467998035186 },
};

double FEMQuadBubbleElement2D::dgqPointsdl1[NUMRULE][NUMGLEP] = 
{
 {1.000000000000, 0.000000000000, -1.000000000000 },
 {1.000000000000, 0.000000000000, -1.000000000000 },
 {1.000000000000, 0.000000000000, -1.000000000000 },
 {1.000000000000, 0.000000000000, -1.000000000000 },
 {1.000000000000, 0.000000000000, -1.000000000000 },
 {1.000000000000, 0.000000000000, -1.000000000000 },
 {1.000000000000, 0.000000000000, -1.000000000000 },
 {1.000000000000, 0.000000000000, -1.000000000000 },
 {1.000000000000, 0.000000000000, -1.000000000000 },
 {1.000000000000, 0.000000000000, -1.000000000000 },
 {1.000000000000, 0.000000000000, -1.000000000000 },
 {1.000000000000, 0.000000000000, -1.000000000000 },
};

double FEMQuadBubbleElement2D::dgqPointsdl2[NUMRULE][NUMGLEP] = 
{
 {0.000000000000, 1.000000000000, -1.000000000000 },
 {0.000000000000, 1.000000000000, -1.000000000000 },
 {0.000000000000, 1.000000000000, -1.000000000000 },
 {0.000000000000, 1.000000000000, -1.000000000000 },
 {0.000000000000, 1.000000000000, -1.000000000000 },
 {0.000000000000, 1.000000000000, -1.000000000000 },
 {0.000000000000, 1.000000000000, -1.000000000000 },
 {0.000000000000, 1.000000000000, -1.000000000000 },
 {0.000000000000, 1.000000000000, -1.000000000000 },
 {0.000000000000, 1.000000000000, -1.000000000000 },
 {0.000000000000, 1.000000000000, -1.000000000000 },
 {0.000000000000, 1.000000000000, -1.000000000000 },
};

