double FEMQuadElement2D::gqPoints[NUMRULE][NUMGLE] = 
{
 {0.249286745171, 0.249286745171, 0.501426509658 },
 {0.249286745171, 0.501426509658, 0.249286745171 },
 {0.501426509658, 0.249286745171, 0.249286745171 },
 {0.063089014492, 0.063089014492, 0.873821971017 },
 {0.063089014492, 0.873821971017, 0.063089014491 },
 {0.873821971017, 0.063089014492, 0.063089014491 },
 {0.310352451034, 0.636502499121, 0.053145049845 },
 {0.636502499121, 0.053145049845, 0.310352451034 },
 {0.053145049845, 0.310352451034, 0.636502499121 },
 {0.636502499121, 0.310352451034, 0.053145049845 },
 {0.310352451034, 0.053145049845, 0.636502499121 },
 {0.053145049845, 0.636502499121, 0.310352451034 },
};

double FEMQuadElement2D::gqWeights[NUMRULE] = 
{
 0.116786275726,
 0.116786275726,
 0.116786275726,
 0.050844906370,
 0.050844906370,
 0.050844906370,
 0.082851075618,
 0.082851075618,
 0.082851075618,
 0.082851075618,
 0.082851075618,
 0.082851075618,
};

double FEMQuadElement2D::phiJ[NUMRULE][NUMGLEU] = 
{
 {-0.124998982535, -0.124998982535, 0.001430579518, 0.248575525272, 0.499995930140, 0.499995930140 },
 {-0.124998982535, 0.001430579518, -0.124998982535, 0.499995930140, 0.499995930140, 0.248575525272 },
 {0.001430579518, -0.124998982535, -0.124998982535, 0.499995930140, 0.248575525272, 0.499995930140 },
 {-0.055128566992, -0.055128566992, 0.653307703047, 0.015920894998, 0.220514267970, 0.220514267970 },
 {-0.055128566992, 0.653307703047, -0.055128566992, 0.220514267970, 0.220514267970, 0.015920894998 },
 {0.653307703047, -0.055128566992, -0.055128566992, 0.220514267970, 0.015920894998, 0.220514267970 },
 {-0.117715163308, 0.173768363654, -0.047496257199, 0.790160442766, 0.135307828169, 0.065974785919 },
 {0.173768363654, -0.047496257199, -0.117715163308, 0.135307828169, 0.065974785919, 0.790160442766 },
 {-0.047496257199, -0.117715163308, 0.173768363654, 0.065974785919, 0.790160442766, 0.135307828169 },
 {0.173768363654, -0.117715163308, -0.047496257199, 0.790160442766, 0.065974785919, 0.135307828169 },
 {-0.117715163308, -0.047496257199, 0.173768363654, 0.065974785919, 0.135307828169, 0.790160442766 },
 {-0.047496257199, 0.173768363654, -0.117715163308, 0.135307828169, 0.790160442766, 0.065974785919 },
};

double FEMQuadElement2D::dphiJdl1[NUMRULE][NUMGLEU] = 
{
 {-0.002853019316, 0.000000000000, -1.005706038632, 0.997146980684, -0.997146980684, 1.008559057948 },
 {-0.002853019316, 0.000000000000, 0.002853019316, 2.005706038632, -2.005706038632, 0.000000000000 },
 {1.005706038632, 0.000000000000, 0.002853019316, 0.997146980684, -0.997146980684, -1.008559057948 },
 {-0.747643942034, 0.000000000000, -2.495287884068, 0.252356057966, -0.252356057966, 3.242931826102 },
 {-0.747643942034, 0.000000000000, 0.747643942034, 3.495287884068, -3.495287884068, -0.000000000000 },
 {2.495287884068, 0.000000000000, 0.747643942034, 0.252356057966, -0.252356057966, -3.242931826102 },
 {0.241409804136, 0.000000000000, 0.787419800620, 2.546009996484, -2.546009996484, -1.028829604756 },
 {1.546009996484, 0.000000000000, -0.241409804137, 0.212580199379, -0.212580199379, -1.304600192347 },
 {-0.787419800621, 0.000000000000, -1.546009996485, 1.241409804136, -1.241409804136, 2.333429797106 },
 {1.546009996484, 0.000000000000, 0.787419800620, 1.241409804136, -1.241409804136, -2.333429797104 },
 {0.241409804136, 0.000000000000, -1.546009996485, 0.212580199379, -0.212580199379, 1.304600192349 },
 {-0.787419800621, 0.000000000000, -0.241409804137, 2.546009996484, -2.546009996484, 1.028829604758 },
};

double FEMQuadElement2D::dphiJdl2[NUMRULE][NUMGLEU] = 
{
 {0.000000000000, -0.002853019316, -1.005706038632, 0.997146980684, 1.008559057948, -0.997146980684 },
 {0.000000000000, 1.005706038632, 0.002853019316, 0.997146980684, -1.008559057948, -0.997146980684 },
 {0.000000000000, -0.002853019316, 0.002853019316, 2.005706038632, -0.000000000000, -2.005706038632 },
 {0.000000000000, -0.747643942034, -2.495287884068, 0.252356057966, 3.242931826102, -0.252356057966 },
 {0.000000000000, 2.495287884068, 0.747643942034, 0.252356057966, -3.242931826102, -0.252356057966 },
 {0.000000000000, -0.747643942034, 0.747643942034, 3.495287884068, -0.000000000000, -3.495287884068 },
 {0.000000000000, 1.546009996484, 0.787419800620, 1.241409804136, -2.333429797104, -1.241409804136 },
 {0.000000000000, -0.787419800621, -0.241409804137, 2.546009996484, 1.028829604758, -2.546009996484 },
 {0.000000000000, 0.241409804136, -1.546009996485, 0.212580199379, 1.304600192349, -0.212580199379 },
 {0.000000000000, 0.241409804136, 0.787419800620, 2.546009996484, -1.028829604756, -2.546009996484 },
 {0.000000000000, -0.787419800621, -1.546009996485, 1.241409804136, 2.333429797106, -1.241409804136 },
 {0.000000000000, 1.546009996484, -0.241409804137, 0.212580199379, -1.304600192347, -0.212580199379 },
};

double FEMQuadElement2D::dgqPointsdl1[NUMRULE][NUMGLEP] = 
{
 {1.000000000000, 0.000000000000, -1.000000000000 },
 {1.000000000000, 0.000000000000, -1.000000000000 },
 {1.000000000000, 0.000000000000, -1.000000000000 },
 {1.000000000000, 0.000000000000, -1.000000000000 },
 {1.000000000000, 0.000000000000, -1.000000000000 },
 {1.000000000000, 0.000000000000, -1.000000000000 },
 {1.000000000000, 0.000000000000, -1.000000000000 },
 {1.000000000000, 0.000000000000, -1.000000000000 },
 {1.000000000000, 0.000000000000, -1.000000000000 },
 {1.000000000000, 0.000000000000, -1.000000000000 },
 {1.000000000000, 0.000000000000, -1.000000000000 },
 {1.000000000000, 0.000000000000, -1.000000000000 },
};

double FEMQuadElement2D::dgqPointsdl2[NUMRULE][NUMGLEP] = 
{
 {0.000000000000, 1.000000000000, -1.000000000000 },
 {0.000000000000, 1.000000000000, -1.000000000000 },
 {0.000000000000, 1.000000000000, -1.000000000000 },
 {0.000000000000, 1.000000000000, -1.000000000000 },
 {0.000000000000, 1.000000000000, -1.000000000000 },
 {0.000000000000, 1.000000000000, -1.000000000000 },
 {0.000000000000, 1.000000000000, -1.000000000000 },
 {0.000000000000, 1.000000000000, -1.000000000000 },
 {0.000000000000, 1.000000000000, -1.000000000000 },
 {0.000000000000, 1.000000000000, -1.000000000000 },
 {0.000000000000, 1.000000000000, -1.000000000000 },
 {0.000000000000, 1.000000000000, -1.000000000000 },
};

