double FEMMiniElement2D::gqPoints[NUMRULE][NUMGLE] = 
{
 {0.249286745171000, 0.249286745171000, 0.501426509658000 },
 {0.249286745171000, 0.501426509658000, 0.249286745171000 },
 {0.501426509658000, 0.249286745171000, 0.249286745171000 },
 {0.063089014491500, 0.063089014491500, 0.873821971017000 },
 {0.063089014491500, 0.873821971017000, 0.063089014491500 },
 {0.873821971017000, 0.063089014491500, 0.063089014491500 },
 {0.310352451034000, 0.636502499121000, 0.053145049845000 },
 {0.636502499121000, 0.053145049844800, 0.310352451034200 },
 {0.053145049844800, 0.310352451034000, 0.636502499121200 },
 {0.636502499121000, 0.310352451034000, 0.053145049845000 },
 {0.310352451034000, 0.053145049844800, 0.636502499121200 },
 {0.053145049844800, 0.636502499121000, 0.310352451034200 },
};

double FEMMiniElement2D::gqWeights[NUMRULE] = 
{
 0.116786275726000,
 0.116786275726000,
 0.116786275726000,
 0.050844906370200,
 0.050844906370200,
 0.050844906370200,
 0.082851075618400,
 0.082851075618400,
 0.082851075618400,
 0.082851075618400,
 0.082851075618400,
 0.082851075618400,
};

double FEMMiniElement2D::phiJ[NUMRULE][NUMGLEU] = 
{
 {-0.031158560381751, -0.031158560381751, 0.220981204105249, 0.841335916658253 },
 {-0.031158560381751, 0.220981204105249, -0.031158560381751, 0.841335916658253 },
 {0.220981204105249, -0.031158560381751, -0.031158560381751, 0.841335916658253 },
 {0.031786951834541, 0.031786951834541, 0.842519908360041, 0.093906187970878 },
 {0.031786951834541, 0.842519908360041, 0.031786951834541, 0.093906187970878 },
 {0.842519908360041, 0.031786951834541, 0.031786951834541, 0.093906187970878 },
 {0.215867939772236, 0.542017987859236, -0.041339461416764, 0.283453533785293 },
 {0.542017987859530, -0.041339461416670, 0.215867939772730, 0.283453533784409 },
 {-0.041339461416638, 0.215867939772562, 0.542017987859762, 0.283453533784315 },
 {0.542017987859236, 0.215867939772236, -0.041339461416764, 0.283453533785293 },
 {0.215867939772562, -0.041339461416638, 0.542017987859762, 0.283453533784315 },
 {-0.041339461416670, 0.542017987859530, 0.215867939772730, 0.283453533784409 },
};

double FEMMiniElement2D::dphiJdl1[NUMRULE][NUMGLEU] = 
{
 {0.434304089045680, -0.565695910954320, -1.565695910954320, 1.697087732862961 },
 {1.000000000000000, -0.000000000000000, -1.000000000000000, 0.000000000000000 },
 {1.565695910954320, 0.565695910954320, -0.434304089045680, -1.697087732862961 },
 {0.539664910813235, -0.460335089186765, -1.460335089186765, 1.381005267560296 },
 {1.000000000000000, -0.000000000000000, -1.000000000000000, -0.000000000000001 },
 {1.460335089186765, 0.460335089186765, -0.539664910813235, -1.381005267560296 },
 {2.473418382842945, 1.473418382842945, 0.473418382842945, -4.420255148528836 },
 {1.155999345062112, 0.155999345062112, -0.844000654937888, -0.467998035186336 },
 {-0.629417727906858, -1.629417727906858, -2.629417727906858, 4.888253183720574 },
 {2.629417727905740, 1.629417727905740, 0.629417727905740, -4.888253183717221 },
 {0.844000654937696, -0.155999345062303, -1.155999345062303, 0.467998035186910 },
 {-0.473418382845237, -1.473418382845237, -2.473418382845237, 4.420255148535712 },
};

double FEMMiniElement2D::dphiJdl2[NUMRULE][NUMGLEU] = 
{
 {-0.565695910954320, 0.434304089045680, -1.565695910954320, 1.697087732862961 },
 {0.565695910954320, 1.565695910954320, -0.434304089045680, -1.697087732862961 },
 {-0.000000000000000, 1.000000000000000, -1.000000000000000, -0.000000000000001 },
 {-0.460335089186765, 0.539664910813235, -1.460335089186765, 1.381005267560296 },
 {0.460335089186765, 1.460335089186765, -0.539664910813235, -1.381005267560296 },
 {0.000000000000000, 1.000000000000000, -1.000000000000000, -0.000000000000001 },
 {1.629417727905740, 2.629417727905740, 0.629417727905740, -4.888253183717221 },
 {-1.473418382845237, -0.473418382845237, -2.473418382845237, 4.420255148535712 },
 {-0.155999345062303, 0.844000654937696, -1.155999345062303, 0.467998035186910 },
 {1.473418382842945, 2.473418382842945, 0.473418382842945, -4.420255148528836 },
 {-1.629417727906858, -0.629417727906858, -2.629417727906858, 4.888253183720574 },
 {0.155999345062112, 1.155999345062112, -0.844000654937888, -0.467998035186336 },
};

double FEMMiniElement2D::dgqPointsdl1[NUMRULE][NUMGLEP] = 
{
 {1.000000000000000, 0.000000000000000, -1.000000000000000 },
 {1.000000000000000, 0.000000000000000, -1.000000000000000 },
 {1.000000000000000, 0.000000000000000, -1.000000000000000 },
 {1.000000000000000, 0.000000000000000, -1.000000000000000 },
 {1.000000000000000, 0.000000000000000, -1.000000000000000 },
 {1.000000000000000, 0.000000000000000, -1.000000000000000 },
 {1.000000000000000, 0.000000000000000, -1.000000000000000 },
 {1.000000000000000, 0.000000000000000, -1.000000000000000 },
 {1.000000000000000, 0.000000000000000, -1.000000000000000 },
 {1.000000000000000, 0.000000000000000, -1.000000000000000 },
 {1.000000000000000, 0.000000000000000, -1.000000000000000 },
 {1.000000000000000, 0.000000000000000, -1.000000000000000 },
};

double FEMMiniElement2D::dgqPointsdl2[NUMRULE][NUMGLEP] = 
{
 {0.000000000000000, 1.000000000000000, -1.000000000000000 },
 {0.000000000000000, 1.000000000000000, -1.000000000000000 },
 {0.000000000000000, 1.000000000000000, -1.000000000000000 },
 {0.000000000000000, 1.000000000000000, -1.000000000000000 },
 {0.000000000000000, 1.000000000000000, -1.000000000000000 },
 {0.000000000000000, 1.000000000000000, -1.000000000000000 },
 {0.000000000000000, 1.000000000000000, -1.000000000000000 },
 {0.000000000000000, 1.000000000000000, -1.000000000000000 },
 {0.000000000000000, 1.000000000000000, -1.000000000000000 },
 {0.000000000000000, 1.000000000000000, -1.000000000000000 },
 {0.000000000000000, 1.000000000000000, -1.000000000000000 },
 {0.000000000000000, 1.000000000000000, -1.000000000000000 },
};

