double FEMCubicElement2D::gqPoints[NUMRULE][NUMGLE] = 
{
 {0.249286745171, 0.249286745171, 0.501426509658 },
 {0.249286745171, 0.501426509658, 0.249286745171 },
 {0.501426509658, 0.249286745171, 0.249286745171 },
 {0.063089014492, 0.063089014492, 0.873821971017 },
 {0.063089014492, 0.873821971017, 0.063089014491 },
 {0.873821971017, 0.063089014492, 0.063089014491 },
 {0.310352451034, 0.636502499121, 0.053145049845 },
 {0.636502499121, 0.053145049845, 0.310352451034 },
 {0.053145049845, 0.310352451034, 0.636502499121 },
 {0.636502499121, 0.310352451034, 0.053145049845 },
 {0.310352451034, 0.053145049845, 0.636502499121 },
 {0.053145049845, 0.636502499121, 0.310352451034 },
};

double FEMCubicElement2D::gqWeights[NUMRULE] = 
{
 0.116786275726,
 0.116786275726,
 0.116786275726,
 0.050844906370,
 0.050844906370,
 0.050844906370,
 0.082851075618,
 0.082851075618,
 0.082851075618,
 0.082851075618,
 0.082851075618,
 0.082851075618,
};

double FEMCubicElement2D::phiJ[NUMRULE][NUMGLEU] = 
{
 {0.039351685817, 0.039351685817, -0.062673722052, -0.070510246199, -0.070510246199, -0.141827463079, 0.283654926158, 0.283654926158, -0.141827463079, 0.841335916658 },
 {0.039351685817, -0.062673722052, 0.039351685817, -0.141827463079, 0.283654926158, 0.283654926158, -0.141827463079, -0.070510246199, -0.070510246199, 0.841335916658 },
 {-0.062673722052, 0.039351685817, 0.039351685817, 0.283654926158, -0.141827463079, -0.070510246199, -0.070510246199, -0.141827463079, 0.283654926158, 0.841335916658 },
 {0.046307995391, 0.046307995391, 0.440268993399, -0.014521043556, -0.014521043556, -0.201125457481, 0.402250914961, 0.402250914961, -0.201125457481, 0.093906187971 },
 {0.046307995391, 0.440268993399, 0.046307995391, -0.201125457481, 0.402250914961, 0.402250914961, -0.201125457481, -0.014521043556, -0.014521043556, 0.093906187971 },
 {0.440268993399, 0.046307995391, 0.046307995391, 0.402250914961, -0.201125457481, -0.014521043556, -0.014521043556, -0.201125457481, 0.402250914961, 0.093906187971 },
 {0.011435826065, -0.026193226600, 0.041110728467, -0.061285221448, 0.808488952667, 0.138446419693, -0.127951879896, -0.062388096818, -0.005117035916, 0.283453533785 },
 {-0.026193226600, 0.041110728466, 0.011435826065, 0.138446419693, -0.127951879895, -0.062388096818, -0.005117035916, -0.061285221448, 0.808488952668, 0.283453533784 },
 {0.041110728466, 0.011435826065, -0.026193226600, -0.062388096818, -0.005117035916, -0.061285221448, 0.808488952668, 0.138446419693, -0.127951879895, 0.283453533784 },
 {-0.026193226600, 0.011435826065, 0.041110728467, 0.808488952667, -0.061285221448, -0.005117035916, -0.062388096818, -0.127951879896, 0.138446419693, 0.283453533785 },
 {0.011435826065, 0.041110728466, -0.026193226600, -0.005117035916, -0.062388096818, -0.127951879895, 0.138446419693, 0.808488952668, -0.061285221448, 0.283453533784 },
 {0.041110728466, -0.026193226600, 0.011435826065, -0.127951879895, 0.138446419693, 0.808488952668, -0.061285221448, -0.005117035916, -0.062388096818, 0.283453533784 },
};

double FEMCubicElement2D::dphiJdl1[NUMRULE][NUMGLEU] = 
{
 {-0.404638308747, 0.000000000000, 0.118553234987, 0.556094442315, -0.282847955477, 0.282847955477, -2.253182175178, -1.115316116704, 1.401401190464, 1.697087732863 },
 {-0.404638308747, 0.000000000000, 0.404638308747, 1.118553234987, 1.137866058474, -1.137866058474, -1.118553234987, -0.838942397792, 0.838942397792, 0.000000000000 },
 {-0.118553234987, 0.000000000000, 0.404638308747, 2.253182175178, -0.282847955477, 0.282847955477, -0.556094442315, -1.401401190464, 1.115316116704, -1.697087732863 },
 {0.485931890195, 0.000000000000, -3.443727560779, -0.176434523975, -0.230167544593, 0.230167544593, -1.204570743585, 5.171355686771, -2.213560016186, 1.381005267560 },
 {0.485931890195, 0.000000000000, -0.485931890195, -2.443727560779, 6.375926430356, -6.375926430356, 2.443727560779, -0.053733020618, 0.053733020618, -0.000000000000 },
 {3.443727560779, 0.000000000000, -0.485931890195, 1.204570743585, -0.230167544593, 0.230167544593, 0.176434523975, 2.213560016186, -5.171355686771, -1.381005267560 },
 {-0.492870367158, 0.000000000000, -0.559823901756, 2.469321742625, 2.605067077684, -2.605067077684, 1.950933405904, 0.750232850759, 0.302461418155, -4.420255148529 },
 {0.740805831639, 0.000000000000, 0.492870367158, 0.674175115836, -0.201023373941, 0.201023373941, -0.206177080649, -2.565606080133, 1.331929881335, -0.467998035186 },
 {0.559823901757, 0.000000000000, -0.740805831641, -0.951256224702, -0.096284337505, 0.096284337505, -3.936996959018, 1.930891961850, -1.749910031967, 4.888253183721 },
 {0.740805831639, 0.000000000000, -0.559823901756, 3.936996959017, -0.096284337505, 0.096284337505, 0.951256224701, 1.749910031962, -1.930891961845, -4.888253183717 },
 {-0.492870367158, 0.000000000000, -0.740805831641, 0.206177080649, -0.201023373941, 0.201023373941, -0.674175115836, -1.331929881332, 2.565606080131, 0.467998035187 },
 {0.559823901757, 0.000000000000, 0.492870367158, -1.950933405907, 2.605067077684, -2.605067077684, -2.469321742629, -0.302461418154, -0.750232850762, 4.420255148536 },
};

double FEMCubicElement2D::dphiJdl2[NUMRULE][NUMGLEU] = 
{
 {0.000000000000, -0.404638308747, 0.118553234987, -0.282847955477, 0.556094442315, 1.401401190464, -1.115316116704, -2.253182175178, 0.282847955477, 1.697087732863 },
 {0.000000000000, -0.118553234987, 0.404638308747, -0.282847955477, 2.253182175178, 1.115316116704, -1.401401190464, -0.556094442315, 0.282847955477, -1.697087732863 },
 {0.000000000000, -0.404638308747, 0.404638308747, 1.137866058474, 1.118553234987, 0.838942397792, -0.838942397792, -1.118553234987, -1.137866058474, -0.000000000000 },
 {0.000000000000, 0.485931890195, -3.443727560779, -0.230167544593, -0.176434523975, -2.213560016186, 5.171355686771, -1.204570743585, 0.230167544593, 1.381005267560 },
 {0.000000000000, 3.443727560779, -0.485931890195, -0.230167544593, 1.204570743585, -5.171355686771, 2.213560016186, 0.176434523975, 0.230167544593, -1.381005267560 },
 {0.000000000000, 0.485931890195, -0.485931890195, 6.375926430356, -2.443727560779, 0.053733020618, -0.053733020618, 2.443727560779, -6.375926430356, -0.000000000000 },
 {0.000000000000, 0.740805831639, -0.559823901756, -0.096284337505, 3.936996959017, -1.930891961845, 1.749910031962, 0.951256224701, 0.096284337505, -4.888253183717 },
 {0.000000000000, 0.559823901757, 0.492870367158, 2.605067077684, -1.950933405907, -0.750232850762, -0.302461418154, -2.469321742629, -2.605067077684, 4.420255148536 },
 {0.000000000000, -0.492870367158, -0.740805831641, -0.201023373941, 0.206177080649, 2.565606080131, -1.331929881332, -0.674175115836, 0.201023373941, 0.467998035187 },
 {0.000000000000, -0.492870367158, -0.559823901756, 2.605067077684, 2.469321742625, 0.302461418155, 0.750232850759, 1.950933405904, -2.605067077684, -4.420255148529 },
 {0.000000000000, 0.559823901757, -0.740805831641, -0.096284337505, -0.951256224702, -1.749910031967, 1.930891961850, -3.936996959018, 0.096284337505, 4.888253183721 },
 {0.000000000000, 0.740805831639, 0.492870367158, -0.201023373941, 0.674175115836, 1.331929881335, -2.565606080133, -0.206177080649, 0.201023373941, -0.467998035186 },
};

double FEMCubicElement2D::dgqPointsdl1[NUMRULE][NUMGLEP] = 
{
 {1.000000000000, 0.000000000000, -1.000000000000 },
 {1.000000000000, 0.000000000000, -1.000000000000 },
 {1.000000000000, 0.000000000000, -1.000000000000 },
 {1.000000000000, 0.000000000000, -1.000000000000 },
 {1.000000000000, 0.000000000000, -1.000000000000 },
 {1.000000000000, 0.000000000000, -1.000000000000 },
 {1.000000000000, 0.000000000000, -1.000000000000 },
 {1.000000000000, 0.000000000000, -1.000000000000 },
 {1.000000000000, 0.000000000000, -1.000000000000 },
 {1.000000000000, 0.000000000000, -1.000000000000 },
 {1.000000000000, 0.000000000000, -1.000000000000 },
 {1.000000000000, 0.000000000000, -1.000000000000 },
};

double FEMCubicElement2D::dgqPointsdl2[NUMRULE][NUMGLEP] = 
{
 {0.000000000000, 1.000000000000, -1.000000000000 },
 {0.000000000000, 1.000000000000, -1.000000000000 },
 {0.000000000000, 1.000000000000, -1.000000000000 },
 {0.000000000000, 1.000000000000, -1.000000000000 },
 {0.000000000000, 1.000000000000, -1.000000000000 },
 {0.000000000000, 1.000000000000, -1.000000000000 },
 {0.000000000000, 1.000000000000, -1.000000000000 },
 {0.000000000000, 1.000000000000, -1.000000000000 },
 {0.000000000000, 1.000000000000, -1.000000000000 },
 {0.000000000000, 1.000000000000, -1.000000000000 },
 {0.000000000000, 1.000000000000, -1.000000000000 },
 {0.000000000000, 1.000000000000, -1.000000000000 },
};

