double FEMQuadBubbleElement3D::gqPoints[NUMRULE][NUMGLE] = 
{
 {0.250000000000000, 0.250000000000000, 0.250000000000000, 0.250000000000000 },
 {0.617587190300083, 0.127470936566639, 0.127470936566639, 0.127470936566639 },
 {0.127470936566639, 0.127470936566639, 0.127470936566639, 0.617587190300083 },
 {0.127470936566639, 0.127470936566639, 0.617587190300083, 0.127470936566639 },
 {0.127470936566639, 0.617587190300083, 0.127470936566639, 0.127470936566639 },
 {0.903763508822103, 0.032078830392632, 0.032078830392632, 0.032078830392632 },
 {0.032078830392632, 0.032078830392632, 0.032078830392632, 0.903763508822103 },
 {0.032078830392632, 0.032078830392632, 0.903763508822103, 0.032078830392632 },
 {0.032078830392632, 0.903763508822103, 0.032078830392632, 0.032078830392632 },
 {0.450222904356719, 0.049777095643281, 0.049777095643281, 0.450222904356719 },
 {0.049777095643281, 0.450222904356719, 0.049777095643281, 0.450222904356719 },
 {0.049777095643281, 0.049777095643281, 0.450222904356719, 0.450222904356719 },
 {0.049777095643281, 0.450222904356719, 0.450222904356719, 0.049777095643281 },
 {0.450222904356719, 0.049777095643281, 0.450222904356719, 0.049777095643281 },
 {0.450222904356719, 0.450222904356719, 0.049777095643281, 0.049777095643281 },
 {0.316269552601450, 0.183730447398550, 0.183730447398550, 0.316269552601450 },
 {0.183730447398550, 0.316269552601450, 0.183730447398550, 0.316269552601450 },
 {0.183730447398550, 0.183730447398550, 0.316269552601450, 0.316269552601450 },
 {0.183730447398550, 0.316269552601450, 0.316269552601450, 0.183730447398550 },
 {0.316269552601450, 0.183730447398550, 0.316269552601450, 0.183730447398550 },
 {0.316269552601450, 0.316269552601450, 0.183730447398550, 0.183730447398550 },
 {0.022917787844817, 0.231901089397151, 0.231901089397151, 0.513280033360881 },
 {0.231901089397151, 0.022917787844817, 0.231901089397151, 0.513280033360881 },
 {0.231901089397151, 0.231901089397151, 0.022917787844817, 0.513280033360881 },
 {0.513280033360881, 0.231901089397151, 0.231901089397151, 0.022917787844817 },
 {0.231901089397151, 0.513280033360881, 0.231901089397151, 0.022917787844817 },
 {0.231901089397151, 0.231901089397151, 0.513280033360881, 0.022917787844817 },
 {0.231901089397151, 0.022917787844817, 0.513280033360881, 0.231901089397151 },
 {0.022917787844817, 0.513280033360881, 0.231901089397151, 0.231901089397151 },
 {0.513280033360881, 0.231901089397151, 0.022917787844817, 0.231901089397151 },
 {0.231901089397151, 0.513280033360881, 0.022917787844817, 0.231901089397151 },
 {0.022917787844817, 0.231901089397151, 0.513280033360881, 0.231901089397151 },
 {0.513280033360881, 0.022917787844817, 0.231901089397151, 0.231901089397151 },
 {0.730313427807538, 0.037970048471829, 0.037970048471829, 0.193746475248804 },
 {0.037970048471829, 0.730313427807538, 0.037970048471829, 0.193746475248804 },
 {0.037970048471829, 0.037970048471829, 0.730313427807538, 0.193746475248804 },
 {0.193746475248804, 0.037970048471829, 0.037970048471829, 0.730313427807538 },
 {0.037970048471829, 0.193746475248804, 0.037970048471829, 0.730313427807538 },
 {0.037970048471829, 0.037970048471829, 0.193746475248804, 0.730313427807538 },
 {0.037970048471829, 0.730313427807538, 0.193746475248804, 0.037970048471829 },
 {0.730313427807538, 0.193746475248804, 0.037970048471829, 0.037970048471829 },
 {0.193746475248804, 0.037970048471829, 0.730313427807538, 0.037970048471829 },
 {0.037970048471829, 0.193746475248804, 0.730313427807538, 0.037970048471829 },
 {0.730313427807538, 0.037970048471829, 0.193746475248804, 0.037970048471829 },
 {0.193746475248804, 0.730313427807538, 0.037970048471829, 0.037970048471829 },
};

double FEMQuadBubbleElement3D::gqWeights[NUMRULE] = 
{
 -0.235962039847756,
 0.024487896356056,
 0.024487896356056,
 0.024487896356056,
 0.024487896356056,
 0.003948520639826,
 0.003948520639826,
 0.003948520639826,
 0.003948520639826,
 0.026305552950737,
 0.026305552950737,
 0.026305552950737,
 0.026305552950737,
 0.026305552950737,
 0.026305552950737,
 0.082980383055059,
 0.082980383055059,
 0.082980383055059,
 0.082980383055059,
 0.082980383055059,
 0.082980383055059,
 0.025442624548102,
 0.025442624548102,
 0.025442624548102,
 0.025442624548102,
 0.025442624548102,
 0.025442624548102,
 0.025442624548102,
 0.025442624548102,
 0.025442624548102,
 0.025442624548102,
 0.025442624548102,
 0.025442624548102,
 0.013432438437685,
 0.013432438437685,
 0.013432438437685,
 0.013432438437685,
 0.013432438437685,
 0.013432438437685,
 0.013432438437685,
 0.013432438437685,
 0.013432438437685,
 0.013432438437685,
 0.013432438437685,
 0.013432438437685,
};

double FEMQuadBubbleElement3D::phiJ[NUMRULE][NUMGLEU] = 
{
 {0.000000000000000, 0.000000000000000, 0.000000000000000, 0.000000000000000, 0.000000000000000, 0.000000000000000, 0.000000000000000, 0.000000000000000, 0.000000000000000, 0.000000000000000, 1.000000000000000 },
 {0.186174458992371, -0.054039483181334, -0.054039483181334, -0.054039483181334, 0.233030122142538, -0.016872189417200, 0.233030122142538, 0.233030122142538, -0.016872189417200, -0.016872189417200, 0.327470192375619 },
 {-0.054039483181334, -0.054039483181334, -0.054039483181334, 0.186174458992371, -0.016872189417200, -0.016872189417200, -0.016872189417200, 0.233030122142538, 0.233030122142538, 0.233030122142538, 0.327470192375619 },
 {-0.054039483181334, -0.054039483181334, 0.186174458992371, -0.054039483181334, -0.016872189417200, 0.233030122142538, 0.233030122142538, -0.016872189417200, -0.016872189417200, 0.233030122142538, 0.327470192375619 },
 {-0.054039483181334, 0.186174458992371, -0.054039483181334, -0.054039483181334, 0.233030122142538, 0.233030122142538, -0.016872189417200, -0.016872189417200, 0.233030122142538, -0.016872189417200, 0.327470192375619 },
 {0.730768136500267, -0.029066042108423, -0.029066042108423, -0.029066042108423, 0.114057334127236, 0.002206834306455, 0.114057334127236, 0.114057334127236, 0.002206834306455, 0.002206834306455, 0.007637484523929 },
 {-0.029066042108423, -0.029066042108423, -0.029066042108423, 0.730768136500267, 0.002206834306455, 0.002206834306455, 0.002206834306455, 0.114057334127236, 0.114057334127236, 0.114057334127236, 0.007637484523929 },
 {-0.029066042108423, -0.029066042108423, 0.730768136500267, -0.029066042108423, 0.002206834306455, 0.114057334127236, 0.114057334127236, 0.002206834306455, 0.002206834306455, 0.114057334127236, 0.007637484523929 },
 {-0.029066042108423, 0.730768136500267, -0.029066042108423, -0.029066042108423, 0.114057334127236, 0.114057334127236, 0.002206834306455, 0.002206834306455, 0.114057334127236, 0.002206834306455, 0.007637484523929 },
 {-0.028749786922007, -0.028749786922007, -0.028749786922007, -0.028749786922007, 0.057499573844015, -0.022232543437104, 0.057499573844015, 0.778659073989772, 0.057499573844015, 0.057499573844015, 0.128574321759303 },
 {-0.028749786922007, -0.028749786922007, -0.028749786922007, -0.028749786922007, 0.057499573844015, 0.057499573844015, -0.022232543437104, 0.057499573844015, 0.778659073989772, 0.057499573844015, 0.128574321759303 },
 {-0.028749786922007, -0.028749786922007, -0.028749786922007, -0.028749786922007, -0.022232543437104, 0.057499573844015, 0.057499573844015, 0.057499573844015, 0.057499573844015, 0.778659073989772, 0.128574321759303 },
 {-0.028749786922007, -0.028749786922007, -0.028749786922007, -0.028749786922007, 0.057499573844015, 0.778659073989772, 0.057499573844015, -0.022232543437104, 0.057499573844015, 0.057499573844015, 0.128574321759303 },
 {-0.028749786922007, -0.028749786922007, -0.028749786922007, -0.028749786922007, 0.057499573844015, 0.057499573844015, 0.778659073989772, 0.057499573844015, -0.022232543437104, 0.057499573844015, 0.128574321759303 },
 {-0.028749786922007, -0.028749786922007, -0.028749786922007, -0.028749786922007, 0.778659073989772, 0.057499573844015, 0.057499573844015, 0.057499573844015, 0.057499573844015, -0.022232543437104, 0.128574321759303 },
 {-0.008166135320475, -0.008166135320475, -0.008166135320475, -0.008166135320475, 0.016332270640950, -0.081073605745979, 0.016332270640950, 0.184004604659821, 0.016332270640950, 0.016332270640950, 0.864404459804258 },
 {-0.008166135320475, -0.008166135320475, -0.008166135320475, -0.008166135320475, 0.016332270640950, 0.016332270640950, -0.081073605745979, 0.016332270640950, 0.184004604659821, 0.016332270640950, 0.864404459804258 },
 {-0.008166135320475, -0.008166135320475, -0.008166135320475, -0.008166135320475, -0.081073605745979, 0.016332270640950, 0.016332270640950, 0.016332270640950, 0.016332270640950, 0.184004604659821, 0.864404459804258 },
 {-0.008166135320475, -0.008166135320475, -0.008166135320475, -0.008166135320475, 0.016332270640950, 0.184004604659821, 0.016332270640950, -0.081073605745979, 0.016332270640950, 0.016332270640950, 0.864404459804258 },
 {-0.008166135320475, -0.008166135320475, -0.008166135320475, -0.008166135320475, 0.016332270640950, 0.016332270640950, 0.184004604659821, 0.016332270640950, -0.081073605745979, 0.016332270640950, 0.864404459804258 },
 {-0.008166135320475, -0.008166135320475, -0.008166135320475, -0.008166135320475, 0.184004604659821, 0.016332270640950, 0.016332270640950, 0.016332270640950, 0.016332270640950, -0.081073605745979, 0.864404459804258 },
 {-0.001623976787398, -0.104101497811962, -0.104101497811962, 0.033876112991032, -0.019228082244894, 0.174625738938304, -0.019228082244894, 0.006566249522144, 0.435634073492740, 0.435634073492740, 0.161946888464149 },
 {-0.104101497811962, -0.001623976787398, -0.104101497811962, 0.033876112991032, -0.019228082244894, -0.019228082244894, 0.174625738938304, 0.435634073492740, 0.006566249522144, 0.435634073492740, 0.161946888464149 },
 {-0.104101497811962, -0.104101497811962, -0.001623976787398, 0.033876112991032, 0.174625738938304, -0.019228082244894, -0.019228082244894, 0.435634073492740, 0.435634073492740, 0.006566249522144, 0.161946888464149 },
 {0.033876112991032, -0.104101497811962, -0.104101497811962, -0.001623976787398, 0.435634073492740, 0.174625738938304, 0.435634073492740, 0.006566249522144, -0.019228082244894, -0.019228082244894, 0.161946888464148 },
 {-0.104101497811962, 0.033876112991032, -0.104101497811962, -0.001623976787398, 0.435634073492740, 0.435634073492740, 0.174625738938304, -0.019228082244894, 0.006566249522144, -0.019228082244894, 0.161946888464148 },
 {-0.104101497811962, -0.104101497811962, 0.033876112991032, -0.001623976787398, 0.174625738938304, 0.435634073492740, 0.435634073492740, -0.019228082244894, -0.019228082244894, 0.006566249522144, 0.161946888464148 },
 {-0.104101497811962, -0.001623976787398, 0.033876112991032, -0.104101497811962, -0.019228082244894, 0.006566249522144, 0.435634073492740, 0.174625738938304, -0.019228082244894, 0.435634073492740, 0.161946888464149 },
 {-0.001623976787398, 0.033876112991032, -0.104101497811962, -0.104101497811962, 0.006566249522144, 0.435634073492740, -0.019228082244894, -0.019228082244894, 0.435634073492740, 0.174625738938304, 0.161946888464149 },
 {0.033876112991032, -0.104101497811962, -0.001623976787398, -0.104101497811962, 0.435634073492740, -0.019228082244894, 0.006566249522144, 0.435634073492740, 0.174625738938304, -0.019228082244894, 0.161946888464149 },
 {-0.104101497811962, 0.033876112991032, -0.001623976787398, -0.104101497811962, 0.435634073492740, 0.006566249522144, -0.019228082244894, 0.174625738938304, 0.435634073492740, -0.019228082244894, 0.161946888464149 },
 {-0.001623976787398, -0.104101497811962, 0.033876112991032, -0.104101497811962, -0.019228082244894, 0.435634073492740, 0.006566249522144, -0.019228082244894, 0.174625738938304, 0.435634073492740, 0.161946888464149 },
 {0.033876112991032, -0.001623976787398, -0.104101497811962, -0.104101497811962, 0.006566249522144, -0.019228082244894, 0.435634073492740, 0.435634073492740, -0.019228082244894, 0.174625738938304, 0.161946888464149 },
 {0.342929906192652, -0.028558670981725, -0.028558670981725, -0.112143153577936, 0.097864288357523, -0.007288958332583, 0.097864288357523, 0.552926753201936, 0.016370395569377, 0.016370395569377, 0.052223426625580 },
 {-0.028558670981725, 0.342929906192652, -0.028558670981725, -0.112143153577936, 0.097864288357523, 0.097864288357523, -0.007288958332583, 0.016370395569377, 0.552926753201936, 0.016370395569377, 0.052223426625580 },
 {-0.028558670981725, -0.028558670981725, 0.342929906192652, -0.112143153577936, -0.007288958332583, 0.097864288357523, 0.097864288357523, 0.016370395569377, 0.016370395569377, 0.552926753201936, 0.052223426625580 },
 {-0.112143153577936, -0.028558670981725, -0.028558670981725, 0.342929906192652, 0.016370395569377, -0.007288958332583, 0.016370395569377, 0.552926753201936, 0.097864288357523, 0.097864288357523, 0.052223426625580 },
 {-0.028558670981725, -0.112143153577936, -0.028558670981725, 0.342929906192652, 0.016370395569377, 0.016370395569377, -0.007288958332583, 0.097864288357523, 0.552926753201936, 0.097864288357523, 0.052223426625580 },
 {-0.028558670981725, -0.028558670981725, -0.112143153577936, 0.342929906192652, -0.007288958332583, 0.016370395569377, 0.016370395569377, 0.097864288357523, 0.097864288357523, 0.552926753201936, 0.052223426625580 },
 {-0.028558670981725, 0.342929906192652, -0.112143153577936, -0.028558670981725, 0.097864288357523, 0.552926753201936, 0.016370395569377, -0.007288958332583, 0.097864288357523, 0.016370395569377, 0.052223426625581 },
 {0.342929906192652, -0.112143153577936, -0.028558670981725, -0.028558670981725, 0.552926753201936, 0.016370395569377, 0.097864288357523, 0.097864288357523, 0.016370395569377, -0.007288958332583, 0.052223426625581 },
 {-0.112143153577936, -0.028558670981725, 0.342929906192652, -0.028558670981725, 0.016370395569377, 0.097864288357523, 0.552926753201936, 0.016370395569377, -0.007288958332583, 0.097864288357523, 0.052223426625581 },
 {-0.028558670981725, -0.112143153577936, 0.342929906192652, -0.028558670981725, 0.016370395569377, 0.552926753201936, 0.097864288357523, -0.007288958332583, 0.016370395569377, 0.097864288357523, 0.052223426625581 },
 {0.342929906192652, -0.028558670981725, -0.112143153577936, -0.028558670981725, 0.097864288357523, 0.016370395569377, 0.552926753201936, 0.097864288357523, -0.007288958332583, 0.016370395569377, 0.052223426625581 },
 {-0.112143153577936, 0.342929906192652, -0.028558670981725, -0.028558670981725, 0.552926753201936, 0.097864288357523, 0.016370395569377, 0.016370395569377, 0.097864288357523, -0.007288958332583, 0.052223426625581 },
};

double FEMQuadBubbleElement3D::dphiJdl1[NUMRULE][NUMGLEU] = 
{
 {0.000000000000000, 0.000000000000000, 0.000000000000000, 0.000000000000000, 1.000000000000000, 0.000000000000000, 1.000000000000000, 0.000000000000000, -1.000000000000000, -1.000000000000000, 0.000000000000000 },
 {1.215506507562829, -0.254842253637503, -0.254842253637503, 0.235274000095941, 1.019568253541562, 0.509684507275006, 1.019568253541562, -1.450780507658770, -0.000199238991550, -0.000199238991550, -2.038738029100023 },
 {-0.235274000095941, 0.254842253637503, 0.254842253637503, -1.215506507562829, 0.000199238991550, -0.509684507275006, 0.000199238991550, 1.450780507658770, -1.019568253541562, -1.019568253541562, 2.038738029100023 },
 {-0.490116253733444, 0.000000000000000, 0.000000000000000, 0.490116253733444, 0.509883746266556, 0.000000000000000, 2.470348761200332, 0.000000000000000, -0.509883746266556, -2.470348761200332, 0.000000000000000 },
 {-0.490116253733444, 0.000000000000000, 0.000000000000000, 0.490116253733444, 2.470348761200332, 0.000000000000000, 0.509883746266556, 0.000000000000000, -2.470348761200332, -0.509883746266556, 0.000000000000000 },
 {2.586349769583757, -0.028704265704656, -0.028704265704656, 0.842980412724815, 0.185723852979841, 0.057408531409312, 0.185723852979841, -3.429330182308571, -0.070906790161218, -0.070906790161218, -0.229634125637247 },
 {-0.842980412724815, 0.028704265704656, 0.028704265704656, -2.586349769583757, 0.070906790161218, -0.057408531409312, 0.070906790161218, 3.429330182308572, -0.185723852979841, -0.185723852979841, 0.229634125637247 },
 {-0.871684678429471, -0.000000000000000, -0.000000000000000, 0.871684678429471, 0.128315321570529, -0.000000000000000, 3.615054035288412, -0.000000000000000, -0.128315321570529, -3.615054035288412, -0.000000000000000 },
 {-0.871684678429471, 0.000000000000000, 0.000000000000000, 0.871684678429471, 3.615054035288412, -0.000000000000000, 0.128315321570529, 0.000000000000000, -3.615054035288412, -0.128315321570529, 0.000000000000001 },
 {0.800891617426876, -0.000000000000000, -0.000000000000000, -0.800891617426876, 0.199108382573124, 0.000000000000000, 0.199108382573124, -0.000000000000000, -0.199108382573124, -0.199108382573124, -0.000000000000000 },
 {-0.513713814124348, 0.287177803302528, 0.287177803302528, -0.513713814124347, 1.226536010821819, -0.574355606605057, -0.375247224031933, 1.027427628248695, -2.375247224031933, -0.773463989178181, 2.297422426420227 },
 {-0.513713814124348, 0.287177803302528, 0.287177803302528, -0.513713814124347, -0.375247224031933, -0.574355606605057, 1.226536010821819, 1.027427628248695, -0.773463989178181, -2.375247224031933, 2.297422426420227 },
 {-0.800891617426876, 0.000000000000000, 0.000000000000000, 0.800891617426876, 1.800891617426876, -0.000000000000000, 1.800891617426876, -0.000000000000000, -1.800891617426877, -1.800891617426877, 0.000000000000002 },
 {0.513713814124348, -0.287177803302528, -0.287177803302528, 0.513713814124347, 0.773463989178181, 0.574355606605057, 2.375247224031933, -1.027427628248695, 0.375247224031933, -1.226536010821819, -2.297422426420227 },
 {0.513713814124348, -0.287177803302529, -0.287177803302529, 0.513713814124348, 2.375247224031933, 0.574355606605057, 0.773463989178181, -1.027427628248695, -1.226536010821819, 0.375247224031933, -2.297422426420228 },
 {0.265078210405800, -0.000000000000000, -0.000000000000000, -0.265078210405800, 0.734921789594200, 0.000000000000000, 0.734921789594200, -0.000000000000000, -0.734921789594200, -0.734921789594200, -0.000000000000000 },
 {-0.018626106840630, 0.246452103565170, 0.246452103565170, -0.018626106840630, 0.772174003275460, -0.492904207130340, 0.242017582463859, 0.037252213681260, -1.757982417536141, -1.227825996724540, 1.971616828521362 },
 {-0.018626106840630, 0.246452103565170, 0.246452103565170, -0.018626106840630, 0.242017582463859, -0.492904207130340, 0.772174003275460, 0.037252213681260, -1.227825996724540, -1.757982417536141, 1.971616828521362 },
 {-0.265078210405800, 0.000000000000000, 0.000000000000000, 0.265078210405800, 1.265078210405800, -0.000000000000000, 1.265078210405800, -0.000000000000000, -1.265078210405801, -1.265078210405801, 0.000000000000001 },
 {0.018626106840630, -0.246452103565170, -0.246452103565170, 0.018626106840630, 1.227825996724540, 0.492904207130341, 1.757982417536141, -0.037252213681260, -0.242017582463859, -0.772174003275460, -1.971616828521362 },
 {0.018626106840630, -0.246452103565170, -0.246452103565170, 0.018626106840630, 1.757982417536141, 0.492904207130341, 1.227825996724541, -0.037252213681260, -0.772174003275459, -0.242017582463859, -1.971616828521364 },
 {-0.064464613091981, 0.843864235528750, 0.843864235528750, -0.209255897914774, -0.760124113468897, -1.687728471057500, -0.760124113468897, 0.273720511006756, -2.615332828646104, -2.615332828646104, 6.750913884230001 },
 {-0.024541773315016, 0.047853869096381, 0.047853869096381, -1.005266264347144, -0.004036586813493, -0.095707738192762, 0.831896619395842, 1.029808037662159, -0.187378889572030, -1.023312095781365, 0.382830952771046 },
 {-0.024541773315016, 0.047853869096381, 0.047853869096381, -1.005266264347144, 0.831896619395842, -0.095707738192762, -0.004036586813493, 1.029808037662159, -1.023312095781365, -0.187378889572030, 0.382830952771046 },
 {0.209255897914774, -0.843864235528750, -0.843864235528750, 0.064464613091982, 2.615332828646104, 1.687728471057500, 2.615332828646104, -0.273720511006756, 0.760124113468897, 0.760124113468897, -6.750913884230002 },
 {-0.868406008843766, -0.796010366432370, -0.796010366432370, 0.112318482188362, 3.645140866308264, 1.592020732864739, 2.519625090453343, 0.756087526655404, -0.461099400578785, 0.664416375276136, -6.368082931458957 },
 {-0.868406008843766, -0.796010366432370, -0.796010366432370, 0.112318482188362, 2.519625090453343, 1.592020732864739, 3.645140866308264, 0.756087526655404, 0.664416375276136, -0.461099400578785, -6.368082931458957 },
 {-0.072395642411396, -0.000000000000000, -0.000000000000000, 0.072395642411396, 0.091671151379268, -0.000000000000000, 2.053120133443525, 0.000000000000000, -0.091671151379268, -2.053120133443525, -0.000000000000000 },
 {-0.112318482188363, 0.796010366432369, 0.796010366432369, 0.868406008843766, 0.461099400578787, -1.592020732864738, -0.664416375276134, -0.756087526655403, -3.645140866308263, -2.519625090453342, 6.368082931458952 },
 {1.005266264347144, -0.047853869096381, -0.047853869096381, 0.024541773315016, 1.023312095781365, 0.095707738192762, 0.187378889572030, -1.029808037662160, -0.831896619395842, 0.004036586813493, -0.382830952771047 },
 {-0.072395642411396, -0.000000000000000, -0.000000000000000, 0.072395642411397, 2.053120133443525, 0.000000000000000, 0.091671151379268, -0.000000000000000, -2.053120133443525, -0.091671151379268, -0.000000000000000 },
 {-0.112318482188362, 0.796010366432369, 0.796010366432369, 0.868406008843766, -0.664416375276135, -1.592020732864739, 0.461099400578786, -0.756087526655404, -2.519625090453343, -3.645140866308263, 6.368082931458956 },
 {1.005266264347144, -0.047853869096381, -0.047853869096381, 0.024541773315016, 0.187378889572030, 0.095707738192762, 1.023312095781365, -1.029808037662160, 0.004036586813493, -0.831896619395842, -0.382830952771047 },
 {1.896499094755562, -0.024754616474591, -0.024754616474591, 0.200259482530191, 0.201389426836497, 0.049509232949182, 0.201389426836497, -2.096758577285753, -0.102370960938132, -0.102370960938132, -0.198036931796730 },
 {-0.709889855329868, 0.138229950782817, 0.138229950782817, 0.363244049787600, 2.644793809664519, -0.276459901565634, -0.124579707678320, 0.346645805542269, -3.197713612795788, -0.428340095452949, 1.105839606262538 },
 {-0.709889855329868, 0.138229950782817, 0.138229950782817, 0.363244049787600, -0.124579707678320, -0.276459901565634, 2.644793809664519, 0.346645805542269, -0.428340095452949, -3.197713612795788, 1.105839606262538 },
 {-0.200259482530191, 0.024754616474591, 0.024754616474591, -1.896499094755562, 0.102370960938132, -0.049509232949182, 0.102370960938132, 2.096758577285753, -0.201389426836497, -0.201389426836497, 0.198036931796730 },
 {-0.685135238855277, 0.162984567257408, 0.162984567257408, -1.758269143972745, 0.449016766480401, -0.325969134514817, -0.174088940627503, 2.443404382828022, -1.100955035510035, -0.477849328402131, 1.303876538059268 },
 {-0.685135238855277, 0.162984567257408, 0.162984567257408, -1.758269143972745, -0.174088940627503, -0.325969134514817, 0.449016766480401, 2.443404382828022, -0.477849328402131, -1.100955035510035, 1.303876538059268 },
 {-0.848119806112686, 0.000000000000000, 0.000000000000000, 0.848119806112686, 2.921253711230154, -0.000000000000000, 0.774985900995217, -0.000000000000000, -2.921253711230154, -0.774985900995218, 0.000000000000000 },
 {1.758269143972745, -0.162984567257408, -0.162984567257408, 0.685135238855277, 1.100955035510035, 0.325969134514817, 0.477849328402131, -2.443404382828022, -0.449016766480401, 0.174088940627503, -1.303876538059268 },
 {-0.363244049787600, -0.138229950782817, -0.138229950782817, 0.709889855329868, 0.428340095452949, 0.276459901565634, 3.197713612795788, -0.346645805542269, 0.124579707678320, -2.644793809664519, -1.105839606262538 },
 {-0.848119806112686, -0.000000000000000, -0.000000000000000, 0.848119806112686, 0.774985900995217, -0.000000000000000, 2.921253711230154, -0.000000000000000, -0.774985900995218, -2.921253711230154, -0.000000000000001 },
 {1.758269143972745, -0.162984567257408, -0.162984567257408, 0.685135238855277, 0.477849328402131, 0.325969134514817, 1.100955035510035, -2.443404382828022, 0.174088940627503, -0.449016766480401, -1.303876538059268 },
 {-0.363244049787600, -0.138229950782817, -0.138229950782817, 0.709889855329868, 3.197713612795788, 0.276459901565634, 0.428340095452949, -0.346645805542269, -2.644793809664519, 0.124579707678320, -1.105839606262538 },
};

double FEMQuadBubbleElement3D::dphiJdl2[NUMRULE][NUMGLEU] = 
{
 {0.000000000000000, 0.000000000000000, 0.000000000000000, 0.000000000000000, 1.000000000000000, 1.000000000000000, 0.000000000000000, -1.000000000000000, 0.000000000000000, -1.000000000000000, 0.000000000000000 },
 {0.000000000000000, -0.490116253733444, 0.000000000000000, 0.490116253733444, 2.470348761200332, 0.509883746266556, 0.000000000000000, -2.470348761200332, 0.000000000000000, -0.509883746266556, 0.000000000000000 },
 {0.254842253637503, -0.235274000095941, 0.254842253637503, -1.215506507562829, 0.000199238991550, 0.000199238991550, -0.509684507275006, -1.019568253541562, 1.450780507658770, -1.019568253541562, 2.038738029100023 },
 {0.000000000000000, -0.490116253733444, 0.000000000000000, 0.490116253733444, 0.509883746266556, 2.470348761200332, 0.000000000000000, -0.509883746266556, 0.000000000000000, -2.470348761200332, 0.000000000000000 },
 {-0.254842253637503, 1.215506507562829, -0.254842253637503, 0.235274000095941, 1.019568253541562, 1.019568253541562, 0.509684507275006, -0.000199238991550, -1.450780507658770, -0.000199238991550, -2.038738029100023 },
 {-0.000000000000000, -0.871684678429471, -0.000000000000000, 0.871684678429471, 3.615054035288412, 0.128315321570529, -0.000000000000000, -3.615054035288412, -0.000000000000001, -0.128315321570529, -0.000000000000001 },
 {0.028704265704656, -0.842980412724815, 0.028704265704656, -2.586349769583757, 0.070906790161218, 0.070906790161218, -0.057408531409312, -0.185723852979841, 3.429330182308572, -0.185723852979841, 0.229634125637247 },
 {-0.000000000000000, -0.871684678429471, -0.000000000000000, 0.871684678429471, 0.128315321570529, 3.615054035288412, -0.000000000000000, -0.128315321570529, -0.000000000000000, -3.615054035288412, -0.000000000000000 },
 {-0.028704265704656, 2.586349769583757, -0.028704265704656, 0.842980412724815, 0.185723852979841, 0.185723852979841, 0.057408531409312, -0.070906790161218, -3.429330182308571, -0.070906790161218, -0.229634125637247 },
 {0.287177803302528, -0.513713814124348, 0.287177803302528, -0.513713814124347, 1.226536010821819, -0.375247224031933, -0.574355606605057, -2.375247224031933, 1.027427628248695, -0.773463989178181, 2.297422426420227 },
 {-0.000000000000000, 0.800891617426876, -0.000000000000000, -0.800891617426876, 0.199108382573124, 0.199108382573124, -0.000000000000000, -0.199108382573124, -0.000000000000000, -0.199108382573124, -0.000000000000000 },
 {0.287177803302528, -0.513713814124348, 0.287177803302528, -0.513713814124347, -0.375247224031933, 1.226536010821819, -0.574355606605057, -0.773463989178181, 1.027427628248695, -2.375247224031933, 2.297422426420227 },
 {-0.287177803302528, 0.513713814124348, -0.287177803302528, 0.513713814124347, 0.773463989178181, 2.375247224031933, 0.574355606605057, 0.375247224031933, -1.027427628248695, -1.226536010821819, -2.297422426420227 },
 {-0.000000000000000, -0.800891617426876, -0.000000000000000, 0.800891617426876, 1.800891617426876, 1.800891617426876, -0.000000000000000, -1.800891617426877, -0.000000000000000, -1.800891617426877, -0.000000000000008 },
 {-0.287177803302529, 0.513713814124348, -0.287177803302529, 0.513713814124348, 2.375247224031933, 0.773463989178181, 0.574355606605057, -1.226536010821819, -1.027427628248695, 0.375247224031933, -2.297422426420228 },
 {0.246452103565170, -0.018626106840630, 0.246452103565170, -0.018626106840630, 0.772174003275460, 0.242017582463859, -0.492904207130340, -1.757982417536141, 0.037252213681260, -1.227825996724540, 1.971616828521362 },
 {-0.000000000000000, 0.265078210405800, -0.000000000000000, -0.265078210405800, 0.734921789594200, 0.734921789594200, -0.000000000000000, -0.734921789594200, -0.000000000000000, -0.734921789594200, -0.000000000000000 },
 {0.246452103565170, -0.018626106840630, 0.246452103565170, -0.018626106840630, 0.242017582463859, 0.772174003275460, -0.492904207130340, -1.227825996724540, 0.037252213681260, -1.757982417536141, 1.971616828521362 },
 {-0.246452103565170, 0.018626106840630, -0.246452103565170, 0.018626106840630, 1.227825996724540, 1.757982417536141, 0.492904207130341, -0.242017582463859, -0.037252213681260, -0.772174003275460, -1.971616828521362 },
 {-0.000000000000000, -0.265078210405800, -0.000000000000000, 0.265078210405800, 1.265078210405800, 1.265078210405800, -0.000000000000000, -1.265078210405801, -0.000000000000000, -1.265078210405801, -0.000000000000000 },
 {-0.246452103565170, 0.018626106840630, -0.246452103565170, 0.018626106840630, 1.757982417536141, 1.227825996724541, 0.492904207130341, -0.772174003275459, -0.037252213681260, -0.242017582463859, -1.971616828521364 },
 {0.047853869096381, -0.024541773315016, 0.047853869096381, -1.005266264347144, -0.004036586813493, 0.831896619395842, -0.095707738192762, -0.187378889572030, 1.029808037662159, -1.023312095781365, 0.382830952771046 },
 {0.843864235528750, -0.064464613091981, 0.843864235528750, -0.209255897914774, -0.760124113468897, -0.760124113468897, -1.687728471057500, -2.615332828646104, 0.273720511006756, -2.615332828646104, 6.750913884230001 },
 {0.047853869096381, -0.024541773315016, 0.047853869096381, -1.005266264347144, 0.831896619395842, -0.004036586813493, -0.095707738192762, -1.023312095781365, 1.029808037662159, -0.187378889572030, 0.382830952771046 },
 {-0.796010366432370, -0.868406008843766, -0.796010366432370, 0.112318482188362, 3.645140866308264, 2.519625090453343, 1.592020732864739, -0.461099400578785, 0.756087526655404, 0.664416375276136, -6.368082931458957 },
 {-0.843864235528750, 0.209255897914774, -0.843864235528750, 0.064464613091982, 2.615332828646104, 2.615332828646104, 1.687728471057500, 0.760124113468897, -0.273720511006756, 0.760124113468897, -6.750913884230002 },
 {-0.796010366432370, -0.868406008843766, -0.796010366432370, 0.112318482188362, 2.519625090453343, 3.645140866308264, 1.592020732864739, 0.664416375276136, 0.756087526655404, -0.461099400578785, -6.368082931458957 },
 {0.796010366432369, -0.112318482188362, 0.796010366432369, 0.868406008843766, -0.664416375276135, 0.461099400578786, -1.592020732864739, -2.519625090453343, -0.756087526655404, -3.645140866308263, 6.368082931458956 },
 {-0.047853869096381, 1.005266264347144, -0.047853869096381, 0.024541773315016, 0.187378889572030, 1.023312095781365, 0.095707738192762, 0.004036586813493, -1.029808037662160, -0.831896619395842, -0.382830952771047 },
 {-0.000000000000000, -0.072395642411396, -0.000000000000000, 0.072395642411397, 2.053120133443525, 0.091671151379268, 0.000000000000000, -2.053120133443525, -0.000000000000000, -0.091671151379268, -0.000000000000000 },
 {-0.047853869096381, 1.005266264347144, -0.047853869096381, 0.024541773315016, 1.023312095781365, 0.187378889572030, 0.095707738192762, -0.831896619395842, -1.029808037662160, 0.004036586813493, -0.382830952771047 },
 {-0.000000000000000, -0.072395642411396, -0.000000000000000, 0.072395642411396, 0.091671151379268, 2.053120133443525, -0.000000000000000, -0.091671151379268, -0.000000000000000, -2.053120133443525, -0.000000000000000 },
 {0.796010366432369, -0.112318482188363, 0.796010366432369, 0.868406008843766, 0.461099400578787, -0.664416375276134, -1.592020732864738, -3.645140866308263, -0.756087526655403, -2.519625090453342, 6.368082931458952 },
 {0.138229950782817, -0.709889855329868, 0.138229950782817, 0.363244049787600, 2.644793809664519, -0.124579707678320, -0.276459901565634, -3.197713612795788, 0.346645805542269, -0.428340095452949, 1.105839606262538 },
 {-0.024754616474591, 1.896499094755562, -0.024754616474591, 0.200259482530191, 0.201389426836497, 0.201389426836497, 0.049509232949182, -0.102370960938132, -2.096758577285753, -0.102370960938132, -0.198036931796730 },
 {0.138229950782817, -0.709889855329868, 0.138229950782817, 0.363244049787600, -0.124579707678320, 2.644793809664519, -0.276459901565634, -0.428340095452949, 0.346645805542269, -3.197713612795788, 1.105839606262538 },
 {0.162984567257408, -0.685135238855277, 0.162984567257408, -1.758269143972745, 0.449016766480401, -0.174088940627503, -0.325969134514817, -1.100955035510035, 2.443404382828022, -0.477849328402131, 1.303876538059268 },
 {0.024754616474591, -0.200259482530191, 0.024754616474591, -1.896499094755562, 0.102370960938132, 0.102370960938132, -0.049509232949182, -0.201389426836497, 2.096758577285753, -0.201389426836497, 0.198036931796730 },
 {0.162984567257408, -0.685135238855277, 0.162984567257408, -1.758269143972745, -0.174088940627503, 0.449016766480401, -0.325969134514817, -0.477849328402131, 2.443404382828022, -1.100955035510035, 1.303876538059268 },
 {-0.162984567257408, 1.758269143972745, -0.162984567257408, 0.685135238855277, 0.477849328402131, 1.100955035510035, 0.325969134514817, 0.174088940627503, -2.443404382828022, -0.449016766480401, -1.303876538059268 },
 {-0.138229950782817, -0.363244049787600, -0.138229950782817, 0.709889855329868, 3.197713612795788, 0.428340095452949, 0.276459901565634, -2.644793809664519, -0.346645805542269, 0.124579707678320, -1.105839606262538 },
 {-0.000000000000000, -0.848119806112686, -0.000000000000000, 0.848119806112686, 0.774985900995217, 2.921253711230154, -0.000000000000000, -0.774985900995218, -0.000000000000000, -2.921253711230154, -0.000000000000001 },
 {-0.138229950782817, -0.363244049787600, -0.138229950782817, 0.709889855329868, 0.428340095452949, 3.197713612795788, 0.276459901565634, 0.124579707678320, -0.346645805542269, -2.644793809664519, -1.105839606262538 },
 {-0.000000000000000, -0.848119806112686, -0.000000000000000, 0.848119806112686, 2.921253711230154, 0.774985900995217, -0.000000000000000, -2.921253711230154, -0.000000000000000, -0.774985900995218, -0.000000000000001 },
 {-0.162984567257408, 1.758269143972745, -0.162984567257408, 0.685135238855277, 1.100955035510035, 0.477849328402131, 0.325969134514817, -0.449016766480401, -2.443404382828022, 0.174088940627503, -1.303876538059268 },
};

double FEMQuadBubbleElement3D::dphiJdl3[NUMRULE][NUMGLEU] = 
{
 {0.000000000000000, 0.000000000000000, 0.000000000000000, 0.000000000000000, 0.000000000000000, 1.000000000000000, 1.000000000000000, -1.000000000000000, -1.000000000000000, 0.000000000000000, 0.000000000000000 },
 {0.000000000000000, 0.000000000000000, -0.490116253733444, 0.490116253733444, 0.000000000000000, 0.509883746266556, 2.470348761200332, -2.470348761200332, -0.509883746266556, 0.000000000000000, 0.000000000000000 },
 {0.254842253637503, 0.254842253637503, -0.235274000095941, -1.215506507562829, -0.509684507275006, 0.000199238991550, 0.000199238991550, -1.019568253541562, -1.019568253541562, 1.450780507658770, 2.038738029100023 },
 {-0.254842253637503, -0.254842253637503, 1.215506507562829, 0.235274000095941, 0.509684507275006, 1.019568253541562, 1.019568253541562, -0.000199238991550, -0.000199238991550, -1.450780507658770, -2.038738029100023 },
 {0.000000000000000, 0.000000000000000, -0.490116253733444, 0.490116253733444, 0.000000000000000, 2.470348761200332, 0.509883746266556, -0.509883746266556, -2.470348761200332, 0.000000000000000, 0.000000000000000 },
 {0.000000000000000, 0.000000000000000, -0.871684678429471, 0.871684678429471, -0.000000000000000, 0.128315321570529, 3.615054035288412, -3.615054035288412, -0.128315321570529, 0.000000000000000, 0.000000000000001 },
 {0.028704265704656, 0.028704265704656, -0.842980412724815, -2.586349769583757, -0.057408531409312, 0.070906790161218, 0.070906790161218, -0.185723852979841, -0.185723852979841, 3.429330182308572, 0.229634125637247 },
 {-0.028704265704656, -0.028704265704656, 2.586349769583757, 0.842980412724815, 0.057408531409312, 0.185723852979841, 0.185723852979841, -0.070906790161218, -0.070906790161218, -3.429330182308572, -0.229634125637247 },
 {-0.000000000000000, -0.000000000000000, -0.871684678429471, 0.871684678429471, -0.000000000000000, 3.615054035288412, 0.128315321570529, -0.128315321570529, -3.615054035288412, -0.000000000000001, -0.000000000000001 },
 {0.287177803302528, 0.287177803302528, -0.513713814124348, -0.513713814124347, -0.574355606605057, -0.375247224031933, 1.226536010821819, -2.375247224031933, -0.773463989178181, 1.027427628248695, 2.297422426420227 },
 {0.287177803302528, 0.287177803302528, -0.513713814124348, -0.513713814124347, -0.574355606605057, 1.226536010821819, -0.375247224031933, -0.773463989178181, -2.375247224031933, 1.027427628248695, 2.297422426420227 },
 {-0.000000000000000, -0.000000000000000, 0.800891617426876, -0.800891617426876, -0.000000000000000, 0.199108382573124, 0.199108382573124, -0.199108382573124, -0.199108382573124, -0.000000000000000, -0.000000000000000 },
 {-0.287177803302528, -0.287177803302528, 0.513713814124348, 0.513713814124347, 0.574355606605057, 2.375247224031933, 0.773463989178181, 0.375247224031933, -1.226536010821819, -1.027427628248695, -2.297422426420227 },
 {-0.287177803302528, -0.287177803302528, 0.513713814124348, 0.513713814124347, 0.574355606605057, 0.773463989178181, 2.375247224031933, -1.226536010821819, 0.375247224031933, -1.027427628248695, -2.297422426420227 },
 {-0.000000000000000, -0.000000000000000, -0.800891617426877, 0.800891617426876, 0.000000000000001, 1.800891617426877, 1.800891617426877, -1.800891617426875, -1.800891617426875, -0.000000000000001, -0.000000000000004 },
 {0.246452103565170, 0.246452103565170, -0.018626106840630, -0.018626106840630, -0.492904207130340, 0.242017582463859, 0.772174003275460, -1.757982417536141, -1.227825996724540, 0.037252213681260, 1.971616828521362 },
 {0.246452103565170, 0.246452103565170, -0.018626106840630, -0.018626106840630, -0.492904207130340, 0.772174003275460, 0.242017582463859, -1.227825996724540, -1.757982417536141, 0.037252213681260, 1.971616828521362 },
 {-0.000000000000000, -0.000000000000000, 0.265078210405800, -0.265078210405800, -0.000000000000000, 0.734921789594200, 0.734921789594200, -0.734921789594200, -0.734921789594200, -0.000000000000000, -0.000000000000000 },
 {-0.246452103565170, -0.246452103565170, 0.018626106840630, 0.018626106840630, 0.492904207130341, 1.757982417536141, 1.227825996724540, -0.242017582463859, -0.772174003275460, -0.037252213681260, -1.971616828521362 },
 {-0.246452103565170, -0.246452103565170, 0.018626106840630, 0.018626106840630, 0.492904207130341, 1.227825996724540, 1.757982417536141, -0.772174003275460, -0.242017582463859, -0.037252213681260, -1.971616828521362 },
 {-0.000000000000000, -0.000000000000000, -0.265078210405801, 0.265078210405800, 0.000000000000001, 1.265078210405801, 1.265078210405801, -1.265078210405800, -1.265078210405800, -0.000000000000001, -0.000000000000002 },
 {0.047853869096381, 0.047853869096381, -0.024541773315016, -1.005266264347144, -0.095707738192762, 0.831896619395842, -0.004036586813493, -0.187378889572030, -1.023312095781365, 1.029808037662159, 0.382830952771046 },
 {0.047853869096381, 0.047853869096381, -0.024541773315016, -1.005266264347144, -0.095707738192762, -0.004036586813493, 0.831896619395842, -1.023312095781365, -0.187378889572030, 1.029808037662159, 0.382830952771046 },
 {0.843864235528750, 0.843864235528750, -0.064464613091981, -0.209255897914774, -1.687728471057500, -0.760124113468897, -0.760124113468897, -2.615332828646104, -2.615332828646104, 0.273720511006756, 6.750913884230001 },
 {-0.796010366432370, -0.796010366432370, -0.868406008843766, 0.112318482188362, 1.592020732864739, 2.519625090453343, 3.645140866308264, -0.461099400578785, 0.664416375276136, 0.756087526655404, -6.368082931458957 },
 {-0.796010366432370, -0.796010366432370, -0.868406008843766, 0.112318482188362, 1.592020732864739, 3.645140866308264, 2.519625090453343, 0.664416375276136, -0.461099400578785, 0.756087526655404, -6.368082931458957 },
 {-0.843864235528750, -0.843864235528750, 0.209255897914774, 0.064464613091982, 1.687728471057500, 2.615332828646104, 2.615332828646104, 0.760124113468897, 0.760124113468897, -0.273720511006756, -6.750913884230002 },
 {-0.047853869096381, -0.047853869096381, 1.005266264347144, 0.024541773315015, 0.095707738192762, 0.187378889572030, 1.023312095781365, -0.831896619395842, 0.004036586813493, -1.029808037662159, -0.382830952771046 },
 {-0.000000000000000, -0.000000000000000, -0.072395642411396, 0.072395642411397, 0.000000000000000, 2.053120133443525, 0.091671151379268, -0.091671151379268, -2.053120133443525, -0.000000000000000, -0.000000000000000 },
 {0.796010366432369, 0.796010366432369, -0.112318482188363, 0.868406008843766, -1.592020732864738, -0.664416375276134, 0.461099400578787, -3.645140866308263, -2.519625090453342, -0.756087526655403, 6.368082931458952 },
 {0.796010366432369, 0.796010366432369, -0.112318482188363, 0.868406008843766, -1.592020732864738, 0.461099400578787, -0.664416375276134, -2.519625090453342, -3.645140866308263, -0.756087526655403, 6.368082931458952 },
 {-0.047853869096381, -0.047853869096381, 1.005266264347144, 0.024541773315015, 0.095707738192762, 1.023312095781365, 0.187378889572030, 0.004036586813493, -0.831896619395842, -1.029808037662159, -0.382830952771046 },
 {-0.000000000000000, -0.000000000000000, -0.072395642411396, 0.072395642411397, 0.000000000000000, 0.091671151379268, 2.053120133443525, -2.053120133443525, -0.091671151379268, -0.000000000000000, -0.000000000000000 },
 {0.138229950782817, 0.138229950782817, -0.709889855329868, 0.363244049787600, -0.276459901565634, -0.124579707678320, 2.644793809664519, -3.197713612795788, -0.428340095452949, 0.346645805542269, 1.105839606262538 },
 {0.138229950782817, 0.138229950782817, -0.709889855329868, 0.363244049787600, -0.276459901565634, 2.644793809664519, -0.124579707678320, -0.428340095452949, -3.197713612795788, 0.346645805542269, 1.105839606262538 },
 {-0.024754616474591, -0.024754616474591, 1.896499094755562, 0.200259482530191, 0.049509232949182, 0.201389426836497, 0.201389426836497, -0.102370960938132, -0.102370960938132, -2.096758577285753, -0.198036931796730 },
 {0.162984567257408, 0.162984567257408, -0.685135238855277, -1.758269143972745, -0.325969134514817, -0.174088940627503, 0.449016766480401, -1.100955035510035, -0.477849328402131, 2.443404382828022, 1.303876538059268 },
 {0.162984567257408, 0.162984567257408, -0.685135238855277, -1.758269143972745, -0.325969134514817, 0.449016766480401, -0.174088940627503, -0.477849328402131, -1.100955035510035, 2.443404382828022, 1.303876538059268 },
 {0.024754616474591, 0.024754616474591, -0.200259482530191, -1.896499094755562, -0.049509232949182, 0.102370960938132, 0.102370960938132, -0.201389426836497, -0.201389426836497, 2.096758577285753, 0.198036931796730 },
 {-0.138229950782817, -0.138229950782817, -0.363244049787600, 0.709889855329868, 0.276459901565634, 3.197713612795788, 0.428340095452949, 0.124579707678320, -2.644793809664519, -0.346645805542269, -1.105839606262538 },
 {-0.000000000000000, -0.000000000000000, -0.848119806112686, 0.848119806112686, -0.000000000000000, 0.774985900995217, 2.921253711230154, -2.921253711230154, -0.774985900995218, -0.000000000000000, -0.000000000000001 },
 {-0.162984567257408, -0.162984567257408, 1.758269143972745, 0.685135238855277, 0.325969134514817, 0.477849328402131, 1.100955035510035, -0.449016766480401, 0.174088940627503, -2.443404382828022, -1.303876538059268 },
 {-0.162984567257408, -0.162984567257408, 1.758269143972745, 0.685135238855277, 0.325969134514817, 1.100955035510035, 0.477849328402131, 0.174088940627503, -0.449016766480401, -2.443404382828022, -1.303876538059268 },
 {-0.138229950782817, -0.138229950782817, -0.363244049787600, 0.709889855329868, 0.276459901565634, 0.428340095452949, 3.197713612795788, -2.644793809664519, 0.124579707678320, -0.346645805542269, -1.105839606262538 },
 {-0.000000000000000, -0.000000000000000, -0.848119806112686, 0.848119806112686, -0.000000000000000, 2.921253711230154, 0.774985900995217, -0.774985900995218, -2.921253711230154, -0.000000000000000, -0.000000000000001 },
};

double FEMQuadBubbleElement3D::dgqPointsdl1[NUMRULE][NUMGLEP] = 
{
 {1.000000000000000, 0.000000000000000, 0.000000000000000, -1.000000000000000 },
 {1.000000000000000, 0.000000000000000, 0.000000000000000, -1.000000000000000 },
 {1.000000000000000, 0.000000000000000, 0.000000000000000, -1.000000000000000 },
 {1.000000000000000, 0.000000000000000, 0.000000000000000, -1.000000000000000 },
 {1.000000000000000, 0.000000000000000, 0.000000000000000, -1.000000000000000 },
 {1.000000000000000, 0.000000000000000, 0.000000000000000, -1.000000000000000 },
 {1.000000000000000, 0.000000000000000, 0.000000000000000, -1.000000000000000 },
 {1.000000000000000, 0.000000000000000, 0.000000000000000, -1.000000000000000 },
 {1.000000000000000, 0.000000000000000, 0.000000000000000, -1.000000000000000 },
 {1.000000000000000, 0.000000000000000, 0.000000000000000, -1.000000000000000 },
 {1.000000000000000, 0.000000000000000, 0.000000000000000, -1.000000000000000 },
 {1.000000000000000, 0.000000000000000, 0.000000000000000, -1.000000000000000 },
 {1.000000000000000, 0.000000000000000, 0.000000000000000, -1.000000000000000 },
 {1.000000000000000, 0.000000000000000, 0.000000000000000, -1.000000000000000 },
 {1.000000000000000, 0.000000000000000, 0.000000000000000, -1.000000000000000 },
 {1.000000000000000, 0.000000000000000, 0.000000000000000, -1.000000000000000 },
 {1.000000000000000, 0.000000000000000, 0.000000000000000, -1.000000000000000 },
 {1.000000000000000, 0.000000000000000, 0.000000000000000, -1.000000000000000 },
 {1.000000000000000, 0.000000000000000, 0.000000000000000, -1.000000000000000 },
 {1.000000000000000, 0.000000000000000, 0.000000000000000, -1.000000000000000 },
 {1.000000000000000, 0.000000000000000, 0.000000000000000, -1.000000000000000 },
 {1.000000000000000, 0.000000000000000, 0.000000000000000, -1.000000000000000 },
 {1.000000000000000, 0.000000000000000, 0.000000000000000, -1.000000000000000 },
 {1.000000000000000, 0.000000000000000, 0.000000000000000, -1.000000000000000 },
 {1.000000000000000, 0.000000000000000, 0.000000000000000, -1.000000000000000 },
 {1.000000000000000, 0.000000000000000, 0.000000000000000, -1.000000000000000 },
 {1.000000000000000, 0.000000000000000, 0.000000000000000, -1.000000000000000 },
 {1.000000000000000, 0.000000000000000, 0.000000000000000, -1.000000000000000 },
 {1.000000000000000, 0.000000000000000, 0.000000000000000, -1.000000000000000 },
 {1.000000000000000, 0.000000000000000, 0.000000000000000, -1.000000000000000 },
 {1.000000000000000, 0.000000000000000, 0.000000000000000, -1.000000000000000 },
 {1.000000000000000, 0.000000000000000, 0.000000000000000, -1.000000000000000 },
 {1.000000000000000, 0.000000000000000, 0.000000000000000, -1.000000000000000 },
 {1.000000000000000, 0.000000000000000, 0.000000000000000, -1.000000000000000 },
 {1.000000000000000, 0.000000000000000, 0.000000000000000, -1.000000000000000 },
 {1.000000000000000, 0.000000000000000, 0.000000000000000, -1.000000000000000 },
 {1.000000000000000, 0.000000000000000, 0.000000000000000, -1.000000000000000 },
 {1.000000000000000, 0.000000000000000, 0.000000000000000, -1.000000000000000 },
 {1.000000000000000, 0.000000000000000, 0.000000000000000, -1.000000000000000 },
 {1.000000000000000, 0.000000000000000, 0.000000000000000, -1.000000000000000 },
 {1.000000000000000, 0.000000000000000, 0.000000000000000, -1.000000000000000 },
 {1.000000000000000, 0.000000000000000, 0.000000000000000, -1.000000000000000 },
 {1.000000000000000, 0.000000000000000, 0.000000000000000, -1.000000000000000 },
 {1.000000000000000, 0.000000000000000, 0.000000000000000, -1.000000000000000 },
 {1.000000000000000, 0.000000000000000, 0.000000000000000, -1.000000000000000 },
};

double FEMQuadBubbleElement3D::dgqPointsdl2[NUMRULE][NUMGLEP] = 
{
 {0.000000000000000, 1.000000000000000, 0.000000000000000, -1.000000000000000 },
 {0.000000000000000, 1.000000000000000, 0.000000000000000, -1.000000000000000 },
 {0.000000000000000, 1.000000000000000, 0.000000000000000, -1.000000000000000 },
 {0.000000000000000, 1.000000000000000, 0.000000000000000, -1.000000000000000 },
 {0.000000000000000, 1.000000000000000, 0.000000000000000, -1.000000000000000 },
 {0.000000000000000, 1.000000000000000, 0.000000000000000, -1.000000000000000 },
 {0.000000000000000, 1.000000000000000, 0.000000000000000, -1.000000000000000 },
 {0.000000000000000, 1.000000000000000, 0.000000000000000, -1.000000000000000 },
 {0.000000000000000, 1.000000000000000, 0.000000000000000, -1.000000000000000 },
 {0.000000000000000, 1.000000000000000, 0.000000000000000, -1.000000000000000 },
 {0.000000000000000, 1.000000000000000, 0.000000000000000, -1.000000000000000 },
 {0.000000000000000, 1.000000000000000, 0.000000000000000, -1.000000000000000 },
 {0.000000000000000, 1.000000000000000, 0.000000000000000, -1.000000000000000 },
 {0.000000000000000, 1.000000000000000, 0.000000000000000, -1.000000000000000 },
 {0.000000000000000, 1.000000000000000, 0.000000000000000, -1.000000000000000 },
 {0.000000000000000, 1.000000000000000, 0.000000000000000, -1.000000000000000 },
 {0.000000000000000, 1.000000000000000, 0.000000000000000, -1.000000000000000 },
 {0.000000000000000, 1.000000000000000, 0.000000000000000, -1.000000000000000 },
 {0.000000000000000, 1.000000000000000, 0.000000000000000, -1.000000000000000 },
 {0.000000000000000, 1.000000000000000, 0.000000000000000, -1.000000000000000 },
 {0.000000000000000, 1.000000000000000, 0.000000000000000, -1.000000000000000 },
 {0.000000000000000, 1.000000000000000, 0.000000000000000, -1.000000000000000 },
 {0.000000000000000, 1.000000000000000, 0.000000000000000, -1.000000000000000 },
 {0.000000000000000, 1.000000000000000, 0.000000000000000, -1.000000000000000 },
 {0.000000000000000, 1.000000000000000, 0.000000000000000, -1.000000000000000 },
 {0.000000000000000, 1.000000000000000, 0.000000000000000, -1.000000000000000 },
 {0.000000000000000, 1.000000000000000, 0.000000000000000, -1.000000000000000 },
 {0.000000000000000, 1.000000000000000, 0.000000000000000, -1.000000000000000 },
 {0.000000000000000, 1.000000000000000, 0.000000000000000, -1.000000000000000 },
 {0.000000000000000, 1.000000000000000, 0.000000000000000, -1.000000000000000 },
 {0.000000000000000, 1.000000000000000, 0.000000000000000, -1.000000000000000 },
 {0.000000000000000, 1.000000000000000, 0.000000000000000, -1.000000000000000 },
 {0.000000000000000, 1.000000000000000, 0.000000000000000, -1.000000000000000 },
 {0.000000000000000, 1.000000000000000, 0.000000000000000, -1.000000000000000 },
 {0.000000000000000, 1.000000000000000, 0.000000000000000, -1.000000000000000 },
 {0.000000000000000, 1.000000000000000, 0.000000000000000, -1.000000000000000 },
 {0.000000000000000, 1.000000000000000, 0.000000000000000, -1.000000000000000 },
 {0.000000000000000, 1.000000000000000, 0.000000000000000, -1.000000000000000 },
 {0.000000000000000, 1.000000000000000, 0.000000000000000, -1.000000000000000 },
 {0.000000000000000, 1.000000000000000, 0.000000000000000, -1.000000000000000 },
 {0.000000000000000, 1.000000000000000, 0.000000000000000, -1.000000000000000 },
 {0.000000000000000, 1.000000000000000, 0.000000000000000, -1.000000000000000 },
 {0.000000000000000, 1.000000000000000, 0.000000000000000, -1.000000000000000 },
 {0.000000000000000, 1.000000000000000, 0.000000000000000, -1.000000000000000 },
 {0.000000000000000, 1.000000000000000, 0.000000000000000, -1.000000000000000 },
};

double FEMQuadBubbleElement3D::dgqPointsdl3[NUMRULE][NUMGLEP] = 
{
 {0.000000000000000, 0.000000000000000, 1.000000000000000, -1.000000000000000 },
 {0.000000000000000, 0.000000000000000, 1.000000000000000, -1.000000000000000 },
 {0.000000000000000, 0.000000000000000, 1.000000000000000, -1.000000000000000 },
 {0.000000000000000, 0.000000000000000, 1.000000000000000, -1.000000000000000 },
 {0.000000000000000, 0.000000000000000, 1.000000000000000, -1.000000000000000 },
 {0.000000000000000, 0.000000000000000, 1.000000000000000, -1.000000000000000 },
 {0.000000000000000, 0.000000000000000, 1.000000000000000, -1.000000000000000 },
 {0.000000000000000, 0.000000000000000, 1.000000000000000, -1.000000000000000 },
 {0.000000000000000, 0.000000000000000, 1.000000000000000, -1.000000000000000 },
 {0.000000000000000, 0.000000000000000, 1.000000000000000, -1.000000000000000 },
 {0.000000000000000, 0.000000000000000, 1.000000000000000, -1.000000000000000 },
 {0.000000000000000, 0.000000000000000, 1.000000000000000, -1.000000000000000 },
 {0.000000000000000, 0.000000000000000, 1.000000000000000, -1.000000000000000 },
 {0.000000000000000, 0.000000000000000, 1.000000000000000, -1.000000000000000 },
 {0.000000000000000, 0.000000000000000, 1.000000000000000, -1.000000000000000 },
 {0.000000000000000, 0.000000000000000, 1.000000000000000, -1.000000000000000 },
 {0.000000000000000, 0.000000000000000, 1.000000000000000, -1.000000000000000 },
 {0.000000000000000, 0.000000000000000, 1.000000000000000, -1.000000000000000 },
 {0.000000000000000, 0.000000000000000, 1.000000000000000, -1.000000000000000 },
 {0.000000000000000, 0.000000000000000, 1.000000000000000, -1.000000000000000 },
 {0.000000000000000, 0.000000000000000, 1.000000000000000, -1.000000000000000 },
 {0.000000000000000, 0.000000000000000, 1.000000000000000, -1.000000000000000 },
 {0.000000000000000, 0.000000000000000, 1.000000000000000, -1.000000000000000 },
 {0.000000000000000, 0.000000000000000, 1.000000000000000, -1.000000000000000 },
 {0.000000000000000, 0.000000000000000, 1.000000000000000, -1.000000000000000 },
 {0.000000000000000, 0.000000000000000, 1.000000000000000, -1.000000000000000 },
 {0.000000000000000, 0.000000000000000, 1.000000000000000, -1.000000000000000 },
 {0.000000000000000, 0.000000000000000, 1.000000000000000, -1.000000000000000 },
 {0.000000000000000, 0.000000000000000, 1.000000000000000, -1.000000000000000 },
 {0.000000000000000, 0.000000000000000, 1.000000000000000, -1.000000000000000 },
 {0.000000000000000, 0.000000000000000, 1.000000000000000, -1.000000000000000 },
 {0.000000000000000, 0.000000000000000, 1.000000000000000, -1.000000000000000 },
 {0.000000000000000, 0.000000000000000, 1.000000000000000, -1.000000000000000 },
 {0.000000000000000, 0.000000000000000, 1.000000000000000, -1.000000000000000 },
 {0.000000000000000, 0.000000000000000, 1.000000000000000, -1.000000000000000 },
 {0.000000000000000, 0.000000000000000, 1.000000000000000, -1.000000000000000 },
 {0.000000000000000, 0.000000000000000, 1.000000000000000, -1.000000000000000 },
 {0.000000000000000, 0.000000000000000, 1.000000000000000, -1.000000000000000 },
 {0.000000000000000, 0.000000000000000, 1.000000000000000, -1.000000000000000 },
 {0.000000000000000, 0.000000000000000, 1.000000000000000, -1.000000000000000 },
 {0.000000000000000, 0.000000000000000, 1.000000000000000, -1.000000000000000 },
 {0.000000000000000, 0.000000000000000, 1.000000000000000, -1.000000000000000 },
 {0.000000000000000, 0.000000000000000, 1.000000000000000, -1.000000000000000 },
 {0.000000000000000, 0.000000000000000, 1.000000000000000, -1.000000000000000 },
 {0.000000000000000, 0.000000000000000, 1.000000000000000, -1.000000000000000 },
};

